,tox21-ahr-p1,tox21-ap1-agonist-p1,tox21-ar-bla-antagonist-p1,tox21-ar-mda-kb2-luc-agonist-p3,tox21-ar-mda-kb2-luc-antagonist-p1,tox21-ar-mda-kb2-luc-antagonist-p2,tox21-are-bla-p1,tox21-aromatase-p1,tox21-car-agonist-p1,tox21-car-antagonist-p1,tox21-elg1-luc-agonist-p1,tox21-er-bla-antagonist-p1,tox21-er-luc-bg1-4e2-agonist-p4,tox21-er-luc-bg1-4e2-antagonist-p1,tox21-er-luc-bg1-4e2-antagonist-p2,tox21-erb-bla-antagonist-p1,tox21-erb-bla-p1,tox21-err-p1,tox21-esre-bla-p1,tox21-fxr-bla-agonist-p2,tox21-fxr-bla-antagonist-p1,tox21-gh3-tre-antagonist-p1,tox21-gr-hela-bla-antagonist-p1,tox21-h2ax-cho-p2,tox21-hdac-p1,tox21-hre-bla-agonist-p1,tox21-hse-bla-p1,tox21-mitotox-p1,tox21-nfkb-bla-agonist-p1,tox21-p53-bla-p1,tox21-pgc-err-p1,tox21-ppard-bla-agonist-p1,tox21-ppard-bla-antagonist-p1,tox21-pparg-bla-antagonist-p1,tox21-pr-bla-agonist-p1,tox21-pr-bla-antagonist-p1,tox21-rar-antagonist-p2,tox21-ror-cho-antagonist-p1,tox21-rxr-bla-agonist-p1,tox21-sbe-bla-agonist-p1,tox21-sbe-bla-antagonist-p1,tox21-shh-3t3-gli3-agonist-p1,tox21-shh-3t3-gli3-antagonist-p1,tox21-vdr-bla-agonist-p1,tox21-vdr-bla-antagonist-p1,tox21-dt40-p1_653,tox21-dt40-p1_100,tox21-dt40-p1_657,tox21-rt-viability-hepg2-p1,tox21-rt-viability-hek293-p1
MaxEStateIndex,0.5614375841168675,-29.85118770156862,-1.2286140348764287,-12.75122997080956,-13.9146351365512,-10.257862309309756,-18.87822205622375,2.2824102342804036,-8.640458169255178,-2.6431013961366143,18.282623476621367,9.88838268135359,-3.7552779197107857,-5.261720988538038,1.7807933999144527,-7.278569411705409,-22.576174976412126,-2.5765410324263356,2.9126149501488716,22.77850050570459,-19.560073883030892,-12.258257396724417,0.4838744447423764,-14.084182176792698,43.54634559430141,-2.261217808564374,-11.295395753091114,-11.714478946402599,12.05190129686455,-17.218517239752504,2.4829354748091164,-0.4120803366330154,-5.789484609535753,-16.572537776774812,-16.19769203398546,-19.797891364204588,6.937558287676771,-4.29897859175884,-11.466966556992855,-13.287578435409992,-38.16389121401867,-7.129110686902522,-5.0533128993352605,-11.306232518932338,-23.003413150016975,-8.077616582449213,-0.22922812689556368,-4.544007388588879,9.884624380096122,-9.769096786127177
MinEStateIndex,0.34204590759368597,0.38209139262130576,-0.06335161348501654,0.293876778290089,0.31162944467012244,0.12319639427918959,-0.39079125236228246,0.09840377143646231,0.06320988548997113,0.16327076082420788,-0.2608236194268743,0.14134470618079165,0.3543227429255426,0.7210511977214025,-0.053456560715456694,-0.021663305673244995,-0.06478724112594897,-0.028652652411035442,-0.2930175751699371,0.10947236809628291,0.1007734064516746,0.09960596546237796,-0.18037361195044332,-0.2410907045259765,-1.6976042503768216,0.14411636193208133,-0.8031490348501281,0.338945017018215,-0.26908575221367825,0.3999728044269274,-0.04388693756155295,-0.057799605010473896,-0.1909808227372,-0.18832368825420365,0.19574932495994513,-0.05678878249584535,-0.2390176149252916,0.23179051571760576,-0.2799901487882385,-0.8178100150032686,-0.3224264279884817,0.056666156069332806,-0.003774470417421708,0.021784217044677624,-0.06603597868090376,-0.1045126419425809,-0.19223897736032639,-0.15357468372422922,-0.3072721458620509,0.016728054174574868
MaxAbsEStateIndex,-0.7672000208936144,29.565251507046582,1.0298030941893295,12.262754138988388,13.466692780835338,9.688670431558418,18.656655324711906,-2.5286596175093914,8.268901487004188,2.2299457644496603,-18.128392143487684,-9.721747089609922,3.494863758936312,4.6630733031255645,-1.410824223606505,7.035319298619279,22.308095868506538,2.2499383732263465,-3.120334564469877,-22.589256507770457,19.177838783123573,11.992513118605503,-1.0639392694806096,13.671788646436314,-40.313751362531896,1.8318106537336791,11.197301284088645,12.087723508034067,-11.30976085183968,17.279759906116062,-2.8950661396826773,0.19423299863665391,5.609917084763501,16.21718310996963,15.950563805882773,19.87129841780432,-7.533668860651384,3.9849595536907696,11.258293229773903,12.348238990675448,37.817583597039324,6.912139114586204,4.722375950039678,11.292863137223405,22.678745128927815,8.065408104882732,0.2419808942576025,4.455353258356868,-10.332097861685261,9.517681017623811
MinAbsEStateIndex,0.13073612280514865,0.6159743859374978,0.47478111998324257,0.23260033801294147,0.20981234880945018,0.20234045405935747,0.4727750559958083,0.5375408351520202,0.10377467872812923,-0.0006750894925573605,-0.24365902253845606,-0.5134555809174974,0.4363780198677457,-0.13254221364312263,-0.21956029309277572,0.15104615270360253,0.20014378444550282,0.25547905117492464,0.7312589854080634,-0.2722918284862729,0.35592663892441195,0.37579475373945265,0.3154426956871867,0.38974943405810797,-0.5871944584905847,0.22752820273416574,0.6568214423918441,-0.3777253026585404,-0.4835971313200251,0.579152821379184,0.2847243403417766,0.4565498486439348,0.366006674528539,0.8500021877916498,0.3044653993116108,0.08993326016256017,0.43628265458038584,0.2063186121086952,0.13024641475350096,0.5783235594140087,0.9310598002939722,0.36625845134581664,0.24614400909604325,0.26642348632194224,0.4184023200093348,0.16573455900676215,0.0593405580785382,0.21754939852335542,0.3461225850409895,0.23548578739969056
qed,0.2854461149177909,-0.02623993403412989,0.11319675528748502,0.007126078814035819,0.0958783708035736,0.20801121966852432,0.27877022836644394,0.06816144901016817,0.1448941093118427,0.04813846176824811,-0.5138291233102193,-0.19297817030668105,-0.052310552862930744,0.25128491233638517,-0.34661984585671934,-0.10079192946829742,-0.15723188466767513,0.03760978995463975,0.2143372214939878,-0.19319698968145163,0.2232274943849857,-0.02670177144251065,0.2651492918044079,0.04010762978677279,-0.7435685783719012,0.17282908195273095,0.16054619175980578,0.4511269808792627,-0.05069953510134522,0.28209298895652657,-0.032395680307123226,0.10972502731552711,0.1268595886764056,0.29888994992776347,-0.09685333480501958,-0.08517214708331189,0.029305604958234525,0.1328440786585061,0.023068172510251096,0.05724853070221416,-0.08292280882344379,0.05011877773048362,-0.04821720436542056,0.038068115959597915,-0.02072174752716235,-0.22162363665961446,-0.19849333044448567,-0.15602483290096616,0.10381220788936882,-0.21937685037916688
MolWt,-12.833876818598297,91.15284797785193,-0.6396010499312934,-2.3408232776871425,-10.838613168824585,18.070470326915284,-20.869791442770794,15.89590688855976,-9.08500341994707,1.6786922584318522,6.15033831850811,3.27032104404523,-6.468351958746136,19.362038321757943,7.562194343004122,-0.557776219593173,-4.150581832961915,-1.8130113437670552,4.358754134341704,1.9735544701543968,-3.1681490021548564,-0.18831967835243926,-0.7546416076632373,94.17905707118916,-47.962787092724376,0.03593292123928804,38.70522842685621,-7.93876177941331,-9.03795202178722,18.461395059887927,6.988971682075138,-0.3562983493316478,-0.8024156770854731,0.5393818435901482,-2.2155794999736864,-34.45210390600455,0.11536711291443338,-3.6792872817754585,9.55485865278053,150.65300470914383,119.53432003827966,-28.04310887488484,-3.2594026480729057,0.7539752877947415,63.24895955785849,31.767150224108182,-0.5335950167920206,21.88331683321846,-0.5981204844381182,64.05527702999011
HeavyAtomMolWt,54.939637787159086,132.76083545892794,2.568533177813484,77.75531453553981,94.1270777104763,77.20029391060979,118.88440371087756,60.57489661558826,50.35749224594861,14.728329449037767,-69.24371995602922,-13.499464112789951,32.3308317721886,32.265471419411796,-8.23444476366762,8.58909051209506,108.02835940778843,13.23187500560158,16.47236423103744,-7.9053359974922115,61.51788324687148,26.023490569653568,2.600936080375778,43.515084935613494,-86.53060748707766,1.169495894110595,62.08342646551548,-45.72260426241159,-19.352625620051867,79.7732804351188,38.952677680736784,-0.6057130207606449,7.784037742375756,20.522388141223782,6.203097950000991,48.79418367167787,10.407432340292715,28.088307567958203,71.47812905630555,112.51816429400434,41.54219428514244,3.4707728098542443,26.593859231204238,15.964854504570445,17.46491719352019,27.713104471432082,-0.3063742360757385,32.07661815193419,20.36391757722796,80.82276583593998
ExactMolWt,-40.89724591028317,-218.2896601776078,-2.8955560232479947,-76.23234188854983,-85.31281575785803,-92.2760238802995,-104.65709728543634,-73.00991335352305,-40.07356804075085,-12.770242503992863,64.29356209357152,5.978379008630877,-21.923775114161568,-48.66534867372833,-1.378915143756194,-5.7133023933274965,-110.31482439488728,-11.077956022663972,-16.939304516863956,5.285290260190056,-59.09995101695093,-22.48646517595489,-1.3590855973275018,-138.1680369266629,111.6485692381368,-0.8622188064053559,-98.69039265931947,45.973111072765214,21.931482425856597,-104.32286458731183,-45.18883931724816,-0.5869689501637431,-5.754062659581688,-20.54940529615381,-4.045816218175838,-16.529300072373367,-4.740184506549867,-23.11977354159474,-81.80084382611052,-265.12948077011924,-156.52968892760927,30.684888125983072,-20.21187749908447,-15.81909447635138,-75.99573268354997,-59.17248610673052,-1.0810112031320915,-54.70903699561301,-23.823269486679305,-146.64856033482647
NumValenceElectrons,-21.106373759085606,-14.368864266771201,-5.54292463113364,-4.329393367653507,-16.325152783718398,-19.263191246500554,3.6247945857514794,-11.772357917447739,-18.858861436307535,-16.71453812840561,4.255738522790832,6.733736417854182,-29.359148687795436,-10.824074519426087,27.57836094123703,-12.918120451031866,10.170762148110034,-7.357424195610238,-19.174888035146047,11.209836080111874,-9.66823687456634,-14.681791243415784,-11.294996225433154,-2.5525351157071334,-67.3073147122481,-10.03453025679757,-20.03279500882701,28.46112198414273,24.198731709456382,-3.9105516042655593,-15.902006960700305,0.6242393154766098,-10.604586599810725,-23.75123572316658,-5.7297289247658965,-4.21761977686922,-14.443894698708357,-18.907163936675794,-5.314139663727904,-36.67013732566679,-47.949681893256425,-25.749827242609115,-19.88922677830354,-6.633941171891358,-32.25600188354395,-20.463883121391987,-0.6589087546704008,-16.392701674994957,-6.587436801181519,-2.8711622317842243
NumRadicalElectrons,0.016858359262680856,0.3959010832187564,0.043359721081078356,0.054527246832158836,-0.033675280666518634,0.07621246279634039,0.020798396936894076,-0.1447589878147409,0.11940265286866447,0.0347169896357218,0.012924558843530646,-0.4318565701179859,0.03706032287142169,-0.13545560997873954,-0.12861036443895388,-0.024225103531799335,0.021876121470386166,0.04754745683185177,0.558069267455491,-0.02712665742980863,0.12180486144940775,-0.16717195399642493,0.09962008947432849,0.27980506948155703,-1.5742761438547965,0.10907856265174,-0.01595231727602349,-0.1806285707223357,-0.46967421873805215,-0.030457814874045554,0.09529208996170757,0.06767069995264033,0.0734652411171274,0.06754733654816293,0.029016445747603918,0.08901792575137624,0.6076277112115724,1.1289503076027327,-0.062454592210827005,0.254140536443081,0.1797285746287699,0.0742018068846997,0.1017701533477586,0.268875236976478,-0.010084735295063861,-0.006596954728697317,-0.0777711481170672,0.0024295264960220424,0.14734649937459265,0.02314969659911367
MaxPartialCharge,-26.489206234974766,-51.02199106614106,-5.396118894670994,-10.118199377394559,-0.35986588210552967,-27.67571619906213,-17.568480042250535,-20.40280626102935,-23.80858414307682,-14.9985240243974,33.58173573289724,22.843910952591546,-14.964333413727896,-38.53870342210639,17.87908612029167,-16.475110762293905,-2.5864948182724015,-14.336789955139103,0.22503968700208485,30.262599476889804,-17.212684034917146,-23.59622272041979,-7.76728983538959,-12.28969067102609,48.47984723447233,0.4675585960460967,-14.017485313816312,12.432952024902855,0.6215649251003507,-19.640397954370318,-17.359817168842536,-0.20673028473818453,-1.9107099365060654,-4.633898902197002,-4.785848795648886,-7.952162869473352,-17.062758949142115,-0.4922695461388162,-1.9883858766403164,-56.50704886606512,-16.035341144798927,-5.8687777794779805,-1.4721026259532057,-1.853848591853492,-15.77618009707633,-3.7675960138531743,-1.6174655654502716,-3.2725731841279937,-15.663435369509353,-6.2680972366566
MinPartialCharge,14.875090543259274,30.378982215068493,3.445411912105768,6.362720763937105,0.5742189627412981,16.399635121536292,10.44847663862701,11.733860349893396,13.975202503434693,9.19058300162365,-19.623673460391966,-13.574963847993455,8.929926999649561,22.292681169407636,-10.638808900350645,9.895402129005102,1.6367985687039344,8.81139489462828,-0.02254480525436935,-18.120791336311044,9.928939612290158,13.464447701482186,4.1919841306840135,7.352772605196335,-32.0970285005437,-0.4442874020010872,8.321018346722793,-6.770098536879281,0.12680977567770157,11.101752662156704,10.51850071178178,0.23435499040004007,1.2827738417993506,3.207457668628076,3.308808212188365,5.07594786868316,10.90731430880362,0.14975264775712027,1.3485871085898065,34.26911854575425,9.62730188956427,3.3856001945664818,1.0887722777286863,1.5555915484897478,9.513866656433061,2.1908429480701006,1.0627627852140167,1.9339974693232405,9.83676978957908,3.7535808099508716
MaxAbsPartialCharge,24.01346034445605,45.79105460548478,4.900809040656605,9.382414103349653,0.8489263293046512,25.260977914955266,15.531615905587373,18.598461060059083,21.824472878659964,14.072524210631041,-30.987889067137523,-20.615739506451995,13.716863145522504,35.346169518573,-16.724308445626924,14.520814750902739,2.0036869616837283,13.381628897354497,-0.9356706007852368,-27.36054546327398,15.24415686719407,21.405909852186976,6.426690569076109,10.909264645259116,-48.40067825008133,-0.779304739299396,12.336838870249474,-10.866739778940163,0.30545679741795095,17.418480092838323,15.994497554847742,0.1490829578081175,1.3190073381411378,4.234982093632469,4.470894953403212,7.304656924999078,15.94553779305348,0.07307003710977006,1.478414891908102,51.597446151532125,14.874272068865501,5.0941774505515385,1.4594038193801877,1.7174499887944068,13.96477572803064,3.4337303666243346,1.5143576594384274,2.9699278741606756,14.945122250014768,5.376385371372379
MinAbsPartialCharge,15.049740038629983,30.086133153332245,3.2575727697593035,6.3515894351925715,0.38242691164592935,16.22434910211269,10.463413208720484,11.401072863446194,13.961906931534887,8.868240737330327,-19.101187185192025,-13.362848317330606,8.852950324845319,21.68878185132398,-10.221376059153657,9.903227176233003,1.7596068066747266,8.543586604515,0.397513122793671,-17.77974977049204,9.992573844453075,13.280074405861074,4.692688321103479,7.32104743681871,-31.290219315059762,-0.3733673783746894,7.872743294272529,-6.598673769496193,-1.2401408502109554,11.060317148175475,10.178741182249489,0.4166907454378872,1.5874347710624204,2.9250091948622314,3.2368463991003247,4.846235196700061,10.833944929237607,0.3394658365871302,1.1900588634954035,34.598212245081605,9.750713696723773,3.72026508832328,0.8761180217728083,1.3395742782715039,9.313674889273143,2.1604262950658786,1.040040892747387,1.9594479009387609,9.318944515444326,3.891791725411099
FpDensityMorgan1,-0.43213529982058246,0.3805959762481931,-0.41400037177963556,-0.5618647732948838,-0.11285937466081335,-1.6421497955141184,-0.8938293214602914,-0.08995270255349079,0.04659579051187609,0.10942490446708349,0.15083529884761307,-1.2420254978266285,-0.7245810578400425,0.6666316219734809,0.4347514331263438,-0.19563192977383922,0.031141560156768826,-0.49432857034610206,-1.2453197742367073,1.2734181961002171,-0.1227178081031093,-0.312993992445064,0.0038131716740247147,-0.07641637665323067,-5.921286723536139,1.0536011074048515,0.4294448179418608,-0.793806313297323,0.8415347677962635,0.4338628787804962,0.18363598693118893,0.23025284693457562,0.031956454026293116,0.397191069471507,0.9596161151239668,0.41088229905097595,0.06591020419561835,0.038549401373000024,0.40160112397605063,-1.8216541203353855,0.16296258915855616,-0.6833628348058189,-0.6230894994082645,-0.2615290180419811,-0.5791686435781284,-0.3803180035768138,-0.2740257242282367,-0.22374929706647065,-0.9349031177229419,0.2610409084790488
FpDensityMorgan2,1.9662207721173937,0.9544343963689903,1.6595046557371236,1.3582440538075362,1.137284416050296,4.15101520705752,2.4094811640812663,1.0152341500541178,0.882072189012496,0.7730376627967612,-1.1636786668579189,-0.08732723392241903,2.1620241562831,-0.31620154397802963,-2.0564806320220446,1.1279396051548276,0.8625083427311776,1.2567530280431152,4.021391752877738,-2.8137921517449986,0.34404440617825865,1.653823229078073,1.044467901089863,1.992611555892686,4.120216218785475,-0.5417716291689937,-0.24403161655974084,0.7979392823107359,-2.3097533046824203,0.1765019316606472,0.0239736503907802,0.5095592643630829,0.30785816867123006,0.3667977268745269,-0.5254063718313426,-0.27160643090744013,2.5979005133933746,0.7260617277637793,0.343491547455688,7.146678050965748,2.4046303289810935,1.8553813624426556,1.3678929101612578,1.149145968187787,2.7473521656360296,1.3088168458896443,1.1293892942318695,1.0372940572220093,2.622249079568154,0.0054982528876475825
FpDensityMorgan3,-1.4526462400538487,-1.0379478852444133,-1.173730966271055,-0.38579956620097633,-0.5266907687330425,-2.0675572911416324,-1.3380001565951822,-0.766243058760452,-0.4091118032819034,-0.3320098948929099,0.6418088390866906,0.6587894857542551,-1.0360629599104727,0.22467634390196783,1.0518710601612207,-0.7812306701019011,-0.5553251407327462,-0.4422273868461684,-2.577606788668796,1.4078999633055367,-0.12468232039217308,-1.2917026775660965,-0.6356936949939362,-1.5964815712125282,-1.194062691948434,-0.04200727600783808,0.07853769013799705,-0.427978745810403,1.317244241491779,-0.40110625454772014,0.2956372947424216,-0.4477903242389586,-0.24736678409120602,-0.07940127320635072,-0.06985965139328917,0.19146730734731168,-1.9027270083384382,-0.5235600977001071,-0.4803872098898107,-4.859121137109755,-1.6606552196217594,-0.8239174447285368,-0.4053835862053305,-0.8576635000232214,-1.8928254745556752,-0.8745498531789716,-0.7946524712247655,-0.709567166160103,-1.5285782508560541,0.05184143565951821
BCUT2D_MWHI,0.039689861083375515,0.23116128439064496,0.18234920990585254,-0.22971201018667067,-0.17463355872452183,-0.34203790291943637,-0.010519493961393534,-0.040288427196570345,0.06889403922489834,0.1414320378776605,0.3748428882702547,-0.004123516849915328,0.12803718884020257,0.047953323103294955,0.11023062416161276,0.49274881652463387,0.39424440232813207,0.08456905706257159,-0.008558962337048786,-0.28226189240510163,0.3948786560383547,0.06760348195742265,-0.06063875047330804,0.20546307071751768,-1.3413150011794204,0.06534308418464235,0.0873247989755809,-0.03207334378164992,-0.23523350161898937,0.058728530114945665,-0.02497557994153713,0.25403643047563357,0.21833002920292302,0.04256435441683281,0.5203554899200863,0.3016208817461782,0.23574244381996365,-0.20539707975744273,0.31787297305556506,0.617767407988488,0.25714578822924994,-0.0805443595936523,0.01608714258014872,0.15935443506370014,0.0775897352638761,-0.00929008007109629,0.05477492721485666,-0.09042509529741675,-0.3252734273851406,-0.2509295084259321
BCUT2D_MWLOW,0.6699468284844458,0.8810534232806351,0.3523417924350714,0.9245298550472303,1.2487837152812615,0.9051905887327683,0.4028628466893118,0.27163200280838834,1.1272868790665231,1.3430068388078316,-0.23741749859505648,-3.2973394308010824,1.0752331447368086,2.5004903566787866,-0.8747958628065124,0.8465805029494544,0.7643124866108716,0.16635344491134957,2.3166817287472297,-0.5510686096366989,2.016787840763253,0.5555838587246829,2.761989757797866,-0.05026089587651705,-10.460564861642643,0.8784217935742332,-0.08040481297801559,-2.0483385911078678,-1.421111100988899,2.467762126572726,0.3630044143047093,1.1161074388466017,0.3728496025949869,3.1125681239125558,0.07397156890267313,0.12782828082376707,0.4192921796990296,0.37722198908467036,0.263207484808268,1.2542808189981745,1.3746204494468721,0.6201362841425807,0.5221158357063357,0.2360616213947344,0.49025452009366555,0.5730938028586995,-0.10513153833784213,-0.0866123556957223,0.028723032131160738,0.4615737056896047
BCUT2D_CHGHI,0.36884386529401747,0.919501066582895,0.46385414927413354,-0.13257116510925737,0.6125591638006198,0.1663742355945678,-0.10059435260340252,0.35490363091951216,0.5115117384318439,0.14864342273244924,-0.19667921034708452,-0.3199576067837734,0.17003653575968122,0.935086861558564,-1.126101432163125,0.32844890491204826,0.6527361588595122,0.38480204300441667,-0.47969760466488814,-0.26274229973520447,0.7387048255280229,0.08957489460131747,0.3555548313745909,0.2805034582920781,-4.454519736494274,0.4634576599623341,0.10080360639357942,-0.3841434298258989,-0.5028249319363755,0.9651137146092953,0.23500980994108014,0.17683239604469053,-0.009738500095277802,0.026655574799561734,0.2572102220709952,0.2923680927322212,0.23743713299344038,-0.3441781699518814,0.23728569298242436,0.929212399502833,1.1532817627534941,0.2730778121794006,0.08478345269463895,0.0006676499617163633,-0.22002121955272427,-0.08719645495403547,-0.06187617484530892,-0.23489930100518144,0.28803185167699014,0.378558861233736
BCUT2D_CHGLO,0.7191297870159497,0.21068551300929417,-0.07587174984949198,-0.188043238755641,0.14108990495359694,-0.30768337356290987,-0.1216315396431202,0.36157991194843103,0.2764824924157651,-0.005504317741607547,-0.6081586958741656,-0.1512206814015432,0.11283910554334081,0.17942101784575226,-0.49159571641199296,-0.07367611174385656,-0.16001878866380123,0.2610525008730254,-0.5133725128634067,0.011203554840848836,-0.2542417167437065,-0.14997033350383532,0.04437060073805948,-0.02637855522404077,-1.6055708358252745,-0.19808752661861959,0.22354632113861717,1.7788362187666282,0.10372154146595758,-0.08356137008992685,0.15463718506418567,-0.10695382461966953,0.08124015815194562,-0.17471698740075858,-0.0723027509392117,-0.03547443301229964,-0.4942896988530415,0.08902074839850639,-0.08300245589512248,0.5327882674588076,-0.11881501559433695,-0.22360603725425546,-0.11910873592427658,-0.1766861085997295,-0.4201267966721457,-0.2020853356601312,-0.05514151701480791,0.03812095532475224,-0.11924203104500689,-0.09653784708190602
BCUT2D_LOGPHI,-0.38480626965612236,-0.13830561078626102,-0.15186840060947965,0.04672895982160558,-0.4047361043215723,-0.3655152922785147,0.12552850387466274,0.23823947825335245,-0.4515328656152707,0.029961636774050365,0.21830539556107667,0.11306481770221033,-0.02153585465585066,-1.158293269116252,1.534016506061241,0.2262300410682933,-0.20193259532202987,-0.022690959715207158,0.5425253042935234,-0.14037806674749137,-0.2188693512581544,0.07048843982067608,0.3916491044036853,-0.42349677126284985,0.10469418257351834,0.1710437443927883,0.2558013910509873,0.7482376825775549,0.01944541687852381,-0.5720484256083772,0.006470409900634319,0.07581453057616595,0.09035890276290554,0.5791217426591218,-0.2395953242264736,-0.029306465092742356,0.25160226595887714,0.6850447829872492,0.08732917015688814,0.6967263837827733,0.3005699939278976,-0.2788726864802295,-0.03787076351113123,0.22365687991451919,0.4243123298961878,-0.10912658741624447,-0.09799088674399213,0.12833538291839752,-0.013052038751999813,-0.3364572821100368
BCUT2D_LOGPLOW,0.7983591430268863,0.40585751595848985,0.5216129014430481,0.5899071889718367,0.5490974962518936,0.8112251002167339,0.5163185217654918,0.287353437381738,0.7798854286088377,0.7695077353525963,-0.18709446777386632,-0.6370703103380335,0.30328318903952456,0.6054394254995007,-0.7961593108521541,0.4557490419465999,0.6633234222493614,0.5327872267232944,0.1298093744291241,-0.4614071695051001,0.7422097228576887,0.5389506721600872,0.43635291692838357,0.7414630838621983,-3.8489229084157985,0.361925278714944,0.013666854911484215,-1.3371163991205044,-0.07419566700926253,0.4219504625855214,0.3393890796066282,0.1893422094170374,0.2073878218840177,0.41749759703653994,0.440076130198826,0.7575427256715369,1.0944303233460824,0.16595852603095196,0.4399161755367835,0.7989148397318996,1.1637619130159982,0.6633813184524097,0.7268206706945548,0.22253030726454126,0.3627452586495679,0.5264454738567272,0.353048247405037,0.3359591620298207,0.39834413941728736,0.3630077641566612
BCUT2D_MRHI,0.1363416889590188,-0.48184668952761744,-0.3944556541700142,0.021904772733946264,-0.03549543159267563,0.15032889633569765,-0.2599337611171231,0.05144928781886094,-0.13097392349389408,-0.08301130169783334,-0.31201488933485755,0.5244760585993483,-0.10201552340112956,0.09994220427704543,-0.43377772106987794,-0.7606967465870862,-0.5861620067273138,-0.08887905134289162,-0.2816428207273463,0.3711016158535644,-0.3618458914426358,-0.0501288553939613,-0.21019730197758144,-0.34787114061541985,0.22907392844108518,-0.1821597705316324,-0.266185619237757,0.25847862652272696,0.21646833872030619,-0.37657203994684013,-0.15826366391956562,-0.39328210985302,-0.34361479962935243,-0.2898797031642133,-0.8121590097442604,-0.3775232275257818,-0.39518465859817237,0.032815498676272856,-0.6212471699245714,-1.028389297384154,-0.5547692790204057,0.06897136841142767,-0.05200021844891985,-0.35648254855727113,-0.33237927368443926,-0.08306782735674223,-0.266504536517576,-0.11591067485884217,-0.14910619003337502,0.10395783774451665
BCUT2D_MRLOW,-0.2577478525226363,-0.36701207626768934,-0.12300037001033125,-0.09346264651202228,-0.026713797830360354,0.0781573468871904,-0.25639726804243274,-0.16639937158668494,-0.17368389680722196,-0.18782467549490037,-0.09995782459151337,0.10921767138598269,-0.04836417381895337,-0.056623411961748596,0.15161266099587653,-0.08561444506174656,0.051526603836249844,-0.03823832257338273,-0.16331632631460405,-0.09838493487385963,-0.19929709797642575,-0.10296963663616464,-0.13119188411757823,-0.3401686592247302,1.4211306184202308,-0.04535550482647114,0.15585908263011297,0.3418279341913749,0.03280179535939885,0.03126257564803289,-0.019744067483777213,0.07583288351930131,-0.11333887528859005,-0.05506977576861895,-0.3365552065653564,-0.19189669669509055,-0.32160313023656983,-0.12259235016867064,-0.05583635761047665,-0.0057068524202875375,-0.16934766674317714,0.10145507016658524,-0.2113391553953876,-0.1506816513689729,-0.20098103146709712,0.11789995832053199,0.13840458825048624,0.028537819598139873,-0.21693183061915425,-0.16362065651167335
BalabanJ,0.18584661301812058,0.2874084917924814,0.16541970857184657,0.36352541139218175,0.34380328065812144,0.31601896660838585,0.22673207967578377,0.052876726228434236,0.2791582720581262,0.37637514554145124,0.18877330932330263,0.16744023414680953,0.2409698485788042,-0.039940745631970566,-0.017409212356402103,0.5544353404525791,0.5992121302160209,0.24520953031614615,0.22106829588123084,-0.47000220272499266,0.44491224430194404,0.34567584721234457,0.3012596268300005,0.5870048738350111,-1.082962720405769,0.21652882471397972,0.2658173200099165,-0.026866763145733358,-0.5486057776757621,-0.21767181740855282,0.2761317358096512,0.4003114650868952,0.37747534672098637,0.2651219384113886,0.5887781793233058,0.5666718293155697,0.8614852920162648,0.2887417415783366,0.42508737356477,0.6602141385928391,1.0838459159526457,0.1425047752162035,0.024788966821118055,0.23164648471766608,0.3724899977679257,0.1764135253363951,0.35473064407040455,0.29292848002463345,0.46560304951738746,0.4768766744939909
BertzCT,-4.925014946115907,-1.9288920216552359,-1.5066853733105727,-3.778259987739839,-3.6368518079486014,-5.054980834803127,-2.7327486453861005,-3.4336146395565894,-3.5884237212556753,-3.7074121854153366,4.902790526031118,4.635723415306466,-4.401299937596093,-4.203595991385959,7.31808647050242,-2.031311523266769,-1.916998150674204,-3.032219467139799,-2.7286133414985696,-0.03878124783722935,-0.26641895217653383,-1.9955079564859868,-0.9060442593374465,-1.8696874453004975,27.188333758149845,-0.20167283836375932,-1.9438902295434077,1.1377350291424837,-0.4999276389625519,-0.9933544289262002,-3.4388757675174895,-0.6180232614574018,-1.4217808327875903,-2.11596725432514,-3.1726966666666416,-2.2451521006552193,-3.6301448651141195,-2.5082943891773377,-0.2946429771142205,-4.66187746855582,-6.176160247187279,-4.430518408785795,-3.5008132156404983,-0.22621271444701158,-1.5630974654999321,-1.3328272049313634,-1.1456085458239065,-1.3441968122322914,-1.9172180296401318,-1.6339154211005031
Chi0,22.51281987476137,-7.148094720929378,9.117415458638158,5.0385820819630975,10.31706978008501,13.000737482030216,9.720334493490187,1.802212831932843,18.497571437494127,10.26809939390922,-11.298084927058925,-8.181996603121972,16.72143170648394,18.832688927644504,-22.200412724434653,18.46506284471915,3.266196973195829,18.432992709483088,11.762098062085133,-26.682776882439953,13.3402533814198,9.899104081259335,-0.5880301273547863,5.027816551347693,7.878684601547791,11.806379968393069,17.853338449501074,-1.9619191315889404,-10.086154659016854,27.526664197915032,29.559193281011364,1.6817590600697607,10.418104068844192,14.070035496174594,20.27215731042516,24.958184983006117,9.611845111540054,14.936372339574268,4.8635690047378795,19.953604471957693,37.889287459480855,19.047586931006585,28.756139424712575,12.463038483296026,12.26541726439573,23.27532039125213,2.2524977669165223,22.454452553628755,13.357912897420029,9.078957282325137
Chi0n,16.41670798104173,59.36389338165188,13.061118994370894,21.261708120694372,22.669254776252068,23.205438763962025,19.24015575971338,26.065532331821398,17.023678186449217,21.680041861962845,-27.836103071690193,-33.357363309752145,19.0992050867953,17.873057425799033,-17.637160981610027,22.10728945031159,29.516405191083567,10.577775611990628,15.958200471609413,-12.71231156539835,26.53990269599415,20.88374504912899,17.258865523029495,16.205690774401347,-73.27510853031858,16.546291537978654,33.687298650856825,-65.51031331129195,-30.858338883601544,13.984299364646853,8.61584564408892,3.473543511810512,19.442919367327807,15.178088052189125,13.207354962575561,17.96930516552026,23.08317564903264,15.179701385091366,29.569413841849908,33.19233433390709,33.10364971453782,21.54698036008776,5.0897796263216915,13.793856165926837,35.98544524708676,7.847448077780213,2.3600384391830844,2.6413392697330176,6.57930814453904,23.32368388710641
Chi0v,-17.037553231358775,-39.28572333858732,-8.685010537972563,-15.526872091668496,-14.787340775880441,-25.096135070117217,-11.211616325971896,-20.466657936240157,-19.099372508939958,-18.589730501028956,16.0369747345758,22.48629088269693,-23.966046421026018,-18.007026668127434,14.754385445664198,-19.44969229572979,-13.552657965105665,-9.701478199038784,-18.748639628604245,16.83158881620358,-23.837988144521383,-18.231416229546078,-9.841755678430845,-15.972772098360435,95.1900623783464,-12.474224586388722,-26.0727915405125,30.601113510661698,31.46496933052926,-12.993009242373507,-17.06320654068574,-2.441967348376665,-14.28434021170531,-15.676278175471483,-11.662864556939095,-15.021563417589686,-22.208599025547777,-13.370916194005561,-18.847610079084404,-34.03932336911942,-33.99723660345615,-19.416262967764276,-15.140136194550827,-12.699363476542773,-26.97924548096732,-10.802202517178182,-0.7050728681585948,-7.407633398902314,-5.103922482544095,-15.26996332777908
Chi1,-14.819141822583791,18.482627160812495,2.1641759218675114,-13.460225933475403,-15.716439764035753,-28.11919211942257,4.396789942803448,-18.722436868942594,-7.689128156488918,-4.027359101068364,17.316695078129534,-10.01935479233731,-17.525582127979025,-11.589887653840115,-10.152069732466614,-5.215357973755417,5.5615925614674415,-4.619340211652516,-1.463368092532843,-6.144651200361391,-22.284892451711634,-12.185621232695553,3.907419080702371,7.194080568597564,16.189966024729717,-0.7106193585611724,-1.672250659562498,-4.867990558102971,3.428100176713785,4.246517907774928,-26.075093103795236,-2.1091450653207087,-2.75447633974607,-4.164656914769846,2.426977430266887,-1.9126503441037501,13.259254976520351,-16.96053898682572,2.134907918562446,-32.79888966861424,-31.363833107574642,-11.480616426802293,-24.26661025155721,-6.423125136847833,-5.51734409117703,-12.254978513291734,-0.8446047811523323,-14.226709633494044,6.0344029341778525,-14.684398789014974
Chi1n,2.9905957202290594,-10.82994720768428,-9.6484077202899,6.9182476227026415,-1.1022353170338886,16.045670626270947,2.838266253392915,-1.0605772888914908,-1.0466112175096234,-1.978267283042464,-6.233311553681061,17.15694546008954,-10.856174311294684,6.908295865332816,6.759858641229048,-10.276921816237321,-7.973284960951416,-5.4367173510440905,2.119101259234118,4.169772409246112,6.8191595567956025,-3.3212135418844237,-11.55536474394914,-11.079583476427386,78.3180825659251,-4.990157226546692,-12.676490559357463,-2.1838598252165364,8.95504760390812,-6.442916522724054,1.6824030716054434,-2.090216752589088,-1.9554371166322713,-5.173754382175454,-0.5205435045216357,-1.6993774305063405,-19.527998793020398,0.19246287655337183,-8.235962122855984,9.430187091759118,0.8284356612105748,-2.7710982706465357,1.7223350634115566,-1.392750886124251,0.2811062965517173,1.2220011682907674,-1.4028076474719224,3.2118289910672577,-4.763679482100632,-0.16944457988679976
Chi1v,2.642167275975185,0.14903211025975824,3.0017890194579517,1.5141663095643207,2.894077156295605,2.1202009997686795,2.0566888407540787,1.880090514225739,1.438765476559011,3.8771751190253116,-2.5107184460132492,-6.959441553582084,5.5606927113969,-0.19045182674954717,-1.5154516411901024,4.67537899800531,3.281842065212837,1.2060316196901195,0.6426618246819883,-2.1100973009843114,5.043400623795006,1.631477169707967,4.013004059362458,1.334676198205008,-26.153852461265195,0.9915927576575096,3.3332935568452386,-0.4079230292670545,-3.936979402970018,0.3906736138056738,1.9737938714253918,0.36507425056654846,3.1280047083962668,4.430969327842616,0.08577381225553576,1.7227986907935466,3.288352666231783,1.4003512518846286,2.7847556520437706,10.529520124379605,6.643080989710634,0.8257288295376242,0.7597609863702188,2.0520312546457276,5.191563925691698,-0.8575829669463472,-0.1542975292661178,-1.3069875437173446,0.6874199964981896,2.1737062411780674
Chi2n,0.9661927689063343,-0.5224472131270845,-0.4055046613509682,0.7160746995261942,-1.2492099441686115,0.042590083924454736,0.9379783770801331,-2.214058884788614,-0.742851752607363,0.3488387168058093,0.32411742674018135,-2.987835254020278,-0.09910502544302108,1.4719341529048264,-2.259759780573656,-1.4075083600054563,-0.6052898376439458,-0.23100041919703604,1.7009837480050942,-0.9877390617618541,-0.9486324045676797,-1.7349766480615598,0.038396102234124846,0.026034663395845644,7.442293334528716,-1.2610505789826043,-1.137686416127018,1.389968982354117,0.4431668587586989,-1.9234551420072796,-1.683880385958544,-0.964903638767517,-1.8687150303417563,0.5570960078223309,0.9459489446293644,-0.6125723589593463,0.12563592093096684,-1.8734878142175837,-1.5091322225821115,1.2239053035953555,-2.8632772859868365,-2.3831269167828526,-1.2955379015558912,-1.3264564338161686,0.5322180055321196,-0.26091737567040874,0.7193495453314402,-0.27020444286973616,-2.0441627734602266,0.09987237891147155
Chi2v,-0.6748539814691252,1.538926057816166,-1.1777635631268961,0.12951171422723723,-0.3924233152320596,-0.4748437798452643,-0.23689156423256577,-0.09280697671006734,-0.3460691153756928,-1.1007259442998663,1.5791911062654251,2.5054002735275303,-1.8886855881823625,0.16029619088349598,0.7623727378770301,-0.9124751969516663,-0.38531351849398987,-0.6171260421112952,0.6027543905665097,0.7746778339280045,-1.9320871019219852,-0.4940504227132731,-2.0439627296278413,-0.20520858862237154,4.18391321780538,-0.28777828609825723,-0.7347764864592898,0.758383999320417,1.5277042872674857,-0.11777446258641315,-0.004635166308274457,-0.06551831424940387,-0.3524547564520129,-1.595875441907596,-0.11504505788055433,-0.27575292874895846,-0.8718624452472683,-0.5044723495659512,-0.6366613262568015,-3.1686481457096836,-1.035043310718224,0.4723072062024689,0.32889862573705864,-0.2647286006956991,-1.624086279920013,-0.3606833122785618,-0.18650834419340198,-0.2948865326143749,0.9168917094225633,-0.6672531015375759
Chi3n,3.14690631241298,-0.31733619114930833,0.6989001166783123,1.958803692868046,1.5634699889917014,-0.1428299795529487,-0.22011386759473364,1.228735859491311,0.35337444604824797,2.054296770185589,-2.7622166878870367,0.44366213243958874,2.4979412778758667,2.6946271943654185,-1.1918172943277006,-0.7703835355301167,-1.122937017882531,-0.2203890282672459,0.13253160740231387,1.0941539728546077,-1.9171242018078907,0.6047860985865686,-0.06583449920669728,0.7412780216543678,-5.326344085245042,-2.743639069613783,-1.0915533424288353,2.5412201860330517,-0.06189266720175287,-0.3868585786943726,-0.3564270441397772,0.46037103905164345,0.3786294031752499,-0.5982285446556956,0.09588958439397625,0.763596993122097,0.650867914572668,0.022501283253480105,-0.8899570681212501,0.7203634781341712,-2.1954314026725426,0.024729881291015377,1.5818469855248976,-0.12034384277333951,0.2441122275872119,1.26574459891366,0.12244827715782586,0.9476760421449635,-1.2429430025051638,0.565940221922849
Chi3v,-1.7891236253017873,-1.597766216207625,-1.0642698421274293,-0.9957252785955089,-1.2008876379356297,-0.7090729771714275,-0.8550205564083028,-1.5554174142449262,-0.4899092778967339,-0.7091752379684387,0.6820249568747536,0.7471184740516508,-0.6431160788962053,-0.6449436986314474,1.4738813098665233,-0.705032434654728,-0.4500861039090226,-0.26714604520575147,-1.16823526787286,0.314788810872655,-0.6002458608147652,-0.7158716302228304,-0.9031132761052733,-0.7938752993853685,1.529399245288869,-0.04658714715511573,-0.46771071885131926,0.5179922760075718,0.5083644819910925,-1.5215742614465333,-0.6496083424780413,-0.6795767047293235,-0.7876693280109259,-0.46154786828441113,0.037990262098519155,-0.67251326743958,-2.700969322139487,-1.4779922018538059,-0.24110227276402116,-1.3003942383269251,-1.7201001288815891,-0.4555762984907875,-0.9407649281998349,-0.7124138369491279,-0.8818032509162683,-0.7732613994502238,-0.31471106737156523,-0.6800994290487629,-0.13071729565760906,-0.3520295805535809
Chi4n,-2.25737853216693,-0.5203071425098584,-2.0237030206549638,-2.2256287956158176,-2.306125793676512,-0.2523567416966643,-2.178477287838875,-1.3563075295519091,-0.9316079701642322,-2.011806756791809,2.957068180250799,0.986207746391892,-0.3708713678353218,-3.3924681899655025,0.24482758147559927,-1.152343724835824,-1.411171286876671,-0.41528754549374364,-2.380238003858885,1.7417192709046316,-1.0048192496164343,-0.2593451143838753,-1.428403774953958,-0.32955747798192836,1.1683460442313904,-1.0326855099810972,-2.1919737772982737,-1.302336660321387,2.65981822195952,-1.6729716311628149,-0.5396782623166745,-1.6928388775565573,-1.8927023778763985,-2.2466708012482552,-0.9058970484452611,-1.1554853383140724,-2.211929911299955,-1.0760874195652366,-0.30083095236425444,-2.1421142492719882,-2.318412835962171,-1.0018860354533639,-1.6053674726006677,-0.6199978410424594,-1.259603607168608,-0.5056877845427509,-0.3554295315918201,-1.0072475359006565,-0.6059235217384435,-0.91285881038012
Chi4v,0.9357981300913921,0.22796157338881162,0.86947151700615,0.5263537208767431,0.779759452307665,0.4371060893839441,0.8503453483571938,1.06808168440822,0.3201335972327607,0.5500628496941318,-0.7825584322437268,-0.8453075130956981,0.5553851480553296,0.5008462510708729,-1.214486159550404,0.4584180065444279,0.5369376148852503,0.40278368842139034,0.742005859620704,-0.6336525100532687,0.8520651924765601,0.5994723328157331,0.8655768744133806,0.7959012289116411,0.6496011938030748,0.14094098321524187,0.8190060568458728,-0.05300196442040577,-0.4865116337521464,1.2032515682813145,0.4774431934654387,0.5297971457997972,0.4152497952830397,0.8003437167393108,-0.4393753949745655,0.3367618361778483,2.712169169095909,1.5403918986003897,0.4375132317475178,0.7800395544403312,1.1988540961158711,0.012590483402035915,0.5419376051417013,0.7772533978518513,0.6279860721609132,0.6033596420047576,0.3158502745390967,0.5623338849458911,0.611823595779604,0.571214977596108
HallKierAlpha,3.130812783439333,1.0191126734564533,3.8497981288182093,0.6968757064395452,1.9559684614336148,2.2807518928424133,0.07513019184800704,3.0909490575704615,1.4660234013531221,0.16385830489183628,-6.796203532380814,-6.677822405378542,0.5098852978095895,1.212939788929589,-3.867314467483426,-1.0392787484194266,0.4259685439231911,2.439705264714351,-0.5710403887044571,0.6653854955796991,2.117873167283497,1.4876654748906089,5.541428522503556,2.01714283427614,2.806570158132443,2.6437799293082604,1.5761316469484667,-2.8127851730637574,-3.7105224881161827,4.316896686203581,1.5777497715193125,2.697088434022749,-1.4163271267494613,1.944242709470014,1.9843226413350483,-0.34707045853153,2.517877044693478,3.459139114782204,0.3571305404567082,-2.772287006764481,-0.09200988524893561,2.0758875459784965,1.3604888694592485,-0.39457532845619325,0.8438648726544773,2.358408583704579,1.214955544008902,2.152503767493522,-1.0484365747316098,1.69669273149948
Ipc,13.885309303608995,0.5083111836561667,0.10914175103617071,-25.027753449215282,9.837780928117832,0.34378507118971685,0.15612089062859905,0.22227382636116547,0.36339046399946295,0.9997053744898449,-0.14808480067505486,-0.7316085798179008,-0.004226305602142672,5.477112968435849,-0.0016290642732298773,7.904165156262673e-05,0.04348220191726952,-0.13398610113002254,0.14847820296991737,-0.001583808362762977,0.14897575768008783,3.38049126555236,0.12134335009267512,0.49557807383576535,-0.004618745142753689,0.16725733713332364,-0.04190430378238122,-0.17240443214126305,-0.0008019698979884544,2.2943305367732307,-8.439407497273713,8.154450835425843e-05,0.00041313602708607414,0.7131087881431785,0.2674328092171221,0.14780117772719187,0.0020697014637817437,0.29937142965344227,0.1519655751675136,0.004834228952695874,0.21576690217102862,0.00039686241414350453,0.00048468441827782615,-0.026825232385002864,1.1292645801533217,0.20172125804022356,0.10908062711315222,0.5596736234653268,0.5224568882810845,0.09751707072346426
Kappa1,-0.07886693295520561,-2.672698370721774,-0.11922433983779002,0.254926770215319,0.5158897220638213,0.9018768388879612,-0.11167030050509304,-0.19944398476740913,0.45643590188417804,-0.07753449650730647,0.747089106198174,0.19069492518776074,-0.31388367305363035,1.7160443269593406,-1.3459853806199609,-0.41604661564950646,-1.2691258628279836,-0.2819690731940495,-0.18165943123434342,0.3372966214061241,-0.5881031685839627,-0.6015328327815191,-0.13387407565413112,-0.43655205171192285,5.87595233831649,-0.22728811641500613,-1.4419330980597247,1.7297885037812155,-0.03871839544677998,0.2819460524265328,-0.6072927328998071,-0.03761627173191172,-0.24244121809184374,-0.5951137749124671,-0.055207900655081014,-0.83900251473476,0.2782045351547445,-0.3479147785531087,-0.1131859142187147,-1.2838490584494675,-1.1780635629628833,-0.8788289831478492,-1.586385575586974,-0.3450221505501234,-0.2644815439528903,-0.7744100139962082,-0.4293945451363172,-1.2497794916054565,-0.3156012773456811,-1.2380118878659587
Kappa2,12.209157686303172,94.73872600881558,0.17087790971816713,6.401834380118824,27.034760168284702,3.188467804291707,5.18938186801916,7.377894807487141,0.12861700857587213,8.566756663405247,-15.480232555035194,-15.22493620722535,92.97115466763952,0.061433892346906126,-0.08312939374947978,15.61160215237268,57.5074602998824,10.526863671292373,8.664105357885216,-13.915436379862399,26.676790292923094,16.980418538222168,5.599090494903376,22.041625777882718,0.22956399135449643,23.214783177584785,79.32345962028658,-21.604810623244493,-0.8146332616151373,-0.052347277789994956,24.98231219691336,0.6080030162278679,8.220111288382032,20.048656784157274,0.35454784311475057,60.59781215438767,9.729715228904357,18.11714214350935,7.382088302701441,87.12436982049076,29.80861427415009,0.407343965210498,1.3343993807129317,11.270167872457835,14.466511585443921,0.38002643692060184,-0.050988250459310665,0.8539554470016227,6.753570369404037,56.30008446851951
Kappa3,0.06439204332019821,1.0288256902973234,0.011420913655486652,0.3127246081298269,0.06357631378370075,0.13845196611368712,0.16634655202633347,0.11005634033741211,0.09925278604375912,0.0788555452930735,0.002682384853374542,-0.07001189737821024,0.14425251865110789,34.055293431666236,0.3207213857436538,0.06128907940090885,0.3091323858987246,0.07708219175499399,0.004569121192363529,-0.08030408058343315,0.2208040467918844,0.2094234518412989,0.2524476299931353,0.10841462704590091,-404.0013097081691,0.16400909837199018,0.4907960214254097,-26.233919713317523,0.03462103345970197,0.034197360290462796,0.07857505168167021,-0.08524473425951504,0.06839987457405738,0.3886193891913653,0.07573009225267419,0.10489157544670896,0.10642157621993117,0.0644947256062457,0.1197168458738116,0.28032723223545464,0.07905625488280847,0.05523818177392591,0.34467658171330223,0.20056565824955236,0.24279816375862662,0.031815588809242026,-0.9120488614354781,0.00188946299530132,0.06360292404794726,0.3267547550197488
LabuteASA,34.22020120391877,25.15433844247442,0.550214113397172,-30.01836761635713,15.230414621666672,-34.37956684212168,29.888423674380586,5.950797106612751,-2.5698292931751117,2.6607335872544295,1.8633088696507025,0.8265177944986267,11.206592330113201,-15.907946976310441,0.8005241189587137,0.5253482400685677,-14.52952634837707,-0.25486239016734524,2.415102927164089,-1.246234099466865,6.234182450489101,7.927691668264185,1.4990910989468207,40.576450502424905,-21.72790743390935,2.6470956082689803,23.429066542808258,14.5023905816729,-4.406878404894694,40.52745593098633,4.713519049430821,0.2921363735955015,1.1093023073144663,0.02320485054823444,-0.36104249402341354,-3.776590175279788,2.062404770693657,-2.1650438214715573,-12.628327365360898,-54.35639396823463,-31.044735662294787,-2.3386352176488816,0.8001505302169709,0.3080003327690997,99.92038219540149,8.211975860057468,0.03325543550431054,-4.950083195968912,0.4565198967476238,3.9520785017979025
PEOE_VSA1,-1.6207000177970887,-0.7618132305536525,0.9244114945116023,2.1050129074705852,-0.683314214621263,1.4332434647326096,-0.21450593248502609,-0.47247898475867095,-0.22689376201512745,-0.33491132187201184,0.8916061086429281,-0.6406006000311365,-0.025432371662964703,0.624263692068652,-0.5988106249252875,1.2653796805927415,2.4437928219418192,0.5206230403349,0.8227723831126513,-1.1225423402751558,0.9060698483960484,0.17887620293440737,1.1876042297209393,-0.8458589740046237,11.322857335239974,1.4243870064639235,-0.09396122619862902,-2.548824818860706,-0.06971336978070837,-1.3848499577333673,0.9369452220749128,0.6071452881892894,1.2530056794702458,1.2847680663118572,-0.06266479473578886,1.3085171001113292,-1.1699045690797403,0.36778435371692714,2.028247296995194,3.9326354590503625,2.688451884523666,0.4546267166937827,0.02271836121833421,0.8448686794811088,-2.965545625340315,0.13177646471168503,0.6096213657306959,0.6187346773667245,0.1318087751651521,0.8305221556763129
PEOE_VSA10,-2.064089877914394,-0.3749858868944154,0.28569794820823685,1.1605857373569726,-0.7621176772345362,1.2597660877820107,-0.3791184031791739,0.13698984932781377,0.36286038220114136,0.13017788073404643,0.24848270603280365,0.19976118395092643,-0.05891107859949387,1.2207868748892086,0.18111588120256222,0.709051419349413,0.9133612814832012,-0.029294716861434516,0.38133606424611605,-0.5275840015115191,0.23046064677127892,-0.3692861347801518,0.34771508575121013,-1.3103146701006085,2.2685842751195704,-0.06990001422672662,-0.07738666248508193,-0.9057596304136661,-0.00806528084470258,-1.6162778635568398,-0.1434188141846166,-0.07576392608179017,0.5262750839698417,0.3932972403843671,0.07371527185734088,0.7236360939821795,-0.056898397194002547,-0.257784120215504,1.338362977301633,3.5368876748543183,1.9525749636726548,0.5418974726302,0.39446472192856985,0.2837085192236611,-3.9707478959622255,-0.4538329456338124,-0.15946753812986442,0.22032851067536902,-0.09580247401761832,-0.15268063851186994
PEOE_VSA11,-1.1219052148960815,-0.06193690888999916,0.5141169907130921,0.7646308481891056,-0.2194117301819763,0.9306099446371804,-0.010384143918907556,0.17225686096595114,0.3429746412376428,0.09122354483012861,0.14395452346173715,-0.09258760477510242,-0.02317871774765318,0.7161171690963708,0.14299475260798003,0.57050341390973,0.802885020544223,0.10533364219791973,0.3212296056630535,-0.5458978949330543,0.5476571182692509,-0.03284233721517255,0.4541556770630992,-0.5245979244046116,0.21530903517598543,0.12284524221865202,0.17799411530321607,-0.7268870638711523,-0.313538402485866,-0.7316812764506122,0.07327106580442325,0.25114078122508626,0.4709895705868615,0.3469688224072175,0.27966238953282907,0.6889403171536183,0.5461707256650293,0.0022885748372064286,1.0365600084365483,2.421912855804901,1.5850928889789813,0.39100944796402765,0.23875583861157562,0.3030839206184568,-2.379848338565231,-0.18686959819858984,0.04331740311434618,0.2811142387965618,-0.00381137684954794,0.03213820080416462
PEOE_VSA12,-0.760014335394332,-0.4929149292141267,0.18524064493617393,0.48668140769672374,-0.008958209100419917,0.8127761851612604,-0.15888602886796604,-0.03743507220894556,0.15883270103877203,-0.03478942099271054,0.5028697354277194,0.1847477621754459,0.031127041738917057,0.8694224411256529,0.21651972725743843,0.25908342618720304,0.40204921627065676,0.050971813119501934,0.2354559358722907,-0.15688410786510712,0.27113095017634276,-0.11868418231035657,0.3962205235551055,-0.4356311574881142,0.2084181776999229,-0.017267326981462185,0.11610898060934238,-0.69788406066506,0.16819526241262525,-0.6931019364725157,-0.10565319349428509,0.05560086192394296,0.22215694794979204,0.1798805522974439,0.01389163198290779,0.2560584144105942,0.07221917301373544,-0.04103042471091452,0.5532850034094384,1.49815733447371,0.6241048914377645,0.3695973092359704,0.1925111750058944,0.0947632686613488,-1.890128895443574,-0.1291665589943584,-0.0077730677519707555,0.23094890327432946,0.06083499383513297,-0.09850875581493829
PEOE_VSA13,-0.6273740379667738,-0.24523713165309796,0.2518944424986787,0.38874519558149306,-0.16979455020283998,0.6042792475810218,-0.21969553939945533,0.03520016296039236,0.28659238163658807,0.18228861838089466,0.022715019090965318,0.1171369152226357,-0.05091930599069033,0.3920196955910401,0.38792306792220077,0.1446893785555049,0.20408406022061384,0.20949937067965457,0.25736606664748984,-0.3447941899814805,0.30116845570992845,-0.04926961495946662,0.2525355621295984,-0.39220509349075433,0.9736704482594946,-0.008864591751243132,-0.17199655814430234,-0.7799301593097429,0.2290196008323793,-0.5455755795949683,0.08176089188225273,0.053803721905753,0.23517844422718093,0.11223792668911471,0.04948452580818562,0.3438958366899523,-0.05177941069756922,0.09903373937372156,0.5228683773361354,0.9669646629066329,0.3985706833560709,0.2951814686803981,0.2975828026898008,0.15769889570462586,-1.4677083620062015,-0.06032254530874976,0.10513555356516623,0.1412349756929655,-0.16147446557948095,0.12271380898950632
PEOE_VSA14,-2.524871358741203,-0.29689918551488326,0.18657620068815314,1.9699629258140365,-1.080282024258862,1.7594913421749556,-1.3774782093527593,-0.037920473982227414,0.6212369157272781,-0.043315368089805094,1.1662102833317245,0.8124225138871728,-0.2452115782843614,1.7589995324511163,0.413228844971095,1.2306306386129664,1.8654211606784399,-0.27037784819718735,0.7782385322786255,-0.8920435607011655,0.5830438365740056,-0.567730402226126,0.3421475762875019,-2.1514935449970314,2.3720512203129296,0.2556499665514403,-0.46567504625225653,-1.946078109238086,-0.11292346115706288,-2.8889343635906095,-0.1772342141437534,0.00980623234408229,0.4828006567141959,-0.0023696220812271887,0.037260460766145004,1.3195025932705438,-0.6154331771482863,-0.1552516093890555,2.01642421045934,5.764015139167832,2.871969428180156,0.5472532134642633,0.23223798698590298,0.5584953485615218,-6.401770455253859,-0.5757865932719304,-0.0640296549412606,0.2667226835159082,-0.6202883298488985,-0.11397461100495962
PEOE_VSA2,-1.0522759342588643,-0.8730052642945076,0.10785189152701084,1.0170474241380079,-0.4576783252165116,0.7063507345489278,-0.19933062388201384,-0.565348860333419,-0.08027418524415969,-0.24975969259896053,0.7312821040576586,-0.15380508876538934,-0.26691496765213507,0.7909061998243131,0.2432841244728536,0.5348635233437979,0.9901183507241971,0.07073183916789863,0.5660197915005613,-0.35978508095582706,0.30969199563255784,-0.20652552366705867,0.505679489687511,-0.791076073736942,4.650686557755539,0.4942313231378181,0.10752343367551605,-1.0158333440246232,0.24672845322959158,-1.3302991550819825,0.3689277521578094,0.22649249214780245,0.4359971482378813,0.8594460510243185,-0.06174249806827114,0.5866662449085178,-0.5298649429222112,-0.2101970195323466,1.131693107347445,2.245557021954757,1.5382166306637057,0.11649484844051057,-0.1185014428527497,0.4297058272741881,-1.7655034398682092,-0.10915648407074041,0.024654472000395205,0.057007504267703936,0.40311015103220893,0.10556697653446133
PEOE_VSA3,-1.2722040560899575,-0.6332253080212673,-0.0862641136913311,0.9114508485602275,-0.5581726248387181,0.5568519023833086,-0.5023284497700818,-0.4825699009431435,-0.15753130922948613,-0.35471526255488556,0.7540485500263747,0.4602057870940247,0.04294190377541731,0.5222030096519135,0.2173522260483753,0.4687234506457462,0.6754301932912647,0.015085783359031137,-0.15189019368168946,-0.37029562963259977,0.28668015569816957,-0.20741125865727386,0.0004271100524466706,-0.6977073798939561,4.643005939717727,-0.14086004300201077,-0.4514513902650423,-0.6551213714879717,-0.02952025142130852,-1.1778302787468944,0.032503056718033656,-0.152901540797459,0.043020929466452924,0.3454741119317452,0.15439046940776963,0.6456057519973749,-0.5914588140167767,-0.4434512909143857,0.6346463421614266,1.5725166265998998,1.0750225888754283,0.19861144523608718,0.157437719556712,0.30734678388515396,-2.109694783042902,-0.21577719739882475,0.014727182952993063,-0.12793483657094712,-0.39784058238586567,-0.13978949472972815
PEOE_VSA4,-0.6514038240837177,-0.3704841477512403,-0.11131083145424145,1.1270257416155576,-0.534213246078087,0.9615014067538942,-0.318657892663371,-0.17147862700845992,0.35106705438048835,0.08657585272772035,-0.19841203276108035,0.06674510626306407,0.3391318126370968,0.7549469114644741,-0.11152116342559831,0.6271434374800624,0.769040375436775,0.08451863274538726,0.1679350371046327,-0.4129390303594515,0.3374066677430783,-0.1228555945272207,-0.21732217230259396,-0.5320060284622301,1.7762001937592509,0.07795812732687232,-0.09309626008954953,-0.4757616537514689,0.0118290256699747,-0.6406993092009712,0.08644645714593532,-0.16486174842751541,0.012048101689936894,0.3167482855027601,0.16707994045107033,0.6536414621455844,-0.15491592866935447,0.17392950735156776,0.6368004488650677,2.3659936154587786,1.988620458367507,0.3324999232403643,0.10702571905399416,0.25702476738428387,-2.0613133830359662,-0.11910728646988425,0.08706085109359074,0.025498259819357473,0.3268618017351665,0.08324651775446919
PEOE_VSA5,-0.7452845026376533,-0.11304510944935296,0.07341396362546358,0.9591499619449412,-0.23944978672061798,1.0617061315874239,-0.2815258240919273,0.07732199606366137,0.5043051119467216,0.23745269377530986,0.028073246379758568,-0.4422779789364347,0.194231122239012,0.8916802398929343,-0.4073391580651527,0.5154651477590629,0.8809174221697614,0.16918987985367198,0.3680718271398296,-0.5836269711075032,0.24350622711026648,-0.08839190740989553,0.281525083778179,-0.9389920547749041,0.02910348052959775,0.11428679229298581,-0.048184293528187074,-0.8064211694609528,-0.13347105031262757,-0.7615661697192334,0.32729837811665013,-0.05756912263995799,0.19970691222244283,0.4670053014331625,0.14987429908543906,0.7535313698840392,0.09004350949114749,0.1416432443742452,0.7195237726657965,2.8075667393211723,2.2500935473547274,0.5234150821362457,0.3886813551910712,0.41982637089647595,-2.6048987860856556,-0.1783706297489377,0.007771098720560676,0.13528866347714313,0.3313862770228253,0.24485691106271865
PEOE_VSA6,-3.1586773930778698,-0.38246285735253016,0.4507872115461879,3.342468772543125,-1.2003623109480643,3.113237340747536,-1.5128527718698712,0.6459838053533302,1.074299887270863,0.6276343965125031,-0.11809611980607963,-0.23829415951054728,0.17419542477620095,3.228300314969675,-0.8374760376227738,1.688201745396507,3.219796223797122,0.21454290338215326,1.9006790278260826,-1.8525328107826227,1.0002990072375768,-0.5056916058656953,1.2639841640505363,-3.484521192729084,1.279946171764812,0.20515171489302136,0.33048576593192475,-2.4986537115530822,-0.6251102640870043,-3.3379961873597868,0.21514738459724358,0.10210807591712,1.2799530651308495,1.8224809420883978,0.23340951791854,2.078688238671699,0.3639776878582741,0.6607871397203007,3.051966377362222,9.092572191044054,6.430096037275382,1.659582699295413,0.9555470045410821,1.6054159019865832,-9.790450301947173,-0.7511131048173233,0.02281469459782965,0.3608303484654219,0.4596670612027411,0.3336511722802172
PEOE_VSA7,-3.1907060402142853,0.11687242359803697,0.5530426922754712,3.1827916399051084,-1.4676636181839298,2.97865583057771,-0.7983893477395133,0.6714032744070346,1.1771753262749722,0.7091442438934676,0.20769285301823898,-0.21516140209194617,0.04599270373227127,3.097380105709183,-0.5949376647076774,1.8474334866100957,3.0680820934507924,0.20976064652539989,2.0965111953263276,-2.080724212549658,1.3448094393903491,-0.47741402888335244,0.8940211656967488,-2.737435692951001,-0.4245565784291994,0.5045477793474159,0.46437464212249957,-2.26947889680703,-1.0845185277569938,-3.2102045163108253,0.24262735377566186,0.2673652733027526,1.437152883538567,1.8957966312469197,0.4395809338883148,1.9695582622944376,1.271605701867095,0.6516142944584932,3.2286421952669806,9.398759476869193,6.8816772969995395,1.5750160470598615,0.8842611241764324,1.6776736358784479,-8.984627350109823,-1.1369284189646705,-0.1845308049087865,0.087941341720227,1.0019934375990107,0.18051693657270845
PEOE_VSA8,-1.7995244580777012,0.272643979150308,0.4285435903053412,1.6049186538352165,-0.7147613243083277,1.9023888206237154,-0.36202605856017805,0.3453504491719621,0.705148235300144,0.22693505641924,0.29600848093972637,-0.3469054844726395,-0.2451690497698175,1.7206575804318938,0.14959476320639573,1.1869211571299887,1.642901865935203,0.07621902402529883,1.3467223736630374,-1.092313825050587,0.9751353080699562,-0.24581534304735314,0.8424548252539171,-1.4756005111938046,-0.04820137596583684,0.02363199732970616,0.37061016623775256,-1.4716311558589164,-0.7092256272434062,-1.5809796789303776,0.0039370416957265975,0.2860340184073785,0.9160216573233334,1.0106051344767115,0.3874026738238692,1.0499387227070902,0.47688888050443634,0.13892713454462832,1.8737794784583153,5.40492714715071,3.7347233649777265,0.9763943245780184,0.5245581543869335,0.9919673553710548,-4.761141256483014,-0.595381618010813,-0.11016281252329925,0.13771239800212257,0.3947442963595751,-0.06642837250381764
PEOE_VSA9,-1.598007220056835,-0.1520170946199924,0.43934026173364243,1.3364577106183408,-0.6376976541496332,1.8977693514853302,-0.42080809189714613,0.2190032975267134,0.5204912419857298,0.1843557031392624,0.44927440520563927,0.019099632399935604,-0.3187398111655451,1.2712600339074052,0.24348125391755757,0.911389712933251,1.3281132541320373,-0.03852404605337563,0.8466204549325503,-0.8180526022860368,0.4624533008270517,-0.13191914370732524,0.5395525692901337,-1.3905316304887967,0.4020214073160905,0.26183760772480913,0.11880435763558778,-1.2460168576779245,-0.5300720298033175,-1.5686340220085724,-0.04516732044727735,0.15353349952560955,0.8231293655706271,0.8144480262237019,0.3295125233380952,0.9524604156219123,0.47321155170790363,0.029707960401467094,1.5447493729724555,4.928589344310646,3.3195930425198332,0.9042821483884503,0.5201154931406665,0.7611165679731318,-4.330516359562626,-0.5786579258741197,-0.061683870235538056,0.16690956543859334,0.1318597972302723,-0.21401148626208727
SMR_VSA1,-4.421258434464388,-3.051469807298434,-2.001470533475826,2.3629577556936323,-2.3265386721466212,3.30936445464899,-4.167910823203809,-3.21402889142856,-1.5091378591444797,-1.949212545038009,1.498856675593388,1.049502792018402,-3.5305616568973264,-1.2257112370075043,2.2924881307913885,-1.451569815820973,0.1631593386281285,-1.7536276562614759,-2.515412503241895,2.624249066353768,-2.901421065661185,-2.2835418236918352,-4.645520351839765,-4.887685634148615,-8.323309589115265,-1.5937225824715546,-5.5629173042642055,3.472597253240302,3.5554586456574997,-3.7115670720772997,-1.4712450172848404,-1.977075411852958,-1.6748609671252148,-3.506060623770297,-1.1318997963454505,-0.2663182414949646,-2.385657931448063,-1.364805089937913,-0.9722722787095454,3.3097067217000893,1.3048987677061115,-3.067629176592085,-3.456137208752327,-1.7093544381413361,-7.953205964412747,-1.0091442908320973,0.07624164790727914,-0.2811065556368036,-0.1021723636314298,0.22615639354122324
SMR_VSA10,-3.332235835197628,-2.491123965116889,-1.6368373706710937,0.9352272296616958,-3.400102502405044,1.428019777583517,-3.8070967861243292,-1.8464290400655046,-2.2221990151376563,-1.5137695966758102,-0.5005377291194759,-0.2606763467836742,-2.8287933762743185,-0.4239447871653252,1.885185172179665,-1.4348866397260134,-0.1667476711553418,-1.0447958903595438,-1.4243890314636356,2.276743511052998,-2.1090442871162125,-1.201162499107194,-1.6649870987631672,-5.110573588430714,3.489581537889698,-1.0132067726500156,-3.5393155343790963,-1.3792619927897043,2.2448115968240314,-2.251017339328118,-1.39299851666267,-1.2565531403339625,-0.32841190297507133,-1.9732289378822259,0.10882467110769048,0.16954839859578635,-1.8471492504089817,-1.3409098589706727,-0.7792643516867802,0.33608140044994533,1.4681738017590729,-0.5346619434915983,-1.4409214086743727,-0.5475097709011064,-6.192440096378209,-1.62428827558147,-0.4975868128118469,-1.221406995939451,-0.742029958415296,-0.7293730282131556
SMR_VSA2,-0.3939807479522603,0.297997035093757,-0.16275945839156944,-0.34065707710302323,0.06000314409153023,-0.04237780598535546,0.050454667670207703,-0.20197102336375636,-0.4257726573978854,0.24919256830595743,0.3435189315893988,0.4939070689010352,0.459948718786173,-0.08367925159130372,-0.5264486997740142,-0.13292626015585088,0.28914400965534465,-0.38894398454947554,-0.08450178481638655,0.21621766000380824,-0.3644059700020863,-0.7774276565077234,-0.1061794144930364,-0.32129871042116764,-1.5817878086218597,-0.3850021725083842,0.043730925692300436,-0.17117594596967758,-0.09773791543307771,-0.2331417614712745,-0.6933141902155004,-0.27326482359988724,-0.3840862322407256,0.4374761837994765,-0.3380940218910323,-0.4064632291294913,0.4580365681261563,-0.054768414002783025,-0.15496762547405518,0.8597534477192138,0.3853636352809639,0.040535061274584075,0.16660790676567,-0.12887112521131538,-0.43510961248874847,-0.4783122142842398,-0.4020516398574538,-0.3889740160792811,-0.8953717424434383,-0.6647293358652081
SMR_VSA3,-0.7947324700368026,0.007856802646732528,-0.0921440571666071,0.9202440679682556,0.6529233232675762,1.2720987966285928,0.47384139112548507,-0.4917805163051171,0.5396000731239561,0.5081964564521299,-0.48426369002806546,-0.15120542080386926,1.229754822952639,1.701817256443455,-0.1895480485251556,1.166804073015454,0.47577631449726504,0.006065859238014843,0.4873202473852274,-0.8113213426574284,0.671859896934817,-0.4470138205162161,0.6685514332877137,-0.18855653221193666,-5.369173699251038,0.16399116135067943,1.3383131737212521,-0.5358553470862093,-0.3513520344707434,0.14124236546449898,0.11806719829573577,0.18399716447886022,0.6227911662405198,0.7487882083391162,-0.08893589191582045,0.15594328247137854,0.6522858209684455,1.0823119147983216,1.093324875417003,3.523971838097082,2.7149182853895857,-0.6864562151007415,-0.6119010628092897,0.524829808186684,-1.6115609769682067,-0.33304451859718515,0.10656983898452681,0.27777362366161995,0.7565600693499465,-0.07468311411225914
SMR_VSA4,-1.0230100851381905,1.246899831894302,0.6219370723347422,0.7923648043355778,0.10356670424927616,0.2920498303138505,0.6761545636712947,0.17338040148349146,0.6740602263331363,0.3161729073288432,0.7292298098563904,-0.3010584662741982,0.2640337818671821,0.33448177494139997,0.662225037156589,1.3656745250095748,1.717683740731035,-0.04775673258412813,0.8762924817893577,-1.5600765699660317,1.1014558514794992,0.021910266429655656,1.1852170367235169,0.2374027819148987,-0.6302821860696034,0.5103207826590532,1.4236053798221826,-1.4568947578371367,-0.940089222574111,-0.12620252273342267,0.1231755092648022,0.2963564666014171,0.5614668780757627,1.243754899610565,0.07366404516490843,0.944172704862096,1.1510993077233727,0.30830533528365756,1.768643117739802,2.8673686780986856,1.9309936790075002,0.28339239488671186,0.5232996804618529,0.7332046743401371,-1.588847667470117,0.0797805092671333,-0.04116071052476682,0.43867176322398244,0.633264499271333,0.18294837195169766
SMR_VSA5,-3.1998499902226274,2.043195013455439,2.0178699486600613,2.83790392259081,-0.06657096801319425,2.40215040081604,0.9175363601861878,2.0095429084132608,2.424649120358698,1.1871201330394265,2.368001925603927,0.8447811409109732,2.8322910696275474,3.9681978348951827,-0.7933174949778701,4.200033958247917,5.0829521488949,0.6645708534862692,4.071926651807221,-3.992407655491362,2.7503232268757567,0.9671697883205339,3.5064588430266013,-0.7642072782408984,9.977487838418917,1.656321339606178,3.577631350280261,-4.079139118648537,-3.345111964145426,-2.8781853104042523,1.3424538048640478,1.2290243601816648,2.3842269468481483,3.5934274315466674,-0.0061301701039257195,2.713389451650415,2.350285898599123,1.1278576067373964,5.77835412044693,12.758183302288147,8.23466401308311,3.2054824894619323,2.5047917665794355,3.1294975437463877,-8.55684910176382,-0.06989566150689185,0.3079109010088484,1.1321286207513563,1.0535795110372448,0.13050019455843265
SMR_VSA6,-2.209139046028909,1.0787588823325862,0.32141924214038303,0.5313117278098909,-0.8711304373069914,-0.1685497055341523,-0.09193986246473462,0.21814743888655846,0.2178391691485724,-0.2952730090198285,1.679404099567674,1.3283142387372935,1.3575016758935812,1.4364579364524868,-0.4097200665932551,1.363479511863927,2.100308398683743,0.06139509864454975,1.8912212260545311,-1.018842135681708,1.0133112328795768,-0.2376775652758049,0.5461199371446679,-0.5144877419807354,6.022637966387419,0.3596394359280591,0.7344688581039569,-1.8194756008672144,-1.3689600631664731,-1.3889878845746506,0.6433427751468141,0.528669611191214,0.6715196825245303,1.3079297783677,-0.22184818605968282,0.6339210643148284,0.20531880664755672,0.2766740554352414,2.3192611575671656,4.925568240567063,3.397059691487756,1.0363211092610483,0.8111190995586353,1.4715661429684714,-4.379544027180255,-0.5745050040549667,-0.3613983534837475,-0.10494104543834835,-0.3115779185672137,0.02973517030990953
SMR_VSA7,-0.2626560327507385,-0.6985483657693948,2.002371645401854,4.285882172904919,-0.19958071879012187,3.777666731791394,0.4500897762782305,2.2259666571731973,2.524403872372859,2.1225164027654655,-2.397684702692536,-2.518164967858881,0.08221899379059852,4.8375948013731405,-2.73135699185138,1.9984833848602477,2.8635424795169113,1.725930833259381,2.490161685971588,-3.576320580302838,3.3701724676250353,-0.02436269504714906,3.460027386522515,-1.524513298056838,0.9882335924566833,1.1387750997457797,1.6096594273823557,-4.539497384906521,-1.1722504001042502,-2.9214362342424303,0.9213789602861026,1.2042634793616116,2.4851395243736656,3.6811892486590736,1.8549840343853894,3.16171116464005,0.5581726746314015,1.278525898251347,3.2736814767835134,8.62370798921106,5.965470538232315,3.115932628049729,2.683923443038417,1.7368760294723673,-7.098017609874738,-0.5252720251350095,0.12292614076644695,0.7938354541513646,0.484184891625446,0.7721017618038551
SMR_VSA9,-1.0908976680302556,-0.6265687391245355,-0.24320891123568553,0.9315074636476189,-1.0739263669816723,0.9210091613146401,-0.8117311519772641,-0.4838419345099037,-0.1924036725188112,-0.25065332829801246,-0.8284138543966062,-0.29932398284575584,-0.9528394391288469,0.43711454571251324,0.15776128658114183,0.04770505741451306,0.1653997677838537,-0.2319253569191402,-0.37216823393826703,0.1878546073627515,-0.6466233560176693,-0.15435576972272447,-0.2966224450749178,-1.512608365593248,-0.1927808600436972,0.056283563156234506,-0.9685168061872546,-0.4995544926894052,0.3299698967665545,-0.5312424006634774,-0.20539727427520707,-0.11242856059013535,0.12746261723172914,-0.2546656548863471,0.20387241354023206,0.2421483455135809,-0.7131784387740897,-0.424761488694782,0.07813341870941115,0.5603157121637542,0.8272947402516528,-0.243240404611055,-0.5026207050361184,-0.03161782705792665,-1.795624595958994,-0.27480043424554573,-0.018261131062842672,-0.1082661272720611,0.20957578470401775,0.1714494079171748
SlogP_VSA1,0.206350064180185,0.29560168468483505,0.40882312474821064,1.7760932245931165,0.41957173021715993,2.4753535503465356,-0.34994366294011636,1.2897111607203802,1.7555431318385022,2.010042817832947,-1.5444058420624138,0.23600791715535813,1.2005717371341988,2.325004892030385,-1.24877379360781,0.2570305519799366,0.38554844176936465,1.4014457993618488,0.8808463009384842,-1.3658033585320881,0.798911145626218,1.233927416456083,0.8471594912232151,-0.7920153140110573,-3.91534738002843,0.43609562029616794,0.320109385257325,-1.2131236734476594,-1.6699522885384754,-1.2369832745539822,1.2832588056177414,0.37671378291051283,1.0620987207749033,2.0712309872226853,0.8998807169093932,0.47456082997906657,2.4195297108492664,0.8489571234477807,0.7215353445883399,3.4259623126775103,2.2993750590682733,1.689473626802088,2.1961146355062966,1.0715323207115846,-3.8446495504309697,-0.1294784396710703,-0.2069434046876635,0.3312896691051477,1.3675524221381672,0.0401732798376189
SlogP_VSA10,-0.5526454985240503,-0.2951993841718449,0.9473010421664657,0.753539299548726,-0.6237137172682683,0.9196313985167759,1.1115133934443526,0.13984275175232636,0.9165098047887322,0.2874211236909036,0.4508600092870086,-1.400069324842053,-0.8607716008039753,0.7467938659247323,0.33450051554421295,0.9451445643352855,1.1521117784892567,0.07711713649176143,1.248723872738097,-1.1606233137073312,2.2115094931656865,-0.3865073500781964,0.4579685217491455,0.8412845568843959,2.561851827022231,0.2674096349969087,1.117232030049808,-0.7418220770535253,1.1718040028514025,-0.551646015786639,0.20595410473720216,0.9078246857006439,0.8606993014151755,1.8878313189629776,0.05383359883836323,0.6981086435390194,0.2848932850316866,0.9183432507830788,2.421843877684088,3.0688492460905503,3.243015607665868,1.1510356633999403,0.6080182224250108,0.7673634709153444,-1.2519097583552456,-0.4789365138023399,-0.6058450740919066,-0.21787275994823163,0.5924603094168873,0.4015945086712717
SlogP_VSA11,-0.4006555129732669,0.8448781531060079,0.9742313000198831,0.12624855560850187,-0.15532991396832052,-0.17020907325883505,0.5310057617767185,0.5108752194584005,0.29869493292456517,-0.045194640436041406,0.783090879327687,-0.9433989411266038,0.2070224734124235,0.3473945139711903,-0.26994255939594364,0.8927685009753934,1.6709336408098634,0.18385189564693166,1.9338356446919522,-0.6712266530206897,1.3779699463926536,-0.4436366826200055,1.3292906776106386,0.3563638946137781,1.1652091396974322,0.2713159678451333,1.2243487704283387,-1.0080198506478066,-0.21368280464275985,-0.32830014694341103,0.06192181883682615,0.4559735519355685,0.5238413741740177,1.0738855625625463,0.44003610980144003,1.236979896365348,0.2781343388960081,0.6926064929354666,1.3064071162683426,2.5976546193360615,1.6647488852026584,0.867815220335757,0.6488051353911761,0.8571275937520291,-1.1026782614342432,-0.26993748536328904,0.1528181859070584,0.1179020819743996,-0.3436722247331442,0.056082198664419075
SlogP_VSA12,-3.0432743644972806,-3.87488543580922,0.274961811950682,1.9508244835943194,-1.0460634384158198,0.8163776589347705,-1.4070574023619318,-1.3493570309845533,-0.9574326929886092,-0.7096249834367178,2.320973746772129,0.6021303912793456,0.4518534172292953,0.7845754261436481,-0.14389807733776133,0.4111859042553549,1.7097900032223152,0.020036993297128113,-0.07454740400901763,-0.20623269259289229,0.2903019996802989,-0.8105513927233194,-0.7741575238598087,-1.5975768575009706,3.007362475127551,-0.6139191403203553,-1.3495547671027723,-1.7957220055854763,2.17987611712765,-3.285963687256337,0.23452176075869585,0.1933769497282879,0.8463989806410667,-1.0760032692129406,0.41844697254888436,1.437278252725149,-2.327622708650517,-1.3322484666178869,1.638851098517796,4.705456853319578,2.033882795260625,-0.6051906154282884,-0.2192620946629809,0.266250426205487,-4.443112883096922,-0.25345971045241833,0.6312135886420152,-0.003971214950456671,0.14088748773045787,-0.12372207725375557
SlogP_VSA2,-1.884122437018044,0.2934918019390609,0.45561972430645836,4.031572820329205,-0.3526837192900857,3.8194431077731954,-0.42287210996066277,1.5319769910017245,2.222835756046558,1.9142997300772526,0.1772816808151354,0.17163195947952078,-0.48127943033248116,2.629237791937859,-0.030369652169512443,1.5742979398637544,2.3046955574054104,1.0557927268735223,0.9001113225172099,-2.3450869930317038,1.0331131987056348,0.31014367692707534,2.1097320842683254,-1.8393558196679654,-2.0050615777385765,0.3995461604071396,0.49892171293246923,-2.217302002614253,-0.546087211605083,-3.714798868541304,0.910753553739596,-0.20060078061907033,1.6906949965916829,1.8813990734650576,-0.23336046221941362,2.010309361456124,1.7238653789559657,0.8104172644347817,2.576266220757415,7.494749999580687,5.598844802734203,1.5471710844480944,1.7559032918810478,1.1356635543026021,-7.550785848569513,-0.039553998771298254,0.5995278529976514,1.1849138855218462,1.8678813936645993,0.1651293360553535
SlogP_VSA3,-1.1950626037780858,0.31999293918863664,0.1069339740407782,1.120318944330245,-0.7065735459773256,1.1285668321169302,-0.2815803016380457,0.16091964041812118,0.5731894670327355,0.37549818153528003,0.18876278513201955,0.03464250467029395,-0.1585320468105406,0.8016024540573682,0.19855105916934807,0.5468447472886325,1.0531808878109516,0.1378770611184284,0.7525354376604251,-0.7038579912488705,0.4796827086304229,0.004308833816269078,0.1292751370448766,-1.1958037619229998,-1.5231496766248331,0.13481959379360364,0.09537472730428749,-0.6275705319677085,-0.8646667459120801,-0.9567696269212884,0.25341416828328345,0.13289331688022935,0.8627867415458044,0.591971556012265,-0.06043785171578859,0.6302486864233134,-0.11228603344139446,0.2153690210429018,0.9597703697552045,3.1726792760056037,2.199037367983564,0.5721046016255555,0.4813724006742294,0.5280487865113296,-3.012659591579353,-0.38764592644954854,0.1028521228524477,0.24143942324194778,0.3171453244997977,0.25095921909821056
SlogP_VSA4,-0.8576203011255438,-0.33367243764829035,0.34815000166228505,1.0939865688146988,-0.08347982282373909,1.2922699463554914,0.02813133852245094,0.20025715170897765,0.5333965524397587,0.2759983634943054,-0.6112983306272317,-0.31755179996402766,0.04776851613926444,1.390903376473313,-0.6440413132158783,0.5380846208003526,0.8716143679535382,0.10206135316360018,0.8340879476175731,-0.3321860047395815,0.5367244954418339,0.11087248424987166,0.455183528700305,-1.230149860170855,1.3294981289831365,0.22277762099073195,0.10689575934613134,-0.5856370172553025,-0.6195397466451746,-0.4728478940933272,0.21199697495396905,0.25276507744245624,0.7469999727543885,0.6026277736041318,0.18452758420047852,0.5139656594837931,-0.37691568288175803,0.09059057082473829,0.7312446618221075,3.3345035657360946,1.9837558133957747,0.8381828777135111,0.35248819809558485,0.5963045129932947,-2.4859203189541743,-0.39268417342539347,0.09546275639162594,0.02920552263489958,0.30958413328174944,0.17339539680770033
SlogP_VSA5,-4.008026150469807,-0.21843874352856973,0.32224952906056414,2.4593232176259825,-1.7784051228376254,1.867716704657812,-1.7208564640770845,-0.7049476754589641,0.3264148360441701,-0.6019384423654973,0.7469139871212135,-0.3264461572438177,-0.09299743948857428,2.11084916883755,0.45705918185410976,2.1795444096754513,3.076368910420897,-0.48689229110595234,1.3078261291846454,-1.792880319082637,0.7749623552613358,-1.4279500472084008,0.3393743767056235,-3.786736543427953,5.270439770636301,0.3450638520473252,-0.3726624232877149,-2.146773424416068,-0.8600715881606706,-2.4323341151229694,-0.3687855417830277,0.03946554551388733,0.7445523711811767,1.0643819783249777,0.4358207353036449,1.9457698446615048,-0.9524956970057644,-0.5415343254447638,2.925640041766453,7.862935251809882,5.376839694972251,0.7764097886940726,0.046658267585724895,1.0960911265186255,-8.817310346207348,-1.3421763120545218,-0.653443221204006,-0.3046402425404265,-0.4729097947847683,0.2557339277211715
SlogP_VSA6,-3.216855608439957,0.46880301103302724,0.3883082372128149,1.6469703021198956,-1.9062353001507182,2.3947914781723534,-1.1819822028162013,-0.3362736969666691,-0.34231075014866885,-0.8922377521233219,0.6051608175175552,0.04006107360973165,-0.34422080490010326,2.2177999162415802,-0.4707946126363794,1.370010442222082,2.754430787657912,-0.8200311816281993,1.8861705452258655,-0.345422669260351,0.3464457107648524,-0.5383648067706485,0.391944744024808,-2.668485579204375,6.926224217272295,0.8869322309578358,0.2006740102501172,-2.543175184806646,-1.039297209311634,-1.9310375839934435,-0.6928925519410312,0.2542909792683372,0.26558920548329706,0.902823733173274,0.08362265362399778,1.098321006719843,0.39955105453804124,0.9137932369629409,2.532132918180974,7.422447703138295,4.92712868162107,1.1398437583717005,-0.7897363658812856,1.349059833129435,-7.523360876576405,-0.8646340265383685,-0.11581963687776968,-0.011508480761774055,-0.8389571760005786,0.06693517649652599
SlogP_VSA7,-0.8452559663583828,0.21495316061032124,-0.25998766979422233,0.05138031904159109,-0.5427124194994581,0.0015146110630012716,-0.22359244238569365,-0.36072978455120724,-0.2765126577679105,-0.465610120148751,0.11511738130066647,0.36552002940678013,-0.26825920477184323,0.02166758533265404,-0.06990296101574439,-0.11438292778258759,0.2922525335067913,-0.344907807296906,0.5076662245038306,0.019809060372159026,-0.2311369413683675,-0.2837264411112813,-0.20141809588445422,-0.6262308596523943,1.3471077968209846,-0.06311223826255556,0.0333957752609502,-0.3232919483641524,0.0991305397851641,0.012619624993438432,-0.16771196477748024,-0.2560302970768631,-0.1772729488627105,0.010326673477167146,-0.15996169009934458,0.14251930720483086,-0.41264796023859013,-0.11508059883929761,0.42319723426404215,1.2151208290969282,1.2508584013843087,0.11993942720331419,0.0054520428578252325,-0.022235693477765276,-1.2697699424261042,-0.10334165991109204,-0.03222176722196754,0.001135623479860198,-0.6962901114635099,-0.03956894709073155
SlogP_VSA8,-0.1508823437223946,0.17378970871602648,0.5841320039317798,0.28758880730698233,0.034349718785333265,0.2933388590858593,0.4051454600236862,0.39527708354760244,0.8110365687756282,0.44835022127268853,0.35360043048316564,-0.2633530522769809,0.8030729842791785,1.3175990411113707,-1.2394244155444065,0.8421963537903834,0.9371633509264942,0.3287758824413623,1.2153350769378974,-0.9606635018994137,0.9407879980041186,-0.21933499920626068,0.7951481195357001,0.31540490202250887,0.9069993039296157,0.1396720068373044,0.9994165591964976,-0.7800285280050261,-0.3450121387169252,-0.9040636177249365,0.228977612217401,0.29292575450794023,0.34879491239864036,0.9437490065360504,0.14149756496409863,0.7408772289326233,0.38984439303077856,0.1792984812345974,1.0132428090473324,2.5719787001654733,1.438700518499423,0.935787215201994,0.8119196196049898,0.5479536099881751,-1.6662775606539069,-0.3992060826405057,-0.24715506285130398,-0.09444684518174686,-0.5066832927334507,-0.11257405995214337
TPSA,3.717552619556255,7.149950044009139,4.111020048580132,3.4010890042837616,0.7040736879086319,6.688390045362249,4.316525957685236,0.7177311047604117,7.588576771236507,6.446544797219974,3.637308800461362,-6.973051280702756,0.3047100406676899,3.0904377353738943,-4.8249547561799835,4.618215075495682,2.6174775627958513,5.581799632797039,5.833906493149991,-7.709520561408372,2.961403360322762,4.274363299021784,1.6979197228000873,7.500405408922668,-14.355145518147708,2.8961418202410054,6.8700983481009334,-7.092503365239196,-5.158583461924435,-1.338813450255114,4.038736595784205,3.0141119962907865,5.559139364583954,2.5253161015887877,1.6935783391676364,0.256264911388804,2.719283702717638,5.9974818321992815,4.896368369008798,-2.718823791092668,-3.8975696543769125,4.960360072290512,2.5631683907431024,4.901468383058618,4.061171137249552,3.6258691877683566,1.5499324987252734,3.9197359833432457,4.512389561531606,2.166499955951153
EState_VSA1,-2.9811677145853603,-0.20759859282542775,0.39649702953873045,2.222652568675394,-1.3566274624688515,1.7476463760956662,-0.7202768445951205,-0.16399349801856541,0.5658418945734306,0.1844736460472464,0.44807035380376353,0.4499284707360926,-0.3723767937173865,1.824425409369565,0.269764619984264,1.3718812923338226,2.2946732721474836,-0.05853888406919919,0.9913048504941047,-1.2286929731406973,0.8314376982072534,-0.9630887255709457,0.16755488514287012,-1.8564506759014179,0.7482534960942337,0.6176303231137641,-0.33227865888193797,-3.0316484069413314,-0.5294291823271103,-1.7322205579267191,-0.18456788522515957,0.25518087863781774,0.9663135867818612,0.817693365541787,0.3129015362429629,1.3529691095522332,-0.2276472759428614,0.12291113828587492,2.549499343947902,5.324163604774301,4.914089726593036,0.18003158145641782,-0.11441300739501002,0.6384670508617716,-5.40607650340111,-1.100834524212719,-0.32184286459681843,0.0998425531144133,0.43604721725671464,0.353948705937169
EState_VSA10,-0.8442418085967077,1.7429247047784255,0.49664415516361793,1.3990637445515712,-0.40612235642379557,1.023281240449755,-0.33725748527201616,1.008809130568556,0.3953468312651184,0.15827970806141733,0.5716893609086435,-0.7320276158390797,0.37697726289566996,2.2560772338212383,-0.8220466265842167,0.6113066692764889,1.3454121392408767,0.7358992690945518,2.175472350464832,-0.6228699221384947,0.5109857626884848,0.9906228605726689,1.5114387039829809,0.21718105247076588,1.7655747944586304,0.1385866294904352,0.583528771337962,-1.9332543937322384,-0.17439618386228473,-1.7841028946849824,0.5898712855091014,0.12569301144022296,0.6281099242141175,0.924603292064602,0.5214709628630066,1.1652804740194487,1.974325934193579,0.09588281055633228,1.6762158741819506,4.247021659444975,1.8844207861724986,1.309575048504986,0.7129237687208471,1.4526087271308026,-3.5257662106231074,0.7230993875339528,0.7311243369715351,0.8978991820360069,0.7524463012778423,0.6663259856915416
EState_VSA11,0.1472888287523126,0.555265704315376,0.07043948138971486,0.22980859412328086,0.12586619931628487,0.524154922728928,0.5998581505287787,0.10785533342153085,0.19382965326613336,0.06580091188721955,-0.20522425560387345,-0.419164452807273,0.13565576733799145,0.2873703276827828,-0.11582021107476402,1.4563423288156152,0.6858095695973678,0.12092672979826369,0.3417781055514619,-0.16937792856778794,0.255403735605044,0.14103252085210854,0.1876068391322572,0.2638476048399974,-1.8081965997144929,0.058870802338864596,0.2199785086818477,-0.32026974069124525,-1.0175425534319105,0.13830776855558682,0.2142258845489005,0.047278500731712886,0.08402954977732831,0.08104928409034902,0.008012193834030946,0.11008725867857684,1.5993897952017087,0.26765775726140517,0.13206646431691316,1.976402966249262,0.7211365234659932,0.1506759449026117,0.09383223702926495,0.21898772024730906,0.30866339612547944,0.023855593141617597,0.0532169080261848,-0.12279082150619994,0.43532040462111915,0.041354023558117355
EState_VSA2,-2.092012308606913,-0.12624809716141516,0.5766784009839991,2.174760308236314,-0.6807995589916452,2.0400247514396486,-0.51451453179976,0.1264345532581494,0.4889281537354045,0.08277291291003219,0.3632558305434969,-0.2328222278982382,0.10384370426294721,1.626372100598732,-0.13422839881516213,1.2053701082072057,2.123722836394754,0.058460413752224306,1.5353693192987254,-1.5232255353393929,0.7160857602903737,-0.30291050452708185,0.5976758420707593,-1.5845270375076987,0.8469799695029637,0.5426709486601515,0.5186109883975414,-2.0785076959577773,-1.1946471616043732,-1.5169584011172086,0.12116595996905749,0.2799724255731087,1.1491589620633635,1.1715105033908317,0.40704505499068655,1.279734411835487,0.2949000340846356,0.40703686553050406,2.0005436659820304,5.312204588801658,4.056198173851354,0.6269136031131406,0.23208764445755645,0.8486747770035341,-4.971733578424159,-0.4562446927608387,-0.1267414661603496,0.37162586308017354,0.18890035686002038,0.3327758476535848
EState_VSA3,-1.2666527546352029,-0.44398161765122457,0.4165304742068797,1.6627544514765702,-0.18843170920252425,1.572066477876701,-0.36506718282108963,0.2551768382981785,0.5566113236295369,0.2981854749236858,0.07572803389431855,-0.17895413587685716,0.10366971059849545,1.3383954903675217,-0.37367135255177436,1.0200161171640307,1.392047309629265,0.20875456966839973,0.9319032395434729,-1.116210841141678,0.7455427438269778,-0.02825379035526455,0.5109456119116818,-1.3344747795455627,0.9312744088568046,0.33373977438414004,0.3628885066047341,-1.3291038872987655,-0.5329813090753696,-1.2507888894649444,0.2204313154115481,0.31211469919729373,0.654085430286494,0.904460232627708,0.2684975399441737,0.766650892092612,0.021206296793228226,0.3481292032025558,1.5865402121680487,3.7239485351205266,3.051017032259624,0.6219971117142816,0.31013045192159766,0.6884036038053437,-3.5754993101573573,-0.19334648141137437,0.09648056239005148,0.26768432761048067,0.34367002714274186,0.22957886590276183
EState_VSA4,-1.5315786048524158,-0.5569767458699839,0.5484556748291233,1.8682761654530802,-0.1745879584104089,1.941269150324372,-0.5531070999931142,0.21248031845951065,0.7525217134063727,0.3459546181042975,-0.037970126337240284,-0.32858576182059995,-0.16409648157996454,1.4323111673332531,-0.45450455061830747,1.2765844182345905,1.8303193123122667,0.17007895086060162,0.8530055269901761,-1.2356663494692741,0.9203722146740935,-0.1626284618402546,0.750471289744846,-1.5445717374074284,2.293216506604,0.689840927602393,0.4750588273476741,-1.7871201613654668,-0.25293586157937936,-1.527393005987749,0.28161130386784405,0.0642406969084317,0.8389880961300947,1.0469139327219292,0.153168326179274,1.139426990012099,0.2666723354236122,0.46399981130370127,1.8196105457703302,5.157352313619436,3.8933092589894045,0.8522774463680394,0.5571913246577954,0.7900383971162257,-4.665758878124216,-0.35275274020096664,-0.0013026127123839453,0.2730479784611875,0.27124235406008496,0.19807094545846132
EState_VSA5,-2.046817133448642,-0.7983019827943995,0.5614521709242082,2.318474884934764,-0.6854203358366494,2.307031101756662,-0.736581085175156,0.19228626415408812,0.8888209620988484,0.4840165670683846,0.3961144508658369,-0.3939745112608527,-0.1565464911038318,1.8064408211225216,-0.2114655581788171,1.485141053989646,2.4587961245871375,0.26876755152171966,0.8922586477138432,-1.4014855824779036,1.0208879353577165,-0.2711362410404974,0.8634816046119347,-2.1367683508599407,1.4649164361536082,0.38886121703596827,0.5164764492785532,-1.6222481310305157,-0.30999530735789155,-2.3349060044138237,0.40154292992468904,0.26975146443357234,0.986945006915612,1.0766166451675516,0.14815090110580123,1.4414605101669358,0.09180576961389501,0.5781271113249572,2.26406786759525,6.474205156255082,4.70093198155206,1.2463516151888592,0.8345535402245146,1.0524950677180376,-6.118156102400581,-0.4637481291935433,0.10673548881042584,0.3029139588400727,0.14622459803713736,0.036671474134095196
EState_VSA6,-1.6993589745073134,-0.7261951559374442,0.24183666632533787,1.5386075079875075,-0.670472912765334,1.5624044429160582,-0.6990720476913921,0.046124822500160395,0.5893238931733836,0.32425274413028604,0.3185666953772796,0.04744546215841315,0.1371626087596576,1.3264164428665814,0.03640272928527471,0.8105442252882806,1.392834431135099,-0.011105505779502589,0.47107363796155716,-0.7630457190852421,0.5160820035483215,-0.20080041083387876,0.5443674670838548,-1.7124352174149298,2.429907315969403,0.18950843660438896,-0.010412965374545058,-0.9872627163957048,0.05007052874238397,-1.8633982644238642,0.12426296759076977,0.039362878969163906,0.5706614654598857,0.7227545892271412,-0.20805407216776609,0.8433170257919443,-0.3140688197869894,0.09255712165563461,1.2722866687091103,4.193571562882982,2.661154398081917,0.7349231520980107,0.5088077988352111,0.643424154808463,-4.530258047075971,-0.4416114351276079,0.08190375640066229,0.16052579843398543,0.06892851188701875,-0.04297551715007042
EState_VSA7,-2.1652799855090383,-0.6067900506480771,0.17049988379781864,1.9816983183394712,-0.9630463438563637,2.221646383116253,-0.8075485892630261,0.20019515192114,0.6938026715121892,0.31904812374363256,0.48520254535400764,0.04411476883111542,0.16878927653469172,1.5935569224416286,-0.08655324680398224,1.0541095270620964,1.8282944009354245,0.09310206828803605,0.9874417255274557,-1.0263913406041525,0.8395382226035482,-0.33215213956846656,0.8005868724750257,-2.150048066972528,2.5014092595000585,0.07322791136293527,-0.21600028576199323,-1.1352349444236736,-0.33480238696744863,-2.366934957584272,0.22568618480742558,0.17152774223646186,0.7709436681094615,1.1058523141492291,-0.035718071736004026,1.2273562826344127,0.005142142238134443,0.21863213322978758,1.8377412143152465,5.95628368276778,3.58176274161315,1.0546439498082942,0.6969392687059525,0.9060940451493743,-6.174044118997633,-0.7037295304423912,0.010805695315615005,-0.013908106481562639,0.11421810014243555,-0.14809149443241698
EState_VSA8,-2.4346337770779556,-0.628891968842625,0.1439932738666748,2.113707619908648,-1.208324743190634,2.1707881631942967,-1.0047486254538542,0.07186370090027794,0.6233397054890011,0.12725987101184258,0.46605743965797625,0.3008615326294322,0.16531147447310104,1.7781107430365728,-0.30745876226832225,1.0743377768952251,1.8020648764018274,0.005048270821727858,0.8963318905649679,-0.8881654971900401,0.5975095358815617,-0.600534479873034,0.6512507447366086,-2.6283203489565814,2.587751276541067,-0.029398073667646622,-0.5543399567080104,-1.2076591404140746,-0.2530765084318001,-2.895259829151115,0.0741881698592568,-0.04041723376614894,0.8440019294132639,0.9951586203738939,-0.0970859659592157,1.325603428509882,-0.1989104455050802,-0.004080498321188075,1.8528905229885524,6.376636480444506,3.576747708160233,1.1945620560833234,0.693200386722774,0.8639766926701862,-6.908654159353852,-0.9186688885238974,-0.0232728298967618,-0.043964340280339305,0.14350023345948928,-0.21168461586174103
EState_VSA9,-1.8010379806331922,0.8565280749245006,0.20052293468587218,1.009774943007831,-1.2828502742054293,0.7755024299544205,-0.5866775354401063,0.1236323811346159,-0.17701261972444496,-0.2652953225176853,0.5498585016055414,0.07262497408907913,-0.551398828860019,1.9533786435850435,0.13764330964055857,0.6088522765114537,1.1603612089213917,-0.25841063349059207,0.7329883940987445,-0.611878932346107,0.010506135515097558,-0.045878909194062095,0.5949244081898365,-1.3175897523820728,3.296796421171818,-0.14795632675737025,-0.06065083998858713,-0.17786471082347102,-0.09159227886954073,-2.428623107398402,-0.29028117006699644,-0.08882983160560637,0.20589507895683992,0.4664541065170035,0.6539252196408065,1.3107800531180076,0.17136015774537963,-0.42819642990788676,1.397956048805698,4.6913537978127415,2.123133980263713,0.6451423823044184,0.07715367837177343,0.793398345353101,-5.065023268533429,-0.1321224025128136,-0.09611880377023628,0.1806346619772682,0.04063542891704655,0.03470280228315789
VSA_EState1,-11.188640990813905,-13.36362131912849,-5.704302340687215,-5.9885738963756125,-4.778111669873944,-9.693670477354194,-10.990200504401658,-5.413935826338743,-13.146174967643844,-10.708629168574259,2.4925622515723336,6.940907987084805,-8.170943101249183,-7.264860398802069,13.90011647958726,-9.97954804748431,-4.724543997761395,-9.528832696628402,-12.496487776745987,16.6611323856029,-8.709362469686575,-8.091709100778166,-3.1474399134810125,-9.858243708119206,21.335532670677196,-5.088520582311102,-16.21398218658104,5.314333405824432,9.476219493578288,-8.809378755913828,-11.784677185791374,-1.7243249885120213,-9.529387821557492,-14.930086027771262,-9.370854566657233,-12.48417989681454,-18.235789872852433,-8.830189530829843,-8.261326716337301,-9.111799277815987,-18.745963044733497,-15.22365474413383,-13.155958728798307,-8.012272308595398,-8.987815522343602,-8.878049621710492,-1.417340229113026,-7.877215832437921,-12.25596484453633,-4.962153494275532
VSA_EState10,-2.800518541016764,-5.33299709308675,-1.7879357664476865,-1.2625540817092964,-0.9525762254262969,-1.871716405799252,-3.885540499035203,-0.9343679636349465,-3.1930070092437215,-2.6784041986880167,0.7172486431836088,1.464016384366831,-2.1205003137600853,-2.4994228543947705,4.795678108736303,-2.902154046672726,-1.9817956785318092,-3.263001983918112,-4.107259646733181,5.783721782150031,-1.6611196931912828,-2.5462729505641217,-1.4889918947100942,-3.3111478476007803,0.5808560270819604,-1.79476209749298,-5.383801228364661,1.3011316910822923,3.016562337142978,-3.57178387271232,-4.015650961661312,-0.5530134500270417,-2.645881005659073,-4.5576208981375395,-4.491485721118986,-5.10671883826549,-5.207965403056923,-2.4276840739932974,-2.5657340542567915,-3.111683838715813,-5.884551831246092,-4.34757697594234,-4.0900667845423415,-2.6552019913871994,-2.629394459370107,-3.5069853146486447,-1.025078242847611,-3.150599387628487,-4.052434045296081,-1.8366620294192986
VSA_EState2,-9.402227424374905,-7.592607987022242,-4.8398624431684745,-3.845240401903699,-4.669695615854679,-5.418377302863506,-7.934704290964637,-4.718891301064723,-8.75098900305311,-7.216061573482785,2.1801848423884964,5.976230488870731,-5.444362071373444,-7.23393983497339,8.813591301918702,-6.647887471245213,-2.8979595114254675,-6.28838936244564,-9.455423824683955,11.853257817570293,-7.140563282694815,-6.892437391033013,-3.3944298456929274,-6.739596332914399,2.0592754276099576,-3.6500997718920916,-12.703238050161698,4.58759750732935,5.344063404257385,-6.720224040859939,-7.913645754392669,-1.5156041006699397,-6.724751251616185,-11.09048883540063,-6.293817110999513,-8.0127252197208,-10.077890977493404,-6.082502846452973,-5.992694216450987,-5.004482864847002,-9.78536407818449,-10.45793234245383,-9.301423578550402,-6.154382637102803,-6.81778560664138,-7.525794480902783,-0.9682263970149023,-6.965505121595671,-7.9786041432126815,-3.937020968369683
VSA_EState3,-11.568604363582674,-11.26845727458423,-6.27784570009139,-5.307205070506948,-6.573165514567115,-7.64958620357521,-9.410574751991632,-6.5923866679651,-11.219063339226482,-9.683719272017463,5.024728284477913,7.964576327913491,-7.479501678813879,-8.66318051344804,12.72108499864682,-7.531738833930246,-4.782036187553801,-8.123670691605573,-10.85876510737431,13.57625423002248,-7.022676090900352,-8.050715122023174,-4.374027695419497,-7.764553451088503,10.749881731509056,-3.914466604954148,-12.242288697219008,5.618777863622017,7.776652923650716,-7.665522867627152,-9.345312850968867,-2.7078309023955036,-8.607319128434188,-13.289977536204912,-8.210246545838556,-9.5606580599186,-11.937462924876554,-7.430673510860176,-6.246712691717797,-8.502243666390818,-12.821942514868757,-12.719721604863986,-10.978657095270702,-7.134711721887756,-7.961004383684098,-7.873248474984907,-1.2697027194616708,-7.481987598902414,-10.501654863547014,-5.250390510960243
VSA_EState4,-2.472893358786964,-3.0177597255697046,-1.62144810231136,-1.3619443616904656,-1.2300925735323853,-1.7374637954471206,-2.5410619791017033,-1.3994670232193716,-2.780395997002663,-2.3107622531414505,0.7502651173473421,1.8006089766397642,-1.8335691888867283,-1.9672806449673863,3.483281572686985,-2.0377134229454676,-1.006454181893133,-1.963552853067649,-2.582130244269401,3.6344674517168847,-1.9446911203602382,-1.8091075228021707,-1.286340679120321,-1.4365962762954854,4.428836125933009,-1.3794610068357989,-3.9086023208064042,0.5083098180382299,1.2027163010139583,-1.7520421191286817,-2.353343319638323,-0.6618806945175172,-2.459554234610086,-3.799858087914584,-1.9381074713267463,-2.638809071199977,-2.833370510135905,-2.071134634517884,-1.6035920367377678,-2.430712082273408,-3.4838953289437278,-3.1509787588967137,-2.7886361892136042,-1.9989776496918188,-2.4861827580148,-1.7147031702336313,-0.29193524453663355,-1.7341481667218352,-2.9389027830723213,-1.4542464184889452
VSA_EState5,-2.2065094192796146,-2.5578726804889578,-2.057388107595409,-1.5998921329843099,-1.5516694838082417,-1.948407454745378,-2.2733315363569857,-1.6179445892096065,-2.649502344693043,-2.1494637496735285,1.3236463194690284,2.0427001953627966,-1.5921219494021015,-1.8335513656004905,2.8226369730326284,-1.8521921683208544,-1.0140498216161933,-1.959633817505289,-2.8742309961483974,3.0384646228644168,-1.5917483737967448,-1.997227103710024,-1.141092623962571,-1.8330794590728567,5.4614687044528205,-1.1310326287828656,-3.3982050910668535,0.9161075237373106,2.092287354022506,-1.8766637539117563,-2.56123182099057,-0.7346930847924019,-2.2712671283244084,-3.4997760626395498,-2.0909844990341537,-2.6006085124442198,-3.8497179215471133,-2.340241233171812,-1.5189694318451523,-2.8112332620673373,-3.7287466408796406,-3.208457200549698,-3.05970556993865,-1.7053516215472269,-1.545795306816796,-1.8017372019275064,-0.5990193692201271,-1.495362211646204,-2.8439931773099407,-1.6102312720638448
VSA_EState6,-4.762422970403519,-5.138557854071476,-2.9238039238119615,-2.8716448573900957,-2.572553596987934,-4.437742998210235,-4.299677031779803,-3.3909210256193374,-5.003159713186493,-4.2891879970074065,2.085885491169408,4.242243494697477,-3.7693356979476658,-4.574587623621501,6.8819010373577925,-3.4810013354650398,-1.8227586776946487,-4.146025340032861,-3.7812511347627535,5.150777200572227,-2.4897792519100643,-3.6564291074196227,-2.245938635900315,-3.657842507261859,17.47396989946732,-2.2621213360245043,-5.95111777519323,1.0268932597159073,3.5246831051381746,-3.22904478582414,-4.686487808220768,-1.1146509587229156,-4.0876034153885765,-6.159096121830834,-4.309742604456265,-5.058090580258485,-6.516502337390777,-4.037572886237938,-2.0906643914693297,-4.278600125529567,-6.283149794226965,-7.006019374689437,-5.415117479776256,-3.5195283107191297,-2.8549036489491613,-3.8189269157375625,-1.4495769852127722,-3.605775882816554,-4.799552390341467,-2.3542524816508497
VSA_EState7,-3.8772938138425,-3.9164768441170317,-2.636366358824588,-2.6770888964428723,-2.1476952767561657,-3.7607156987591597,-3.427504825050001,-2.5547921655963814,-4.446379459579207,-3.7628836928622236,1.7614943646653265,3.2971602012827264,-3.7649376582193534,-3.635021065635424,5.469243650206086,-2.9452493748130406,-1.7374388106398206,-3.4881234423509353,-3.771713116419822,4.7129308445485,-2.690109206841037,-2.8610153654628787,-2.058451357840143,-2.5400800521615476,7.159017801179735,-1.648925170658711,-5.183031083784627,0.052984604053577584,2.2064940869203595,-2.8284050074519103,-4.346496311389135,-0.8905136702376277,-2.701602652934654,-5.310031714766979,-3.547869761795481,-3.990168932004493,-4.518421335636998,-3.5454383401750076,-1.7390067327918406,-3.4387109142266485,-5.364664730060714,-5.717247201193041,-4.854943193040848,-3.015889090375215,-2.5865379187486863,-2.86467961107917,-0.7593680669310053,-2.8662207396845876,-4.069736916356699,-1.7150422883363028
VSA_EState8,-2.7025047231626544,-3.0365033007787767,-1.9880624726944274,-1.8515906634203192,-1.7513990050124402,-2.400583349118411,-2.3365849920818844,-1.8432869466011739,-3.045776122295418,-2.4368396474131284,1.201773325270991,2.3609165857580647,-2.623689346240531,-2.745764424721185,3.9788827387449395,-2.726265360426449,-1.363175871521093,-2.550131488308719,-3.0506255686040373,3.453465157878371,-2.0053546764452594,-2.1874188998916857,-1.4999822918406267,-1.641229974656033,5.333180577496074,-1.5810952501251483,-3.776555527654318,0.5800259655069206,2.368850031533636,-2.3698430735450318,-3.215523679397298,-0.7351840628525392,-2.192293916893623,-3.1494507800827707,-2.860025289320594,-3.2957370122883023,-3.82609115714899,-2.6089606069812077,-1.6456027321274767,-2.972951787190674,-4.57145146909933,-4.0318428569892415,-3.347026956499088,-2.3568241312169236,-1.983681130764718,-2.2021060263082584,-0.663135127339187,-2.0398569849330315,-2.8326917827785834,-1.7320135548628768
