,tox21-ahr-p1,tox21-ap1-agonist-p1,tox21-ar-bla-antagonist-p1,tox21-ar-mda-kb2-luc-agonist-p3,tox21-ar-mda-kb2-luc-antagonist-p1,tox21-ar-mda-kb2-luc-antagonist-p2,tox21-are-bla-p1,tox21-aromatase-p1,tox21-car-agonist-p1,tox21-car-antagonist-p1,tox21-elg1-luc-agonist-p1,tox21-er-bla-antagonist-p1,tox21-er-luc-bg1-4e2-agonist-p4,tox21-er-luc-bg1-4e2-antagonist-p1,tox21-er-luc-bg1-4e2-antagonist-p2,tox21-erb-bla-antagonist-p1,tox21-erb-bla-p1,tox21-err-p1,tox21-esre-bla-p1,tox21-fxr-bla-agonist-p2,tox21-fxr-bla-antagonist-p1,tox21-gh3-tre-antagonist-p1,tox21-gr-hela-bla-antagonist-p1,tox21-h2ax-cho-p2,tox21-hdac-p1,tox21-hre-bla-agonist-p1,tox21-hse-bla-p1,tox21-mitotox-p1,tox21-nfkb-bla-agonist-p1,tox21-p53-bla-p1,tox21-pgc-err-p1,tox21-ppard-bla-agonist-p1,tox21-ppard-bla-antagonist-p1,tox21-pparg-bla-antagonist-p1,tox21-pr-bla-agonist-p1,tox21-pr-bla-antagonist-p1,tox21-rar-antagonist-p2,tox21-ror-cho-antagonist-p1,tox21-rxr-bla-agonist-p1,tox21-sbe-bla-agonist-p1,tox21-sbe-bla-antagonist-p1,tox21-shh-3t3-gli3-agonist-p1,tox21-shh-3t3-gli3-antagonist-p1,tox21-vdr-bla-agonist-p1,tox21-vdr-bla-antagonist-p1,tox21-dt40-p1_653,tox21-dt40-p1_100,tox21-dt40-p1_657,tox21-rt-viability-hepg2-p1,tox21-rt-viability-hek293-p1
MaxEStateIndex,9.48987265173487,0.01017327492059176,0.39126920461625814,-1.0667375669151924,-7.733872761187245,-4.421489840460921,-0.8895480853810008,2.6156700598169462,-6.4022761524820675,-0.06243985870340374,0.2329534886557355,0.121800023497002,-0.2002879940076444,-0.1556730610684143,0.21335679556848267,-0.027851699665325778,-0.02811126077628576,0.22602820454867875,-0.1534186630232686,0.06323147578359793,-0.22676248269896412,-3.217432201728712,-0.14347071919835452,-0.2422198980920895,0.07260547929411604,-11.173144326312988,-5.795455592326273,0.0014693381956059862,0.19081236203599716,-0.14062188468112133,-0.07566139726807858,-9.109134934272356,-0.061476380157489526,-0.10039411193993238,-0.0471882523022619,-9.220338176229642,-3.7940274643143233,0.5744617015144909,-1.1453818025873277,-0.16997967555596907,-0.1944723432164616,0.6164736676980649,0.25119077747674023,-8.26360963131779,-0.10100971120143684,-0.041469249157142604,-2.8028344314464113,-0.013729117625079076,-13.427824086530318,-13.511251027940284
MinEStateIndex,0.26441650423286045,0.010044947876061172,-0.2124524766504753,0.21393726066929197,0.3314974269804489,0.10101033421849524,-0.33341663634068175,-0.15111780010649487,0.043820380875588434,-0.015737061860841683,-0.22068426000536173,0.028270941037861413,0.3301862421235195,-0.05048564156127094,-0.019177009244801167,0.0515098458623938,-0.01110075430928391,0.19796332631122301,0.04343355395417051,0.12212555830942311,-0.03864617448032082,0.14077031375248428,0.05046499462655839,-0.19103447886059424,-0.019534532622747004,0.15366244724485523,-0.4032430476333437,-0.004041542866253278,0.04088163668927506,0.07027049703369276,0.05885453987258014,-0.11127847163647545,-0.04377181425611945,0.05012863531474214,0.009896631388561283,-0.06127366688117598,-0.24052220203088526,-0.081299208980865,0.09238769206780076,-0.06956122732088396,-0.2549460186340765,0.1351579972937495,0.028295021723968982,-0.17040883098295315,-0.0029242623334121633,-0.15703705619150407,-0.1735529095108732,-0.16138692801816468,-0.12182715258519485,0.06832524263236607
MaxAbsEStateIndex,-9.622146701389434,0.010240784085759179,-0.4566055181698725,0.7706143130663552,7.639520237397698,4.013010517505879,0.7499627089189874,-2.8940768077676817,6.039042107988743,-0.18487642822348072,-0.033445193992694404,0.09434351686146186,-0.1881737535374567,-0.21953017217747853,0.29338285219253885,-0.0266632021816855,-0.012969363024071109,-0.5982771098505997,-0.14771871487020188,0.006226762659409501,-0.15978145978757222,2.967434630384902,-0.15428530328884907,-0.21073806143432125,0.06556597564984559,10.876266250923813,5.529733050657899,0.0014923856786354024,0.18799948611118594,-0.0740423617986197,-0.08948270486654376,9.009413922590024,-0.07099994208004033,-0.0793342886989777,0.027355633147259504,9.24258162351903,3.0785199379164587,-0.7843832047758378,1.0054511351362756,-0.19088937443591647,-0.17230810566267452,-0.7894186215962798,-0.49346650854293717,8.115939166671819,-0.07740082243558627,-0.09200639097505983,2.78986638585295,-0.07089845985922137,13.002946421663605,13.152236174373073
MinAbsEStateIndex,0.26348087670319104,0.031417817335617146,0.4164927603085918,0.27304281744264297,0.1162043574937622,0.17344297453021854,0.5101590111330643,0.48344757858239834,0.16464726394198698,0.13063320470254772,-0.3732625545494997,-0.32199354011378145,0.24688111655543246,0.14392314393626834,-0.15368962413938847,0.21171809344616668,0.3373155582332774,0.26876277594340614,0.5602256354936997,-0.6856819639024628,0.17175198633406627,0.3452503912827183,0.37038642121178433,0.2850169229094715,-0.17822069858324843,0.3980977271307682,0.5684089450392174,-0.0034098932606698423,-0.20578605428126426,0.17871936547618758,0.1658654549518417,0.39605165354953703,0.45083466856558585,0.5321868069809309,0.17620769293524113,0.1492154736915063,0.3907422695100547,0.4401320842777038,0.24872583780503368,0.3774887760839811,0.16548006120531814,0.40512824450330037,0.2111250093127469,0.3723289710335184,0.2315076708049275,0.2094132950193472,0.14435217449608198,0.19508266909240912,0.07443761155368676,0.26226349044986363
qed,0.35316401130179065,0.005052444314345576,0.0533159630169267,0.10782752414884697,0.13090125576447684,0.17309240274251558,0.22339652257723158,0.15724549638525653,0.25759870288605474,0.16106193294828786,-0.4176259909545257,0.007828594301735128,0.09396109907599895,0.328749446802504,-0.4783284743288878,0.011857387442743107,-0.0673034725042694,0.07453504346498674,0.12260548580406425,-0.22671305812525971,0.2337970122572409,-0.0642814585035372,0.20840630317295214,-0.06664614305427095,-0.10647497680743298,0.18890892234673573,0.05669943743591672,0.0025905104845013694,-0.09794297892398063,0.1786147486281437,0.03697877907956742,0.09721499548920545,0.09694051952014647,0.16795271622811625,-0.13945710909401082,-0.18701206081268545,-0.06420095409252899,0.11287575878626954,0.026356348096144684,0.08773706507021577,0.028007500638042054,0.15285034921762072,0.056472069256667715,0.08510064055319408,0.1206521965546203,-0.20915181814707534,-0.2274271413228999,-0.13364450272892672,-0.11160638341437197,-0.22442833379133587
MolWt,8.880058409144256,-0.026246692127925797,-1.1442727748880361,-0.6332942518547522,-1.1482151739899724,0.6393251411607194,-0.31584340743820466,0.2832030595774161,0.8139255765953709,-0.41650121506057813,-0.1214752115734551,0.3650470048413839,-0.742526986606835,-0.2969889033181534,0.8029524585129866,-0.2012002635665679,-0.2173889282860693,-0.6924309805998754,-0.4735744023452336,0.6026765929539223,-0.6262168829957193,15.818052600428858,-0.2946272146056959,-0.6947041556876035,0.2818825392607933,0.4118562003864153,35.36416674936975,0.007985491502607092,0.17146839760905055,-0.46998646541079203,-0.1938046509565362,0.17647407635954698,-0.16600074186201064,-0.43435776131468945,-0.4686747717308318,-2.1314682002589262,12.06811177006568,-0.016055275704519548,0.5080468721700564,-0.5663195208203163,-0.5677980449051604,-0.12709497145520388,-0.9651688494025892,-1.5830256840226997,-0.5003492213088765,-0.3479577856519432,114.37898688019747,-0.16350223757549323,44.19874708579486,29.86426588185317
HeavyAtomMolWt,34.19947210130586,-0.026248327732937043,69.1738141941439,1.6459141434853348,10.092107622995302,7.759284565339067,1.4776932478493163,2.700481183579381,8.4120354084709,-0.4248567137019774,-1.1048326016697834,0.39759397407443825,-0.40419481360782455,-0.3315443984692,0.8097840269435898,-0.22611590038821103,-0.23616561751734663,-0.39181100651562445,-0.5354027412304556,0.6729907375137851,-0.7009409478780964,54.567328126508336,-0.3438625897360338,-0.7332236653039859,0.3006174172328848,3.969575344448083,61.563489718530704,0.008315833719556538,0.18881299089265396,-0.5279921125922079,-0.20689887691375702,8.678005559502719,-0.17354961206418776,-0.45632085555020857,-0.5593939639880113,5.833162141269461,20.182673048176593,2.0770582858536564,9.768410057239182,-0.6293563829737895,-0.6288509790821563,1.8748196439550429,4.329611733859891,109.22295389746427,-0.5358280636602714,-0.21869622289948434,29.997589607260036,-0.00880798702602735,102.8517514762188,87.05619313890463
ExactMolWt,-40.90626032287457,-0.026265589019145125,-69.23046399106045,-1.7699364387561964,-8.023751397297543,-6.750883852345719,-2.0725326120518672,-2.002943697148838,-5.971400814512414,-0.4765415029613568,0.7841899175243612,0.3914725482075205,-0.8094915801538565,-0.3099970852364451,0.818508803957823,-0.20747455221420416,-0.22559427069604282,-0.8675461523080413,-0.5065356817812627,0.6489845933461603,-0.6561531613112568,-71.48677308227349,-0.3192517476909935,-0.7616297561811676,0.28622301764675384,-3.2780629699152994,-96.82838195627538,0.007979713609764773,0.17520851212106223,-0.5186120518730609,-0.20276226172672426,-8.89527578618392,-0.17301569250740836,-0.4747466028182858,-0.4996327384657434,-6.117803351844045,-32.432593336775184,-1.527388419704072,-8.930790041998149,-0.5981936546379791,-0.6114517681996174,-0.4850430429613434,-1.6191878223125538,-111.54726280415073,-0.5506445399114858,-0.7029239730038578,-144.1832114273354,-0.5160417173936452,-156.92269373028978,-117.60127120365898
NumValenceElectrons,-19.36237674234128,-0.015145867244617625,1.135374280551721,-2.982871316130719,-6.211253255827032,-4.638852881507234,-3.5024455631557663,-1.892381875083072,-11.94307558976042,0.13219554389229343,-0.8201458803112975,-0.20838984541455696,0.27538269880113925,0.2021905091483231,-0.2540248698225056,0.05709922745257302,0.06456311370880037,0.21117659213440873,0.32011946727377905,-0.25018218221516453,0.18402289583846915,2.640278921774722,0.11831209022398817,0.27451740927122537,-0.08148255594206569,-14.007245664522728,-10.370741179769084,0.005385581068255974,-0.06265263112591277,0.29955957526209076,0.01909861382022127,-8.142558066781431,-0.010451086645654353,0.16339797881525459,0.44175419015398826,-0.36434681154914,-8.375313821719848,-2.741388463833368,-8.464719170589166,0.16260134222991424,0.18857716414130898,-2.352039125802872,-12.791972912615545,10.174544444261933,0.11233548524577684,-0.29590360808535976,-19.996446129611883,-0.41780428591835217,10.77268605460443,-0.4155082939029623
NumRadicalElectrons,0.03614916741920569,0.005507283645575895,-0.03346259343381413,0.07439144931660567,-0.016692573653661488,0.0929519967158419,0.09594111864743458,-0.03210141654535227,0.10160676602995525,0.24006361212283645,-0.023131121640292625,-0.22817652252694562,0.09573496472530121,0.04252244673629805,-0.10946942991214358,-0.02033994586013748,-0.06217523559661109,0.08142525690853135,0.1854470178352238,-0.10167921030973398,0.19927382823462392,-0.13814884305903588,0.16632713279547526,0.24573598844410363,-0.17778900820208807,0.06578901473725948,1.5888647153346211,-0.0005135229543547335,-0.10372133188297261,0.011724990549278157,0.12357020925100028,0.129665487495814,0.08058449165176235,0.3323738086370389,0.09113634712076389,0.12593326522330195,0.13300170104656817,0.3293176206653431,0.10615044058551049,0.14650164136986707,0.19274716437905287,-7.601820337817882e-05,0.048857528960584234,0.10868426368192761,0.08053818715324502,-0.024538490994286368,-0.04788371190016633,-0.04227313444074378,0.025854491120977565,0.017641248101184146
MaxPartialCharge,-11.56042689224982,-8.132989401646525e-05,-14.057982553833693,-1.5716422141034732,-5.496836873507667,-7.239545434525083,-2.3619768789537523,-3.9363339487434037,-8.722423886875983,-0.23803224605143433,3.3942811778228164,0.2160114313769611,-0.20502291589432536,-0.013541836578104201,-0.005798051294236877,-0.03323341984732447,-0.04488868194403433,-1.077634692340524,-0.1367052930670357,0.17804960629173838,-0.22035426398099645,-30.820514250236634,-0.1489310367263087,-0.25772656622690876,0.09457062483752199,-8.314941674178467,-15.505008530025165,0.0012880119105005334,0.035413923861327544,-0.219692518853189,-0.024848330771092157,-4.403102458515132,0.04779384689069537,-0.14134171129665646,-0.18039168855840684,-8.340281634878975,-20.39603452120467,-1.504642593266117,-5.479584937182271,-0.2757878711113539,-0.17855575626404027,-2.0969246775507266,-3.023884917757681,-2.5375144864507617,-0.18666616963214122,-0.8782241539916544,-8.847442644743515,-1.3397540894333255,-10.64314770707075,-5.5879165318087605
MinPartialCharge,6.844924684586012,0.05321155624323475,8.368191200066908,1.120652648372923,3.4960203369276637,4.401593177091548,1.3767796080381418,2.5951217224096186,5.293020761418634,0.06088543018380551,-2.4507074231023442,-0.3239405942997349,0.1665423487621524,0.26543837004633114,-0.22986431463443036,0.2011465311228323,0.11982733746311222,0.7472414316776468,-0.0068512857214043914,-0.10269283698330922,0.05383649446120812,17.62861505894143,0.14062322253085605,0.24475329717629987,-0.18716578660895303,4.751045673836984,9.045182519941223,-0.004715093826625071,-0.118690788368957,0.28079670361138953,0.10316420871673704,2.436940017966944,0.22099021249300427,0.1931860669597632,0.32445996345376465,5.147084879992757,12.343579763393764,0.8352392400942013,3.126656567864784,-0.04523905679103267,0.25379070470468296,1.1744518055405808,1.8422189330037457,1.5608354436798595,0.16516360267337948,0.6612968945682267,5.062301510866206,0.9217464760387617,6.011420555030643,3.49394097580099
MaxAbsPartialCharge,10.64878106886587,-0.04274770767245196,12.578295697275232,1.5033185778851934,5.166806652694776,6.650783276000261,1.7443826256426163,3.7529944875656978,8.072868632156949,0.001968554861748177,-3.283724930982929,0.5349082459562758,0.028840956776618593,-0.037858517726509965,0.08686805398377184,-0.2205890281235384,-0.19145492177935566,0.9221383154023582,-0.21816032086793483,0.2708638334885583,-0.28113000260312954,27.88654110857465,-0.40508041116610005,-0.15282993697797784,0.19157271346006072,7.174674308888815,13.516641215758227,0.002695113345784837,0.2264235715249503,-0.13743710883197977,-0.16228613714624704,3.3238449545178907,-0.19666498516603345,-0.3448215943693136,-0.16565634868716517,7.457618235153358,18.38715505086719,1.2757051330382585,4.482657348839683,-0.21167316655839316,-0.07664514899550096,1.745893227754822,2.609460250608576,1.9446210162513176,-0.2867387957774681,0.9048584265928284,7.960712591045649,1.101843226087976,9.374073811528122,5.0461180686624445
MinAbsPartialCharge,6.6500317466429,0.015043832291754414,8.025682279510804,1.3282527789874525,3.376785629376453,4.409398338981537,1.6505159743862508,2.3464558940967652,5.246921509432725,0.3427662165231197,-2.2831666467671683,-0.715096636868168,0.5937897395553023,0.13699942675113716,-0.2634801697187631,0.20552468983811556,0.16034294994251694,1.05521578295994,0.3550583344383406,-0.30414119103644477,0.32154538565362956,17.496224215037856,0.5255176898736392,0.29244839438680076,0.04870635259012337,4.729032800416477,9.17498599383317,0.002493177704430273,-0.23646391409957201,0.3203183694482442,0.22329353318575523,2.701193934263656,0.2118595084209253,0.3443669094854228,0.32953990618937884,5.098246554928416,12.275507458009148,0.8994553169461225,3.2509990407725176,0.47555252486065136,0.11392068389775467,1.4689083446506686,1.7991947523882916,1.6222802232850557,0.3966775505310865,0.7105323984891727,4.959122316138544,0.9987061869640071,6.488052956190341,3.6409842177943967
FpDensityMorgan1,0.578823671666843,0.04936043811848223,-0.5185709902489047,-0.8106662932575763,0.5817121206701604,-0.6062828587384973,-0.4186939016140595,0.17874419587080637,0.15323362081006425,0.0037912247602472737,-0.7017908873136945,-0.6926681466335438,-0.32623081291356304,0.36302628623391436,-0.4392260075560803,0.14118681793772908,0.15784895574547897,0.19331111289753466,0.38518594588133004,0.13084706708155988,-0.14466493436178143,0.0008139013386639696,0.5545228077617936,0.4968397777878498,-0.23903830944327722,-0.026398976440714792,-0.8600940637188724,-0.012531815921856796,-0.20225025143049374,0.37487194797888046,0.04046793824850342,0.5910554119242396,0.07816718378070202,0.2281568134733931,0.39474883220396745,-0.036724028049261455,1.08176789732427,-0.369095887763563,-0.06647138730802271,0.6860971457351053,0.6506202791778097,0.2416166460959962,-0.09965242200297755,-0.7605028004241556,0.46930981644864606,-0.05682984217559074,-0.3355307575589551,-0.31580326521716684,-0.7009446349856586,0.33648544672655717
FpDensityMorgan2,0.23234164982111857,0.047736487770575056,1.973945506078531,2.189963663465802,0.3961887771328786,1.7450201301279793,1.4386789363461823,0.660793385594538,0.7014222783210653,0.2721572472207922,0.21816532379351866,-0.052005379250654675,2.005123876013624,0.16741158237415285,-0.01824467851012417,0.10280647902569164,0.13943783584475627,0.09452762638812331,0.47087475874304097,-0.6129335544291616,0.1493210489799194,0.918606532473651,0.3205617062252112,0.3236313038045817,-0.064557202778056,1.1318622405067738,2.4459193207030188,-0.009746683113040498,-0.1489189833669731,0.23791357832768217,0.09357858120670996,0.17276402534228527,0.14213024768829954,0.2574623700137579,-0.15211795920426707,0.22135968256080502,0.19488902149863951,1.507222356151593,1.4785768261719827,0.23444510564974128,0.0562537690650048,0.15799282663214123,0.5767711073276812,2.694789889645957,0.5106408117275315,0.8315461399947175,1.3741714165757812,1.099335095938878,1.15224114802688,0.010988482674393832
FpDensityMorgan3,-0.5922904674644922,0.03609948118247629,-1.3454795527160117,-1.1485462396063917,-0.51220361087623,-0.7160544644771267,-0.9090355426273825,-0.6421478369474916,-0.5403068284277732,-0.0849920156370535,0.10523084018712259,0.41864205041075914,-1.344218778906667,-0.4005236025990673,0.20013449430957359,-0.17017609586824833,-0.20005008939770663,0.11176527942803866,-0.5393580004850868,0.15222402713193497,0.14284272043206786,-0.8316414465094623,-0.5219669813314463,-0.7047039608968648,0.06086333299186951,-0.7604027245506669,-1.4139226028269922,-0.005107241579207777,0.04971095681216224,-0.32453046690452486,0.09088631823552348,-0.5116707645508789,-0.03501463297236395,-0.23889688949153187,-0.13859791331485732,-0.07117508661538073,-0.5319630885080524,-0.9692429432240903,-1.294544669891122,-0.4252717143381074,-0.3936682235693284,-0.06276440527753029,-0.1321711934731361,-1.7957387242273348,-0.6850499249145741,-0.6679943567335651,-0.9751205662184133,-0.7384858406823742,-0.25111601535920935,0.03215425475488856
BCUT2D_MWHI,-0.07816481145321726,-0.0017405303103126698,0.055812697665169206,0.007015551378902194,-0.06362156123296696,-0.06783459186819225,0.24071471819826623,0.19861705448212896,-0.0403726667727233,0.25999959648303894,0.024738435957558678,-0.14980104052637372,0.19709827417925682,0.1038806654052147,-0.15080463813640863,0.17953052256811503,0.22599282478361127,0.1808867805132624,0.14459202523147074,-0.2643818529106864,0.32096907237364625,0.11480919637946478,0.09592147798655076,0.20050020402954022,-0.14962628373552866,0.11586215208115448,0.19216772041214203,0.0044660896834926465,-0.16715309109058996,0.11191136139309801,0.09388881921207537,0.23463884923486894,0.1416188256951203,0.14360728911471127,0.30390080175281486,0.2572237711173999,0.3415702321308671,-0.029636862449320085,0.2103546276971596,0.13761779370233548,0.10438130508961978,0.09981147248116086,0.1310030050872241,0.012187969133400083,0.2557800711939791,0.11747589803845832,-0.07031778173895241,-0.08570659557544749,-0.3013193296394474,-0.06144824593254513
BCUT2D_MWLOW,0.6032943524503087,0.03467596267172465,0.30020758492660327,0.39955839224100653,0.5896733204156828,0.2896940560445745,0.13969767124610094,0.10318918066233951,1.5747514674681122,0.25534564982628466,-0.39909145970590343,-0.3662378278838863,0.36025141620399825,0.4742248688517362,-0.27165008727948864,0.16141031717999219,0.15742605696940884,0.10900770553129167,0.4415537583394159,-0.17026614951309332,0.34862345413960893,0.5860357438858929,0.9694550952654462,-0.04402698537548383,-0.12003550735879209,0.9496733839310599,0.9952157688219522,-0.0016942407944334184,-0.13218247134476346,0.8145393147209217,0.10921415744564336,0.7774393176024262,0.11494879193293664,0.6579988837146128,0.11647520715076648,0.45891995381961703,0.19182320742496844,0.11939864172818145,0.20533791959235992,0.08684217888163198,0.24538387684893403,0.2939138241877028,0.9763893577856764,0.5417122982325918,0.15417133299621735,-0.10866990207655879,0.5460008966522854,-0.08614167108587634,-0.03632589725913619,1.47737610900664
BCUT2D_CHGHI,0.059959297697021775,-0.0189172003356796,0.3276904042687198,0.30000906197228716,0.2570482532833892,0.3561007532818634,0.45302858901228116,0.09833374147236071,0.3531209466734544,0.17856758009011317,-0.14140730618664973,-0.22330421639652903,0.19725735745862247,0.1845115683015081,-0.31467714784065437,0.24111540778706395,0.33573324494655704,0.29835998828268223,0.188586756890244,-0.3056817700525779,0.514478159891813,0.38885346322572345,0.30273919430136587,0.1407930560004563,-0.01067454237739213,0.5549162018916213,0.25655392998351856,0.004747027318538942,-0.017209318022585237,0.23229624674174007,0.21416982513536512,0.05374976390195205,0.18921208174551984,0.2771510685360384,0.26049285896084917,0.14977025926835277,0.5872862802356514,0.018167069439999524,0.5314495565483565,0.39960845941804357,0.24328958572202644,0.15612149042719184,0.042633642968460256,0.2907116899302588,0.419225029230985,0.1580272076818272,0.036591798673193475,-0.07395664063673132,0.5119937719725,0.3385430244338251
BCUT2D_CHGLO,0.6597686017342929,0.0256663094840189,-0.00915102040266434,0.21877633946511874,0.04180976218311452,0.353987292699589,0.01277918147899382,0.16597808660452876,0.1614753245961416,-0.012260635889876985,-0.10449930400839592,-0.5396076353849608,0.23649257764683165,0.30367804587189234,-0.3870758273195828,0.19354528518608213,0.2087848442029653,0.3002108013151977,0.02283180284652052,-0.021738045247880214,-0.006613063987382224,0.19557935197734555,0.41161506020802724,0.16647324643418837,0.03980987772353418,0.06605553394100945,-6.137605616775663e-05,-0.0019741093953260925,-0.11523037661069184,0.05855349535892966,0.18222211064281227,-0.16961705136669375,0.06386132687093175,0.13387981538683588,0.05669675206248691,-0.06962940248297242,0.13360483063720102,0.04843595182637238,0.15520314158730433,-0.10098875477585065,-0.10938100505065379,0.02206440746105522,-0.0846357918590207,-0.17327110363883366,0.005073146171114684,-0.005893744548880581,0.06866389807884347,0.0037355532303414204,-0.06552108405058465,-0.1938993643758524
BCUT2D_LOGPHI,-0.32559265404441773,-0.03684470863712365,-0.31916748310695214,-0.33040287292239595,-0.479100673491701,-0.46182597318246393,-0.16200052520583738,0.06776093002521098,-0.1558456999863309,-0.20426359332521601,0.2965469933877045,0.09985876971524893,-0.3080324714528459,-0.49496805653660886,0.4248342287293514,-0.1429408786089971,-0.06629544049721325,-0.1447001478644278,-0.2322596568175419,0.32981255031545215,-0.408677931069435,-0.35274697165425983,-0.14797466317484953,-0.25721188251428373,0.19606295432868862,-0.08823450222766023,0.01948283058725501,0.013197998113658314,0.06535209555583263,-0.21446818014336402,4.90503669521694e-06,-0.0755403626777455,-0.15210736456528895,0.0906807231700435,-0.24971368300385607,0.025732708928993417,-0.2675789271536558,0.19811673889259482,-0.33435019649448394,-0.19979812623840054,-0.2592818795752114,-0.2305666008315042,-0.10957318668755538,0.011813693044594613,-0.6528204541385465,-0.3450528463559476,-0.0840638562926968,-0.021889362281506224,-0.21864577303744862,-0.24698923955361832
BCUT2D_LOGPLOW,0.4846520529671128,0.03120591881585839,0.3812714326877767,0.4361774207843289,0.48846588543986263,0.3013122619723134,0.6200277030643659,0.3624229496457866,0.5458547360978048,0.4290320797172232,-0.10393870364492139,0.016397387372567886,0.31273859097795337,-0.007272892268322641,-0.10957217523856186,0.15587872846329912,0.19906353750351213,0.43878361960145945,0.07002711877653567,-0.2614520607951417,0.4156067388845899,0.41793177092547595,0.2735964205456573,0.35014374352011507,-0.21028491391361215,0.4844775352984049,0.23550404563692384,0.0007118028932354892,-0.0809213232057949,0.1537502417789812,0.27509020018294783,0.3940410684145195,0.0854577321507785,0.22512116289000422,0.21388190106344931,0.3405072562207658,0.74710211994719,0.291525271108064,0.2572618037924002,0.42223329152760186,0.3285300191061944,0.3770491943116759,0.44250156697535126,0.3734327202091114,0.3048743444722663,0.44842635445871654,0.3037920783750355,0.40095848954584656,0.7739607875929886,0.5634534770139994
BCUT2D_MRHI,0.20323307362640652,-0.001789032692354344,-0.27455700684286305,-0.20521316102906373,0.002459534999680567,0.00991282010446091,-0.38433900062260873,-0.18267455043364134,0.019994368386219822,-0.1450719044219444,-0.08395315669402446,0.3332818372070139,-0.13659137324959833,0.16684205665061486,0.0568029395816071,-0.29828806032974514,-0.3085492376174596,-0.15469990934758612,-0.2103576719269242,0.37722177093449155,-0.3353881690662316,-0.13570548362470033,-0.24696284028674742,-0.2509873575002534,0.040636196859406684,-0.19306331037979033,-0.551358127879414,0.0064654267446555705,0.08160964470749117,-0.30323648508150225,-0.24167443033613076,-0.49777191871757404,-0.3297106156650071,-0.3429263687726738,-0.35413845863826715,-0.2589863787353593,-0.3746162223281883,-0.1474832119277975,-0.5515474586404476,-0.33243549996395033,-0.13998451977621804,-0.0765789609384233,-0.08775978524967948,-0.28128364390701155,-0.4124689963446632,-0.270740165479056,-0.10620379798037438,-0.10771453596912202,-0.0742182441405572,-0.13819807499447234
BCUT2D_MRLOW,-0.017079806730228537,-0.0018599590981108354,-0.15268311689676445,0.11551038229250163,0.17820935978940344,0.09445044997880704,-0.09529428733539021,-0.13574231490837324,-0.1916260012472232,-0.02882333781776734,-0.026990476748487525,0.09365173372492998,0.039903865188760504,0.09727297496998187,0.10020674719839624,0.10092519718107473,0.019518809798505673,0.01855506695634547,-0.17956109510982798,-0.05855661424179465,0.042333594638459225,-0.048299596476793966,-0.10797202869485671,-0.2612064187243338,0.053492319130776046,-0.25745601485481967,-0.045876307689813746,-0.0010268176258593827,-0.029471369882381634,0.0027638012391690498,0.054324511400407643,-0.12248275088592313,-0.024999915616975555,-0.013931941844406204,-0.06684144460175835,-0.1980943214078887,-0.41072622696244826,-0.11788737395871832,-0.17729802098951808,0.05292761825264616,-0.21817411355846714,0.13894016331722198,-0.01763364565012441,-0.1490670238618567,0.05926226093902741,0.11884978029971417,0.10791293233091215,-0.0024293363993852022,-0.12664948233300485,-0.2418256454137074
BalabanJ,-0.01922267221351807,0.032586953605473964,0.20233527976556656,0.29864025346815265,0.19793622665862148,0.49926015384198785,0.28479699979527556,0.2122351230686023,0.2374767473577718,0.32296915872204907,-0.023801001405657492,-0.31267788726455165,0.35877318043308476,0.15329251214798742,-0.12042000742621907,0.3139149916601719,0.2971275942188914,0.4356365184949276,0.18893339732214742,-0.47301597649394506,0.41112713014503316,0.3489254389573892,0.18189455943193555,0.4982028182094757,-0.04449574731465444,0.3089264001307713,0.2004250135632672,-7.041089407299003e-05,-0.2590845925172447,0.2298001899063134,0.16732314798342596,0.5355383363946429,0.26681737710122794,0.16829230559783254,0.5661527469427082,0.453695011254758,0.4710494118332749,0.19540438978552852,0.29675904370532047,0.2983011280291511,0.6855862184163436,0.2077671958474125,-0.027872776805601407,0.2526240450354381,0.3242673963300915,0.30034169146886697,0.3317035337085648,0.24085683330181495,0.4957530882088624,0.45984456877710944
BertzCT,-3.5149618140386116,-0.008851714280184513,-1.1248470263172212,-2.8606361365216575,-2.6845403442788656,-5.02526923887739,-0.41681410080882547,-2.3695986304613568,-2.6838387912981694,-1.3675237853045208,1.5935424103872422,0.5732610380781843,-3.5933617168190977,-0.7665251518833394,1.27580097609333,-0.22907496843045008,-0.15059355208987435,-2.0457365869429864,-0.9022052584283345,0.2620815126006629,-0.38510426599348563,-2.296748354567291,-0.5755820328476081,-0.46874694699239455,0.14805025049250825,-0.6443818255363228,-1.685353181472734,0.00758867456512976,0.09485914519079237,-0.6315386180950731,-0.22536635477520217,-0.21496556736792585,-0.10467907102483781,-0.597110652657535,-0.961055997521055,-1.7725880230200717,-3.3710876018313845,-2.5333814453664076,-0.3446559169542275,-0.8608502488371609,-1.0568599325229624,-3.0718103941820893,-2.907968594621183,-1.7485025411003006,-0.36833801451305676,-0.9141701009756568,-1.8946545294335884,-0.7636875118983021,-1.761759239221513,-2.0401883279584077
Chi0,2.0780896080895874,-0.015867390435248773,3.3067347906200477,4.802708753768888,9.938492224399528,10.085444648503172,5.136644812386153,1.586398948671979,12.660998900235278,0.13910016522215285,-3.6362016159416424,-0.12728285633349812,1.2791258135684167,0.1777947220475311,-0.362782067483045,0.027375386375778517,0.022431048694680933,1.4149634564389029,0.11726970963954948,-0.10325542062133247,0.10383676649496115,11.414434165576615,0.029351376970775663,0.09355328567878998,-0.0768144891758414,11.757740060616756,13.849866760314958,0.006049701859740245,-0.013905852193474042,0.3144490178229887,0.060679753867777436,15.35392301635418,0.011432269276144904,0.11775602662628132,0.3169373329658288,14.259283354595388,3.9572705529456176,2.3189594080471894,6.697116602334595,0.11510802715665978,0.18976718421435065,1.5375808675475304,15.513028073648954,7.376009182761149,0.1508187863813969,1.6840127554117352,11.725817306723497,1.6979735551070472,10.708027835498767,-3.0741972282537624
Chi0n,15.255555899963069,-0.01809557803972458,21.94508697944009,3.059202893802824,7.788271071574367,9.036903943524475,2.9743908197721365,7.194844328390225,10.696586198130825,0.1956724342516678,-6.983799973614411,-0.13846393987538913,1.4624282664789217,0.18632431329111548,-0.10027959783642869,0.09016449621572589,0.058233708458875724,2.1828121289743834,0.3635573024461447,-0.2955000048113127,0.15634827072576193,14.871950766303447,0.45076814379071617,0.12048593378798803,-0.03840564114087146,11.436826350575302,25.161099634053667,0.0056831273856697345,-0.04798212239619257,0.38169177410414623,0.08608137789192077,11.727606692546656,0.015634698805562494,0.2899404219037676,0.5099573749042678,4.868705009218951,11.392833580635177,5.335114383205606,11.683012553703227,0.2692639703068176,0.11352709530745683,6.182897522846254,5.907447132408822,15.850639200784377,0.25893789023023195,2.4986629110473637,10.672109197269245,2.0610178417877525,10.172208411131363,33.83403117255907
Chi0v,-12.414456496141945,-0.02972138148942214,-14.223617584982057,-4.749573881457957,-8.50486772807494,-10.364952744444702,-6.4373666229991615,-5.5909933979604345,-14.171601932636644,-0.5336244303193934,6.248833577865234,0.4439810164580896,-2.1365597276752823,-0.4578021718891417,0.6104905154330241,-0.12971853405218567,-0.1233775219641645,-1.4475892367426288,-0.21836558497492284,0.2605923233222666,-0.4146641617696256,-11.134700687510636,-0.06610591878616771,-0.35836352669920335,0.15926898276916712,-10.267001363478187,-14.545673963565537,0.0072238277701666175,0.1315509932079444,-0.45417957969746603,-0.0973372537678236,-11.69182048465031,-0.12036136826052318,-0.523603100034994,-0.2906004757208533,-6.072233250293468,-10.64475301538,-5.121146849004851,-12.251815152809657,-0.19650362351272557,-0.4372795033209533,-4.618772554414516,-10.538553554264421,-9.924253626785074,-0.5045097023806074,-1.051982214952894,-10.842735753890189,-0.422426649741612,0.5252526177439947,-19.648402623120436
Chi1,-2.3970555001380003,-0.015206088300880195,2.5026353004789645,0.921510487998836,1.3804346283856475,-3.4996870616474585,2.9155236469981203,-1.9801670896358605,-1.2324735612801534,0.05757110894970037,-0.014562186769107177,-0.03898837699762572,0.8995994486794222,-0.05496611008775975,-0.40242806702491035,-0.05067044350134767,-0.045576242867977346,0.2041004837155445,0.1125516845669752,0.109462075467224,-0.010035070242151488,-3.639111872384295,-0.14158465033803208,0.025473487008100645,-0.0450378732194979,-0.6375055933991393,5.503696548485883,0.006855283182179239,0.0006779862159645342,0.030456351201645495,-0.051477693312770294,-2.543298039939693,-0.016444056214451,-0.03771522830992476,0.007075888736312122,2.393553190263524,10.531942117954586,-0.4201996504341933,-1.178371297597515,0.03563126252798555,0.16723433311916105,1.9389538396581005,-1.2195886080747267,-5.892045691733594,0.15319502747071123,0.2840815128406246,-17.88967435364795,-0.3093043571111806,7.408244513408554,-7.080974304848927
Chi1n,-2.3683448258661177,-0.019612685675560976,-6.585762346431678,-2.675403961409416,-1.7879678708680062,4.560415103240894,-1.9038494135603337,-6.0176876070097505,-4.079045189511316,-0.15402304368991251,1.7055985025371767,0.1714553310405679,-2.0655328868406793,-0.15523662874452376,-0.03855042594337091,-0.050001173517729244,-0.04231009268893565,-1.973219820287303,0.040583993903043736,0.10200698283258958,0.13815863892642893,-4.075283719724069,-0.21767934680993534,-0.16494383420180012,0.015048427553294247,-0.24624733075880503,-1.0186292250116915,0.006105331000684728,0.03097170581850331,-0.16126940526316502,-0.05925111602807878,-2.6024055472866126,-0.03857675393566522,-0.17208363189331874,-0.07107702628095659,-4.300990474162404,-12.942002974210402,-1.940248406065056,-4.861512805024033,0.10033658082075747,0.12594979465862366,-1.2376238662697245,-1.4552037570469418,1.234667584518876,0.14495644474162175,-1.236111021083445,3.403681719375971,-1.74563267210676,-0.4724260402639048,-2.6740921905028983
Chi1v,1.7091568573000822,-0.03571201075366781,2.5425600986118626,0.7154221020979334,0.7468059891312768,0.9435907538760644,1.1948010136123812,0.6822746521084833,2.1233324076041447,0.15529411336354673,0.28174926182610904,0.3187272228314818,1.4882341504014935,-0.5364221202104361,-0.34719330728519565,-0.05484504522496076,-0.10864910606247599,0.23388949529912204,-0.17982804831642077,0.0747459968669446,0.06993686290411817,0.32136880320508987,0.03973255024905243,-0.052092983793006246,0.07580312969004455,0.15925738784613558,1.4118654413615421,0.010071089380099832,0.10103085149163564,-0.5366588173868139,-0.18931735967169688,1.1426835071885153,0.002976956552257628,-0.38886717502336593,-0.09948072624508021,1.7486202802572721,1.7380180853443397,0.6837588519644229,1.4656544598177437,0.39328879616085916,0.2812768697795323,-0.5626783041100338,1.0101913767721196,1.6917144508550388,0.21342924096436441,-0.8518911749314783,-0.09017316887770639,-0.814029100992499,-0.03821121331503202,3.441161276796406
Chi2n,1.9023185369978408,-0.02414257495783557,0.19065347251886314,1.3349510042993127,0.6650967007017468,1.4722362146692851,1.0203183403394094,-0.2703545740929973,-0.10293457325691818,0.4553070443195229,0.05276249868877881,-0.6517572054223475,1.8685598877065006,0.7358609775949039,-0.41137137426360876,0.06540491630273411,0.06758711709005993,1.6980393732438215,0.27501890139173235,-0.49083150191277825,-0.1457242234908542,-0.6172712345160564,0.15518153306412225,0.3862431992706995,0.006711829626164568,-0.45012677187160127,0.8638614254934555,0.004682774317726971,-0.09010057110462685,0.18740433171645635,0.26483429540391434,-0.6218194421950463,0.03418105989138236,0.2599041937550219,0.6174744867107872,0.276477192621204,0.005234720435859411,0.40776231457006057,-0.032730157619853144,0.2081313484940144,0.12258570334304865,-0.25928347960053927,0.6768133457939726,0.4990186754850219,0.0018912694052575828,2.1186733841094907,-0.7283994440325362,0.7130736087895387,-0.0667765913805798,1.5609697948120682
Chi2v,-1.1478909438766036,-0.04901541130938732,-0.6611154036295919,-0.035088909938800934,0.11272756904381125,-0.33694804341567447,-0.7341784106172544,-0.4072578845921258,-0.3328627449643195,0.06409077647695685,0.296388807364209,-0.0632229981520561,-1.1151291789973998,0.14487144801109877,0.19259460831016503,0.026960074429226776,-0.014924455131123714,-0.41259736555633375,0.19585013518109345,0.09506230282509234,0.008619903870182462,-0.36926884131341253,-0.215450152378226,-0.20272813389181654,-0.014194470041330367,-0.6255588986250249,-0.4941366060846308,0.011176682169711639,0.03680715824989791,-0.03510002958402437,0.16029760941712715,-0.028493396807688986,0.057981865213773444,0.055077544542805265,0.16333958964121958,-0.6310205306593305,-0.057653491446926296,-0.6028199431347836,-0.36970692190284965,-0.4128427873540807,-0.29586053210681096,0.7766898073363728,-0.01001054944787683,-0.21719174889002657,0.09657710474743202,0.10253709341077523,-0.14319181136362363,-0.009986937562687564,0.7753376961111229,-0.8955195235632726
Chi3n,1.8717421041247957,-0.022483910434729804,0.8964541304260545,2.40777849619522,1.8126205667165411,1.0198256997140929,-0.31876477003613185,0.44665305726416216,0.9766384860630095,0.20754175857652543,-2.65373231520023,0.077577664327699,0.7917120516263939,-0.517813433821396,0.019378856158772127,0.03370091927344953,-0.1408332871732519,0.4120509147668799,-0.1811651756553185,0.42618614324090875,-0.2693130414614759,0.7291042181396103,-0.05019688439121441,0.1981692055935625,0.05746031261624759,-1.5027232319933435,-0.5297344441277788,0.003971794730129151,0.0528785200745755,-0.01763982695916199,-0.09203671477179932,-0.31178076102010427,-0.057259582916589814,0.1632486387215379,-0.38312772053919397,0.38227621790547234,0.8429955640758685,0.6924920958057892,0.1520921280350031,-0.09424196110538362,0.296090838792252,1.9124113056567738,2.412116266703017,0.030627068324018677,0.2723672848483118,0.4652947856839295,-0.38252436592866795,0.6463294760761387,-0.8236449470553222,0.5249540888676826
Chi3v,-1.899579277878615,-0.059241064647856806,-1.6477218580161865,-1.1713354900587167,-1.357625060845995,-1.075556066215788,-0.897140393935634,-0.8247673639493917,-0.8394676710860192,-0.4426364190201737,1.0160626849143182,0.8919691689379974,-0.45450161782380205,-0.5470521579475757,0.8233930913458574,-0.2769106290544875,-0.3190095886211391,-0.5718680992545851,-0.7225149868162367,0.5029145681290729,-0.4480070109274247,-0.6849934877505675,-0.665972006217913,-0.3602709430862243,0.14739199707467124,-0.1712576949143009,-0.6515484547732976,0.012538294540915693,0.21474120938511979,-0.5712204587945556,-0.4024899362963586,-0.6657590939535092,-0.21269624965482523,-0.5736358598047646,-0.12208064598397127,-0.24968722713704228,-1.608157220418019,-0.8685229585988808,-0.28563424254987047,-0.7006572624544358,-0.656246484066874,-1.3217656730758436,-1.5967086100171892,-1.1978972499485632,-0.8338650751295558,-0.6762895597178712,-0.25830502777980596,-0.6243985602023274,-0.7984222183433396,0.03326294884143475
Chi4n,-1.2987825086019098,-0.02171974792397015,-1.278536760490278,-1.494024018284679,-1.2544459829392836,-0.44548551011938053,-0.7729043745710769,-0.8440496102903027,-0.7061260160961812,-0.36940085936549577,1.3361951932679466,0.16824548844888165,-0.3171633688267089,-0.7367009439053744,0.05015930699849575,-0.07562248589644782,-0.10804484725276069,-0.6117561258555451,-0.6859451777215035,0.6170021963828923,-0.45563785521492217,0.3064912358964183,-0.012081386540878867,0.23516673500734117,0.05608554534833634,-1.2823580777224841,-1.4783666661978505,0.003243451560065181,0.16178379138644533,-0.4913211752989479,-0.06621611776914751,-0.5977615996034762,-0.1325086112897877,-0.48056904334912287,-0.821002528076107,-1.1862489911447442,-0.6743264336859303,-0.1600333577685643,-0.10736540086288754,-0.45436822871791915,-0.3314078254825978,-1.036045709178928,-1.2090059368534716,-0.19083853638357642,-0.24862806837179613,-0.04948667512621721,0.5972975244750108,-0.05358756027165482,-0.8094338996123109,0.1699986683953251
Chi4v,1.4503703892093396,-0.045463152099542395,1.071440217119444,0.42937411217934374,0.4891948742008536,0.2531270692146335,0.49202523948899,0.6642639115107357,0.3732739170189055,0.1542471238345527,-0.4038867286753449,-0.23444846506850964,0.32134299061576843,0.4202588226555044,-0.5330687514250616,0.04407344357799518,0.023560537744275294,0.3543332899355425,0.12288981277257838,-0.23383765239183943,0.22823018380279728,0.5211575480896161,0.55366392866252,0.38787531960392,0.15177526296557423,0.4081038248801756,0.41785011200175004,0.011086022934857439,0.07043353110848952,0.3972859832492982,0.05865724189621267,0.31512805688405265,-0.014991775067073224,0.26128754958689876,-0.0773314014340705,0.13443294766474193,0.8867134591348114,0.5379975999118237,-0.05419825692136097,0.11839341482647799,0.1704206875679867,0.567828974697577,0.6802881523546658,0.6223005691539252,0.32982607860772517,0.335785271346442,0.08729186381592843,0.35291175290154564,0.609002617641575,-0.13469077430547224
HallKierAlpha,3.6394155658986795,-0.012806740289315123,3.937981910569212,1.3260527161787976,2.350983431461433,0.9196429089481791,2.3772994897678545,1.799433003196201,-1.3809455437047005,0.6228955360191493,-3.876562734469661,-0.657003363796342,1.476266729833995,0.4612200399962652,-0.5519685745660182,0.23979785500060116,0.11233979424611597,2.2093053491937384,0.5915113826808559,-0.7779042330298455,0.5622447205494921,1.7312117178272994,0.8630318182489273,0.5719709905843415,0.017050775751173763,2.2687074345737046,-0.09405365097988758,-0.00675907269268818,-0.0267830438515459,0.9238841419508494,0.07847258885695049,0.5451244463305276,0.13834671595945314,0.63291322292419,0.6429288349058904,1.64603009191552,2.7276542527266763,2.006657310334583,1.5166889680041382,0.4378866429376376,0.7249068983042232,1.6067622866934397,0.5042683265575044,0.36556251902789516,0.9028548764818737,1.561402705928098,1.4306719176424492,1.6608952498724179,-0.8775041159966782,1.3391315310526384
Ipc,6.75640860114,0.014493699967202834,0.10376022010400798,-0.044397197666471926,0.3982528566709765,0.24640011573671183,0.0003171715098387716,0.1028762345864322,0.17454634399773833,0.2649466575843154,-0.12320431052912321,-0.00012388875746495543,3.278981733451485e-05,0.06600969991721886,-6.962998771229623e-06,0.00024146002212886995,0.0004127730559815483,-0.0027581004832125202,1.4977902149588083e-05,-0.0007369705657254208,6.311989481161355e-05,13.67373154029299,0.028131624824833563,1.564880479423412e-05,1.758826409716978e-05,0.1336374757354236,-0.12719943371575024,-0.0016062042415940887,-0.004011073997459808,0.0007381001888570046,-0.048816789663567235,-0.18323063126284328,-3.151134840895215e-06,0.11449680581256985,0.21029044019946783,0.10332423643218604,0.0053087383286661615,0.00016744837917436882,0.08018747675001034,4.646732195057943e-05,1.5694439813045147e-05,0.00014138829636748423,0.0004852440138620965,-0.1435697805230429,0.07964528965786725,0.09236800111364558,0.00034587770093592467,0.10591519057199632,1.0051307903341054,-4.823826120981478
Kappa1,-0.3021019937195094,-0.023469817881338773,-0.07192312220596446,0.19998965652422673,0.009282331318566345,0.5014035157051897,0.01908295015502754,-0.3396527504451037,-0.36658664732035856,0.03257176114158256,0.15686275059733243,-0.04472882948350122,0.2882923847937396,0.14948274481882287,0.03492352395490776,0.02125746007167557,5.060584856554435e-05,0.0455340572060043,-0.030059205340945867,-0.07654141545362972,0.16239244680826737,-0.779838302768801,-0.13217899780897815,-0.19807664174462453,-0.04028386163760151,0.16672130560774504,-1.588802735771542,0.004912616655813845,0.058704225520297186,-0.3696504645595463,-0.1132501227930552,-0.17731913963258195,-0.14981846333159343,0.04719658856215845,-0.11074478619391807,-0.09270323447841786,-0.3942986385927693,0.14118284803864214,-0.17811766886025068,-0.20869122480487853,-0.04560331341031519,-0.33421553821974864,0.15048628447225945,-1.343317733508345,0.05100060686003051,-0.634103731291127,-0.2046057122184059,-0.8466721682484065,-1.1484176417814427,-1.575052260869578
Kappa2,9.443038456962762,0.001326995303689764,0.0803936222133481,0.22982104383835095,6.358372800109479,0.07587328091761676,1.496065500838412,1.7226024597554654,11.812246773676863,0.07327845950863068,0.23125670174345253,-0.05382888249977939,0.04180219498323098,0.05534875657847767,0.015211624743856353,0.03276649271869734,0.027224746095798388,0.3437007615949816,0.06407377070515985,-0.07597281261452989,0.03147799167516887,15.972801634001737,0.06579965117825691,0.07057584093238514,-0.023448151189275936,2.6318015957936174,63.18455399311548,-0.0001949103180604433,-0.02243364915943703,0.27490439734922845,0.03704009731099738,12.559102385222346,0.03606283262678296,0.0807315812941842,0.15904761958491054,-0.052378391104981145,31.78063479161558,1.696828366808963,4.0441528900074015,0.044579067486160605,0.058139339168934295,0.20626291980285255,0.04528866602685002,61.79247144917023,0.05937618926536433,0.287955877610213,-0.05247655408272439,0.3041398986539373,57.98178764432832,56.577916016278344
Kappa3,0.05394498699891077,0.0008272111266090801,0.03727827938532804,0.067609384089078,-0.06115346125404561,7.056658373442724,0.0556433559959526,0.04269567530712169,0.06038563622941013,-0.12368039779656927,-0.03922008130782123,-0.027868695406688414,0.05938216991406089,0.0749087416271307,-0.028523898559574035,0.01742448337202167,0.003228757464827137,0.05092991460642936,-0.3226263037845268,0.054106538139283365,0.04023847345643722,9.103455426702014,0.04019381025038413,0.04067604071202845,-0.003425340661903535,-0.07201208821108145,0.07190274590703934,-0.00038083692700866694,0.23449936176857925,0.0324345352884231,0.01808875589031346,0.07288537474968361,0.01678031708594224,0.03624555037684966,0.1515037103874655,0.004983674703991534,0.08681710096128127,-0.19267955350287305,0.045100016992480875,0.05512919888980435,-0.11813822574779397,1.6182039759762898,0.06447130122959897,0.3686983255377777,-0.09218119232334479,-0.02863558264713171,-0.020071544324659876,-1.1587672997983345,34.963666710295115,0.27512982543011966
LabuteASA,3.80069979996586,-0.022908598740187573,-5.86081688280414,-0.14939596361538116,0.7927353184556064,-2.709725727315106,0.4220037983007908,0.5169328239031056,1.7059093262499823,0.01611423566590682,0.9590518809736591,-0.009665974708187837,-0.012962064156380374,-0.038464051684860494,-0.15464942554316044,-0.0006205344872939621,-0.007336499614249609,-0.12300907054212358,-0.011901149560750748,-0.11060955362033355,0.14971394316820838,17.23846581962625,0.043470825732112486,0.07762425260295884,-0.029615841224401866,0.8578819334554261,-18.177070272999025,0.006596258951766332,0.012455860901871701,0.06394088273226453,-0.009278775953953456,1.8515479623193092,-0.0133632855723832,0.13880046154510403,-0.02767982993700147,0.28622521396113687,-1.717237107981791,-0.21935182865576022,1.3296504799817777,0.12060326809979485,0.10354450373406625,0.47639239755084145,1.1226925432211214,-7.370060090086059,0.04950861697674519,-0.23327112250631413,20.59401791941843,-0.03810358446040458,-4.440175868713912,-14.416318409037812
PEOE_VSA1,-0.7593988150553407,0.007426393645122039,1.3045392688252382,0.07354508852010379,0.17295387504000376,-0.1673191558532434,0.39395544250072245,-0.38612292102535256,-0.23035882396392282,0.1028530911820577,0.22649125725165276,-0.06514638829381662,0.2733676239342909,-0.24352097718732338,-0.14479564092079117,0.05392211977393431,0.15259137555825153,0.26190315954943594,0.3765425165194269,-0.35796957131276463,0.4638213531154857,-0.6739906459252926,0.20567262724980748,0.5411983298241725,0.07578780297726884,0.5361312089099602,1.4981851099007806,-0.004783208145169321,0.00030500215427579523,0.2765367228117596,0.22614464640175969,1.9875627149503288,0.18658127607952127,0.32426736220709557,0.1415606323655067,0.4638381819888178,-0.15644993518599046,-0.17773565358083857,0.8721296728807708,0.34823883141671175,0.05862079912742914,-0.6393513696025148,-0.050709719841166324,1.6680962110455595,0.5611417302922463,0.3815749361762582,-0.15647921664270145,0.5079468244138283,1.2598104226062339,1.6356509045668588
PEOE_VSA10,-0.5442720431560639,-0.015806896122897336,0.328871356935428,0.021357075136425843,-0.24734665165076297,-0.12399697280790102,0.07589523731532759,0.25649853361559494,0.21124502145032195,-0.12717496464259595,0.3564361085934084,0.003906542215903667,-0.18171864951912833,-0.2335246733032742,-0.07250467886141486,-0.031777891255230895,-0.11048403141555321,-0.06390139900305934,-0.3399727586577601,0.006012375172693256,-0.37257257031474833,-0.784254077591953,-0.2619071185278592,-0.16354026851066428,0.3777470767178064,0.005761865543868122,1.0825731729565105,0.0014988232155591311,0.05026296548320352,-0.30109743599167027,-0.10088973558827025,-0.06604654208154431,-0.10182342878239234,-0.18441666997653738,-0.2819046860740353,-0.026423397976796298,-0.24472306506173624,-0.38313029179450536,0.3580191367825753,-0.24673929343503387,-0.4249664868393753,0.18300698159468431,0.16523623594735307,0.4676096450863112,-0.14663784656548795,-0.11733442024237872,-0.8075918463237848,0.03518377908995297,0.19282006444633465,0.714968753891774
PEOE_VSA11,-0.3394461346815006,0.021629265503116155,0.3113229620427018,0.06213601167284303,-0.017093251144540796,0.11139218367541312,0.12820014435390759,0.22540744327217463,0.2551311196864899,0.027843611918666328,0.22147831735325843,0.030770936896935004,-0.11288628169845209,-0.06989409519501572,0.10531107461699492,0.02572260789853229,0.04268064080400129,0.04656721005124402,-0.19075446244584388,-0.09617463168202504,0.009969813001350318,-0.40830719549660077,-0.03449613225679424,0.10208338097184574,0.055769483060531304,0.17656856723824252,0.9197035810748583,-0.0018642307965467814,-0.03730555500360893,-0.03716220316891978,0.0006152735676665228,0.22802808824555826,0.015455735733799904,0.002797266726158011,0.034762237714756145,0.1518076977324299,0.32200442125768597,0.02188496456439946,0.3447915679319212,0.022948290488504015,0.00572770865096171,0.22029544800841608,0.11783501484050614,0.33473352034262915,0.038132619454971574,-0.024850872752915407,-0.32159342121134643,0.11577477734623097,0.3916084964092373,0.5192983295507311
PEOE_VSA12,-0.14082448247437157,0.0026764959053682813,0.05316367967410128,0.050337355533002434,0.09434309223099747,0.029381361350634738,0.16238651888815975,0.20239550531504333,0.24330486458823816,-0.08511898705070559,0.18791082825932728,0.031146126745719798,-0.025869423330084473,-0.03922763172027203,0.030450499614310896,-0.02535956441212771,-0.018679640725794415,0.05292463953024378,-0.06717335651113647,-0.036005575208183815,-0.09767232936984427,-0.32892129569581763,-0.08092874577733424,-0.033561572027426496,0.013667954572122215,-0.03478759600008949,0.5960244510448593,-0.0017906970022202654,0.13462230041000506,-0.05025764407097343,0.020153477190777983,-0.022280481403150157,0.015797151990880883,-0.06579195178252503,-0.009285366525164743,0.042111766288435507,0.0040938203618402745,-0.07794860875890097,0.15257859484237607,0.06254867896213022,-0.08894105650920693,0.0876997057262314,0.10839317111322187,0.18332465807141646,-0.1300701114978591,0.003725623979819949,-0.3495508234074101,0.09128497807246584,0.24366900971941013,0.30955864760985524
PEOE_VSA13,-0.12764156309976393,0.00921070490219504,0.19071098043286097,0.04463007442608817,-0.030614753491534384,0.035588873985200824,0.10823878853684814,0.11141551168964094,0.147915261980958,-0.02214178561877581,0.07085279157847091,0.1774099261119352,0.018541072586810793,-0.14719499162534244,0.09018856000793025,-0.03712855221731037,-0.04531286541388576,0.10218789566069361,0.014813110712007053,-0.08750457609668137,-0.04930308169149131,-0.16911841463270988,-0.02738570854018554,-0.044384707678951356,0.07781048269923949,-0.12433310490056523,0.3120855603276532,0.0022276872770817776,0.01953876115469159,0.026060383601605397,0.03818606741663502,0.06702411426182303,0.0314986220260296,0.01501702303193974,-0.008888160875948332,0.08558354498371298,-0.06735536832111451,-0.028762586615719843,0.13419470476434903,-0.10620622100706494,-0.15463829453312353,0.09423003259125065,0.2052127766767552,0.30864009796245634,0.047846190762517796,0.08154601629845662,-0.18269983237012283,0.07900314234266705,0.13150840311866788,0.4667595730334793
PEOE_VSA14,-0.7350249577132714,-0.05025081564056617,0.7246302328243728,-0.09143071888351827,-0.13958009177407055,-0.11462373599720256,0.06271745844921738,0.10251088769532349,0.44157441825453164,-0.07886796506265527,0.6160459331267423,0.2110221627945198,-0.13286048480159848,-0.2699418681251431,-0.030533047070285615,-0.14530584787836318,-0.15374471563597844,-0.12351721328426148,-0.07549878430084467,0.20853347716188642,-0.2750932972231954,-1.2527698526197155,-0.2228351912548738,-0.16988663157357933,0.15316005242444625,0.015688335211495808,1.801303065698042,0.006467513213815697,0.1969542826230707,-0.22420008291336474,-0.16026112283482707,0.48510547083075295,-0.2216615924623008,-0.18395939493928076,-0.33809005470681747,0.034884015183546474,-0.010360660972527374,-0.2710385326788516,0.5762675584979539,-0.05433898992143314,-0.2632731932440795,-0.02565115909188641,0.3289553897443733,1.21379986117244,-0.14660332329322992,-0.11153042563879341,-1.064908202562237,-0.14011649179929225,0.7831249040648687,1.332819297936292
PEOE_VSA2,-0.36759560343874653,0.03229072503139069,0.5282517457385428,0.01790077649445389,0.10538477343067486,0.13048103439669897,0.10118338164732815,-0.3251285307207329,0.1063624677780769,-0.010506266669271335,0.42247229402810443,-0.5033065517138866,0.009178011672310919,0.02280967285188872,-0.07387545518015042,0.10575893453196224,0.15524496780870167,-0.02183856241220861,0.3670616763527595,-0.34165910400414234,0.2159070313110788,-0.47738867367291093,0.4219915762462391,0.07480274019581644,0.04180929607148242,0.24725744876636507,1.2184428178005868,0.00019466332194624535,-0.09311976420661455,0.13072987944613174,0.10248043591848664,0.8362954115509921,0.21721163681378736,0.2985412807102552,0.20028248956339753,0.38966715043250677,0.041652094129396675,-0.3089000057716674,0.4277248782916975,0.3144961311308833,0.071267288127572,-0.33761310628071856,-0.12547862914510188,0.8220443024528279,0.18098806435952125,-0.033131707658993294,-0.33988219541616893,-0.054505880212719654,1.0408912395914625,0.625644113490958
PEOE_VSA3,-0.5284045418357098,0.016438766748105266,0.2470120150055955,-0.09511475001452416,-0.21512848527859543,-0.08583904555200463,0.12683027684771772,-0.36314025261424554,0.015882632337753593,-0.0924172049056791,0.47401056114284673,0.17202282200576216,0.01703089883778773,-0.011285815432667037,0.1381543890048108,0.04622022850710897,-0.002672416383947779,-0.12054976864693462,-0.12804300109751388,-0.03171351704697925,0.177758708362581,-0.4578667219378547,-0.12959181561444444,0.07151058567644729,-0.016970689645721557,-0.12525156694093253,0.5054015636880641,-0.002801958507719685,-0.22238947268069836,-0.03514498101496982,0.0017269021294095818,0.3270506196225723,-0.034943153071242884,0.019943807263156393,0.07104040677143078,0.2224961957509779,-0.0499605052346869,-0.21693081048607032,0.10626956034487994,-2.7471004497305098e-05,0.19977466206878977,-0.3503102913467922,0.07868709775155583,0.4464366901723607,-0.02595661552590726,-0.1400567180792029,-0.3937946244387209,-0.1869765119694057,0.3486364942988279,0.39291008049670073
PEOE_VSA4,-0.27636079949461273,0.003319058986919145,0.17474252372723734,-0.0072486036222190785,-0.1777030895843979,-0.15565655328991862,0.2168014412332261,-0.06727324718986574,0.22192424504461059,-0.10020771754900812,0.12266219738029356,0.24380572858908137,0.038541892519425185,-0.06967694395808383,0.3500941990517112,0.04110992075945118,0.07303898238490567,-0.050309780090385,-0.05084578591943698,0.12089802843971176,-0.10631785883770219,-0.3499233567095089,-0.20663231206668428,0.3234490130591813,-0.13083202544440062,0.09560575513020723,0.63851837190249,0.005032675208672123,-0.011882690346678618,-0.10479751845317692,0.0038364408288604946,0.16954687545651476,-0.06360874002599308,-0.16032067873431574,-0.0737335666304949,0.25401475474716106,0.1442696612292252,0.18613610924288732,0.13641141462750547,-0.008841659917160084,-0.1237722807226234,-0.11907636574739228,0.08658114000865672,0.34081086313082526,-0.14871718641498602,0.011920213998687073,-0.2738165778361998,-0.032464190576768547,0.8331774496914662,0.44560469331601665
PEOE_VSA5,-0.27198731314862606,0.005225630227128881,0.4607625840197156,0.006856273006375689,0.008211240833746192,0.08637335547271659,0.14793879328924783,-0.009604224048778453,0.4432586003503424,0.12537590169592455,0.20945361765495923,-0.006171056681254491,0.05999558865735344,-0.12379470220597136,0.13927049992875537,0.046013736782195815,0.05287136583915601,0.000965390269264038,-0.07834394530849106,-0.07019021318651851,0.057088452058391755,-0.32486341521975465,0.05519023473179206,0.01756171245775218,0.09395781908480125,0.1493505949999053,1.028270271955542,-0.0017877359613424247,0.004237017070284577,0.00020305857175302103,0.02768662008680848,0.19301062671859173,0.01955966134695338,-0.011434204294030095,0.006250471598014539,0.2657019317681823,0.1646787159266349,0.18479373499808957,0.08090012381758564,0.10803248346992383,0.26355518987685755,0.2607373158129273,0.26011639708689577,0.6193443877256308,-0.08050217918759722,-0.06143035379458015,-0.3658008618963519,-0.019272989590416734,0.676054667218098,0.7448004375115944
PEOE_VSA6,-0.6028656319673025,-0.055424073043328304,1.2114541463805935,-0.2361762543452975,0.03458689996335786,-0.19091897890136966,0.06491867768501652,0.5480573228136343,0.9907229449381159,-0.013692866415937118,0.4258912213998172,0.10097636321586308,0.07110028069391865,0.2417321469057388,-0.13761826332618912,-0.13151474891083373,-0.05815552624433136,-0.19821073079417828,-0.14823800405778306,0.029474970752041908,0.08427763868612782,-1.5413266853428578,0.17862835429117518,-0.13547282009005304,-0.12489416963606652,0.4036380826630039,3.5125363564571654,0.009534334072736869,0.12249160758484312,0.03817313150225185,-0.08775833695900698,0.5422400296314251,-0.06782525246850865,-0.0008499768379964774,-0.0907367757387305,0.5048932884319851,0.19620457860082194,0.026570342162897567,0.6233706438113236,-0.3062981717766322,-0.0862638790776746,0.3885914191749421,0.4048184973745358,1.8743633593853994,-0.209996618739043,-0.23342178555750168,-1.7051091035491202,-0.018598566438967637,1.7161426257836812,2.3217260626798346
PEOE_VSA7,-0.8708817798129405,0.002499054613386233,0.9871163586402427,0.011550569462865248,-0.27938806578064707,0.010244118518635796,0.39473293846213703,0.6430218574965987,1.1349512134601452,0.1779292195656304,0.6483724133690494,-0.09306609866340405,0.12101995595834784,0.2508071625548711,-0.3946044492927201,0.03987632579246355,-0.006647710759416249,-0.008441664310180378,0.05025854817033388,-0.0020930632329610637,0.2799937516315038,-1.5034782360071115,-0.012256035387616687,0.10989600877137048,-0.2656686790377175,0.4265303326093691,3.501008533579258,0.006901776688298566,-0.05557263645945413,0.03233698685566744,0.13662677614493637,0.5972569282634641,0.046612631543620844,0.24741364177288566,0.1615726449403899,0.5628234421714244,0.6178960473600421,0.22960552300831055,0.6603861920334171,0.4453962791895378,0.4743622088411162,0.32068054584656214,0.5084543738964469,1.8337181699458858,0.05573369187632587,-0.43555941250797414,-1.8947557323052029,-0.28488733542374295,2.3400238538232574,2.0246109267666537
PEOE_VSA8,-0.46471063986555305,-0.0004832956575007908,0.6031101876390208,-0.0778230435261162,-0.058022149123660244,0.15062391070509468,0.25613522782337983,0.4256433918185545,0.5660083398841184,-0.0222467111795316,0.5049123857314151,-0.3433184390240314,-0.203990097674365,0.03242210789977165,0.08676127764087775,0.08079193985632352,0.05536744924270492,-0.07421427037850044,0.10557414195201247,-0.09255024842738392,0.15163983462858804,-0.7879786907331574,0.21122979218885926,0.020428057710913897,0.04221298444805842,0.22015385770783436,2.0332332813701424,0.0001813247818623513,-0.10860476940807744,0.3305218672453412,-0.08700103907240495,0.5118149863487809,-0.011069786732206214,0.18020580785815854,0.13289825087522913,0.2850302998828184,0.280192413720146,-0.05633212147747938,0.5398028132221495,0.06308817012386106,0.18326060516071316,0.2146975004117479,0.3327888137419141,1.089119432021117,0.20575497742906299,-0.17222291507547893,-1.0164269916383417,-0.09402799724818811,1.0117231336813421,1.023797422130337
PEOE_VSA9,-0.36537106669423275,0.020580765481336045,0.500755204254837,-0.03685549477480864,-0.1896478877598878,0.14191226885685948,0.16034541016541626,0.3016393032194775,0.41009228235535783,-0.056776179661398904,0.4587866809585709,0.09059826111501988,-0.33271377626380577,-0.17035443659696548,0.059928078711021175,0.1721201596289415,0.038317382074816365,-0.14002888469980154,0.01029184826935283,-0.22115025872070224,-0.0028925133352690267,-0.6382012611413455,-0.08977312043349181,-0.014618803256176515,-0.06165888691542357,0.14451664930572436,1.4557938338423313,0.002246958994711667,-0.14429107363284024,0.14632336859380507,-0.07042303746123867,0.3199386198363544,0.07169549458177482,0.09349754982643019,-0.023004421587145312,0.20019448013737548,0.27065531441539586,-0.07681312728024985,0.42879187533412544,0.04277271855380517,0.10549225257620826,0.34290306223248435,0.24618126535086685,0.8907332158956607,0.16096730485386007,-0.14573832636905432,-0.7969071437152406,-0.03222604059160374,0.6755777332940892,0.760464625035985
SMR_VSA1,-1.4883913941850495,-0.002484504060925284,-1.0597118356811994,0.00828437911583447,-0.7257350518221861,0.8166064787302981,-1.9548760875208604,-1.8715819430466867,-1.6348459902823804,-0.767426860406805,0.6222201578022434,0.7967847233497439,-0.5781822601899743,-0.4625503625753486,-0.2049116296306562,-0.20059311902305854,-0.2748414020449628,-1.0891821931474317,-1.0269082840540493,0.5382472791246774,-0.6311763170008294,-2.8016595948538634,-0.8585684855005272,-0.6746081885623958,0.09635546566951995,-1.4531394598458425,-0.16491312510970926,-0.0012548741678175758,0.3569946496069903,-0.7178579240082689,-0.26773261342178867,-1.4072413736507783,-0.30148580805556424,-0.8549780175234571,-0.4937573258084177,-0.6179832546340817,-1.221085659308131,-0.7714651163692181,-2.0194859580991587,-0.8157713722271509,-0.7232510080391272,-1.7915992838726524,-1.7315444666863005,-1.171091642860586,-0.6363894881707363,-0.4038375789298635,-1.4357337649534168,-0.5615435234097473,-0.6672492416815163,1.683044157066828
SMR_VSA10,-1.271260647572804,-0.017353206690890365,-0.8698057099594972,-0.42114468350982925,-0.5967965986322877,0.22883632911470353,-1.0847171372082085,-1.5101056077367583,-1.1839530527219477,-0.13868802036253558,0.2640490511255572,-0.6760436294936447,0.1173767201979535,-0.2767868413167815,0.2050017581517126,0.06744870706791264,0.17820862669434698,-0.4303589401455751,0.1664452239292056,-0.23801787348823367,0.29617328387577313,-1.558898695476945,0.07438923644385627,0.1543352196943258,0.0032670743037318114,-1.0190172101063408,0.09378205988584579,0.006256072305661571,-0.15814120260718806,0.5649789770495667,0.08187745239667082,-0.9671364896530684,0.20524085229396863,0.18077767956439716,0.16285151266893638,0.054566289596055646,-1.77756761627021,-0.49358392362526177,-1.3888128348738253,0.2386902766157314,0.24822046879731183,-0.5403689134943723,-0.6783454741231723,-0.42469176231713546,0.17021642806699183,-0.30283115037216246,-1.968325195185955,-0.5519513128819299,0.3667484379502572,0.5898660311874603
SMR_VSA2,-0.4242192638051645,-0.017296195977287914,-0.3117169092806024,-0.4020423651875652,-0.3186758883705417,-0.08007063218665937,0.04478915188409712,-0.21836627617130627,-0.2505902188550216,-0.21967261133174712,0.4112011424832053,0.5503188834443384,-0.029951208527652796,-0.5415642442591148,0.07151598531753928,-0.14408394349346013,-0.05392370292021855,-0.2583606702253937,-0.20622235741781322,0.18058238758249576,-0.36995744911887435,-0.8979692082091018,-0.2908087836161615,-0.3203427905165305,0.19074530180880891,0.10922165693793624,-0.1691188054796811,0.005010869806038827,0.020561716817883716,-0.2520686125220417,-0.24153908259317297,-0.4771491495236414,-0.08835620815931117,-0.29967889375361495,-0.5299758041819582,-0.24951224894597743,0.11992472903286308,0.21349007907740314,0.039919208278393924,0.08704357003252039,-0.07218021088534811,-0.016671457808387857,0.18459078465156273,0.008606496976678136,-0.1231058034793744,-0.24992003824867903,-0.6330442820619376,-0.2668290989665236,-0.5100459509369588,-0.4747093852202125
SMR_VSA3,-0.795236253000314,0.026517296522113813,0.2573960641169172,0.47567586697080666,0.07226705277331126,0.8330159445025386,0.3711030290951997,0.0002579411553827742,0.6731634506760837,0.08735828952692569,-0.19213653694748553,-0.31185135440459094,0.5405446516864585,0.06616865004172325,-0.24275202593086276,-0.14901372338345686,-0.10085982505941192,-0.30040042427281105,0.14555903135054524,0.2025041300453928,-0.14003596904111737,-0.5504432783138183,0.4924881394168498,0.11923522683321743,-0.2409068407257768,0.29822672422087887,1.6132062689997853,-0.006083122495772099,-0.03668231397857744,0.11231841662095622,-0.18356109739259177,0.7800032799437556,-0.07299389691145064,-0.16659099630563004,-0.34661183825324393,0.05513923216764202,1.0825605543695485,1.0050503021351773,0.8102870415090848,0.16963777211980774,0.24089297818848096,-0.765385005085417,-0.4782096971654322,0.8875956670423408,0.01569615902943923,0.12836031268856726,-0.227025778146577,0.20059015477755882,-0.2644698806110549,0.24899665423715214
SMR_VSA4,-0.3201165202077651,0.01421185501226851,0.5837049818008296,-0.41153216722368696,-0.2864069119590505,-0.5508222288163062,0.23966375147067132,-0.021165092946193346,0.7502122557357375,0.012132354292381348,0.5374067728315529,0.17705149333923537,-0.5718996497938691,-0.18206601668499636,0.3814107743412421,0.062237220829672896,0.11136211483939189,-0.2543129681753912,0.12954204125454072,-0.1401070143437264,0.1603392114078319,-0.46228520257462075,0.1690209039526856,0.1908545478793421,-0.16753198446937492,0.42585979378590594,1.5941095743809852,-0.004281504468226619,-0.03694435404835802,0.30849410586657616,-0.03091743103478517,0.7635516351777776,0.003454480374379853,0.05725289973403077,0.18312091041525103,0.3433819450758387,0.5312716482584536,-0.26420112669822676,0.7558115438299277,0.012956172013437888,-0.0462378012322026,-0.20833462722723925,0.2767105799481417,0.662259456228599,0.19648057444564834,-0.0815062991533094,-0.14514990462538685,0.027334647905657365,0.9370598617257996,0.37071583873904546
SMR_VSA5,-0.6289787660180095,-0.023865377440091297,2.366459908077855,-0.47275574044139634,-0.25703282531994254,-1.3263800008422724,1.233865736259614,1.9135403166320402,1.85680901206662,0.20505392642088055,1.3140728130495638,-0.03506622811524672,-0.207772305970391,0.31475438582404397,-0.03066709038241205,0.07997281572675476,0.07415760643740864,-0.08381978366072669,0.5661519640619714,-0.1752757799902924,0.14434671944239688,-0.5955836320603265,0.3323742388628666,0.13935861749967807,0.030138040987609093,1.6626603312246688,4.97548530107105,0.0009358932455964378,-0.05631222248244893,0.1760436872823021,0.12472406021679283,1.858468510601367,0.037111440711400746,0.27400720109204063,0.18062560632274136,0.5317058565543108,1.6562624017325018,0.23235505782371976,2.27136638084707,0.45360561489329604,0.4609458538628846,0.7743131419345226,1.148557981345958,3.203365054525485,0.043555373827686164,-0.2329268249087111,-1.1401147504643956,0.13607171635750487,3.0974385393670336,1.8868143665842798
SMR_VSA6,-0.9303159406233822,0.018544463392171744,0.6835866813047657,-0.471654322535291,-0.41394516981634816,-1.271263146990711,0.1957800121930912,0.017068052179555947,0.22618094315579107,-0.35628625939233916,1.0281207326587336,0.08650769403967147,0.09776946101121767,-0.20312127472934968,0.20664581592505757,0.0012624990991651297,0.023997408875464518,0.05019231923290703,0.12555053225984414,-0.017138852864160694,0.08207429813551127,-0.7931366858264877,-0.17116336227455653,0.3704273184771233,0.06582973469426333,0.29927363183348876,1.8582091440066093,-0.004373663656847189,-0.035246968356636044,-0.21390165135732253,-0.028385336533156624,0.6558246658259907,-0.13612245697850603,-0.03054139505998331,0.14650324173906856,-0.15464350291254736,0.2792984703572124,-0.05402690380305963,1.1919678138071947,0.32960780375209314,-0.004340759038410029,0.02933701012535771,0.05213214484964081,1.5149211107362965,-0.19487508918807836,-0.46335252529110565,-0.8212573081767965,-0.47310284605444836,0.7683133074486972,0.8156035534639945
SMR_VSA7,0.43527364144218705,-0.03531604121670554,2.0503193885786977,0.7717283765224352,1.135956752780009,1.100873414406906,1.3291172802369031,1.3982872145317198,2.12643234578214,0.5331362948987979,-0.43000568736688216,-0.12538948518741125,0.44351063698183846,0.20162440019588712,-0.45561511777514097,-0.03560449451743506,-0.10723784903134796,0.9579772412706936,-0.2635288166717467,-0.18845807872253884,0.3520001122214935,-0.6475140798528499,0.20503759122865048,0.08648058465607246,-0.0976104909188575,0.6866213901188193,3.3500587453998305,0.015046660691358174,0.06140369109546312,0.05650946207869363,0.019091874703859896,1.6173840394776406,0.038991507781312704,0.44546867163670645,-0.09290164014352806,1.367353191802041,0.5395525908977324,0.29078919776112494,1.4286262468068407,-0.07383286824603791,-0.077360713797133,1.4641666501954356,1.6950759359850227,2.5871124687534577,0.34617221640157825,0.33115890796570396,-1.0792209294322728,0.663040322336278,2.1125941869354485,2.689405211714072
SMR_VSA9,-0.3679920287372353,0.025021730156566682,-0.16091560969623706,0.10145831262801425,-0.12034068264867281,0.4501645111997162,0.15339467895551714,-0.36210141591979855,-0.10458969637373272,0.14662600764323408,-0.4743486700767278,-0.2450263347868959,0.02572204582514649,-0.0039490795340009445,0.027523135226141013,0.2511240180681557,0.2661355355762895,-0.02561373723688028,0.13492510274050765,-0.31266646138137044,0.1651790608309492,-0.33327773303381675,0.061067265749640956,0.16554165976533824,-0.049404260378340566,-0.07697625482102935,0.29357410647645676,0.011491742892670924,-0.27366048170838614,0.23895618031956894,0.09087115823933482,0.1535624846782291,0.21137666824176943,0.3416517892749701,0.07779347955402055,0.2085704446709613,-0.26778994011057095,-0.44256915481541864,-0.21366069134306967,0.0688370056767973,0.34868463171148484,-0.00061494514422825,-0.03179270570106636,0.0035926628652256736,0.28894116808194853,0.11782060312417801,-0.4520244055216983,0.11846904263439487,0.49313905809745634,0.5634124614719569
SlogP_VSA1,1.2436814617157752,0.006719396505717285,0.4537788282689161,0.3834664997137958,0.6229028242857418,0.9625549266921573,0.8880385000064429,0.608837853403578,2.2134296952400305,0.550264470618824,-1.0856801205623225,-0.2135473337196428,0.5803201555533596,0.3345764140116948,0.04850100495626418,0.12528179206572945,0.11052651295024751,0.7098413470813014,0.33274687961575666,-0.626157290132969,0.5504390819763352,0.5771882046962525,0.029290491740406363,0.4285435367339467,-0.2331522444905124,0.48409347656622936,0.932897577561661,-0.0018985032682133495,-0.06816649291786563,0.478086309704184,0.07505008247060814,0.4250626815604125,0.21741971096943702,0.5669999059678099,0.47253131857143843,0.6851002855519875,0.643868675402179,0.4338550154903851,0.392467671021641,0.4357548037014302,0.867520396750634,1.0925845335418132,1.3381374771316854,1.2616754447160992,0.27927056745303164,0.12374846138969933,-0.733830250826899,-0.06018639725351754,0.8604396611946894,1.0385147395781125
SlogP_VSA10,-0.33488689899754737,-0.013907706178612199,0.8285940990795347,-0.12384475796117798,-0.11219922067115705,0.0003552258217582211,0.7124379642366786,0.4364256500601018,0.1942929312422249,-0.4430894918791998,0.16263295164549818,0.12227124377962535,-0.5071222476667862,-0.6862006715524988,0.3352384404296158,-0.09645694261497909,-0.18793802018160524,-0.32960652943499474,-0.21973694679423283,0.16697096100405617,-0.19289870327154113,-0.8447233237476038,-0.31918756605086135,-0.15451037386236843,0.12221246115500095,0.5585727331180488,0.9946635974654321,0.013357172070106088,0.04434933536730515,-0.2140311903813966,-0.28755025856223354,1.0737341711903743,-0.03456104983364819,-0.13311358325252826,0.0017785559583801533,0.43489216859335666,0.13151861134166187,0.3625770761285673,1.229407255711838,-0.1951647123003678,-0.1266752361205302,0.03818397785019602,0.28225760732089894,1.1054957540817059,0.03635344352191884,-0.28708348054970456,-1.0064189269759967,-0.5212355775354728,1.0228247342931442,0.38351907160920606
SlogP_VSA11,-0.2776601461982076,0.021042621753152517,1.3868561378693176,-0.2800623145083602,0.019867135930517206,-0.7331046717415597,0.3601528618380458,0.6312995465507178,-0.10626987560824877,-0.042447912799257366,0.5273675080567738,-0.1029777750200876,-0.12595333574938086,-0.17741191192341405,-0.11115504604108253,0.23238134145862197,0.129884414804167,0.09658860240903523,0.3538781586172246,0.08479394211889386,0.37668487720874533,-0.33620452195048917,0.44022452285605745,0.02064882053456413,-0.14285979105312482,0.48086179098991677,1.592430833205464,0.007315231693510077,-0.013457585068963726,0.1841539606717439,0.08125169453310892,0.5875911927839264,0.11556275894079095,0.24334787199000482,0.4214011482841221,0.6601261155186517,0.6979414609240826,0.6283610567757167,0.9303792570693526,0.26548279420601795,0.14949185176484844,0.21273854089643385,0.11021604060746244,1.083459105194852,0.1970477665687453,-0.08174934319036568,-0.16213674052876095,-0.021147360160835436,0.48194564572604554,0.2793506168748045
SlogP_VSA12,-2.1241017616357496,-0.027649756809099063,-0.666236512397928,-0.4956066598491425,-0.7392390254588411,-0.80997491807474,-0.5408250961203465,-0.6324346220162534,-1.0371646053260846,-0.3004919675136504,1.0488875562056348,0.12364141767842922,0.02729552854955593,0.03638887433159829,-0.45208797771214565,0.053168798791979215,0.07690518175297952,-0.24535561097832492,0.3604691415297843,-0.12116811462157363,-0.16592263500567256,-1.8954007241043347,-0.03193953351024987,0.41165808192836906,-0.05403131892116566,-2.104788110777097,-0.18397163796629143,0.005017841826728983,0.05146270810983394,-0.21469031081621134,-0.021625324991829415,0.24275674719766785,-0.0461047409324155,-0.07629693155808669,0.06433508585287867,-0.09685863958598585,-1.6981176533375537,-0.9897471686985375,-0.14210185044218873,0.23129449117265666,-0.07374190102111437,-1.7203302920395263,-1.39662739733322,0.385901177472067,0.16923033059828996,0.4896460506338481,-0.5868882318966551,0.10138015646933149,-0.6999222689389415,1.4921769765908406
SlogP_VSA2,0.3629932566609195,0.01941357071227389,1.0683851182500734,-0.15369738735042188,0.13082070284383793,0.14195128551234643,0.5049562722532254,1.0003863214377162,2.4004121894728354,0.4703902248165611,0.3070924740402822,0.09965827419253669,-0.6715443981758209,-0.000770010161051276,-0.031713194080074635,0.015251262516207786,-0.014564036468953358,0.05917253838261416,0.014207459178719123,-0.227730583119193,0.14441460455551378,-0.9646643477758637,0.1980670609382682,0.16718746671590923,-0.06489243694154083,0.7048056816495472,2.9269321499685406,-0.008069040506818278,-0.062351200875779375,0.23522789504992403,0.07008713028278211,0.4242168084525257,0.05338480507091924,0.3477454180759521,0.01827550492198628,0.7442465272415726,1.0026170203615652,-0.4557072245319949,0.5479577101202158,-0.22643559022716173,0.31428455984665987,0.40334981729660935,0.8915153224908551,1.432639581659153,0.25652658766649844,0.10381465925025536,-0.4791869833557456,0.43945555827671007,3.409570274783682,1.91235522889577
SlogP_VSA3,-0.24608175586473893,-0.015337737707040769,0.533986554115413,-0.016289183965489958,-0.12572154181947232,0.1438702082651267,0.1686115891466915,-0.05282585164480954,0.5461805095590038,0.1325415712461256,0.31190678650021203,-0.08460482103455462,0.0247445981103107,-0.1145115097814233,0.14392981359741272,0.07290527238029093,0.11325966770746529,0.1078562437096388,-0.04384121391405989,-0.07810560169774919,0.20570704175635973,-0.16099577510704488,-0.07412683800601337,0.050846394880501494,0.08227362517708563,0.18508824764130985,1.1814854994250648,0.0012209906855658514,0.029348392272808558,0.0966607168575168,0.11446239881528118,0.4795983767315728,0.08191503260971968,0.04932579265330997,-0.07180396628106206,0.17257378099436868,0.22824028191569065,0.06254431397783582,0.4211969964495211,0.10505107641606039,0.12124442265863963,0.21636771408294178,0.4341653749675821,0.6522249634133648,0.014730974093594902,-0.06328958707187175,-0.36232496342758014,-0.08039039786045289,0.9189456189648113,0.8677627713197873
SlogP_VSA4,-0.1955925057946096,-0.006423639066205692,0.5772241295714995,0.3272128027698343,0.34487183796377785,0.3625078958247728,0.5670162945664049,0.41630939643201104,0.28204057924798204,0.2782068057028466,-0.1966051278766841,-0.3370318082645678,0.4836569537112787,0.3599400021803618,-0.32735426150907504,-0.010845144236646164,0.03005586822183123,0.158659285171412,0.1635371667977364,-0.1529510921418244,0.24949645277740068,-0.02209199729518131,0.13927792564703012,-0.07609991900940694,-0.1275858114983029,0.30822005132167085,1.0677376062093036,0.005490309912266781,-0.04401645686981037,0.0761482861278707,0.10225513445168267,0.2588729142710162,0.07875611014512598,0.08362837560441305,-0.09958836859150558,0.11562105822880869,0.10847121442296792,0.10892563072628308,0.21549249787719246,0.12970109468592253,0.18715939407672533,0.45290500734159317,0.30571782917789914,0.7304310820385651,0.1655835139303254,-0.10242109162224601,-0.4320440653556729,-0.021554885757647947,0.7039737126675797,0.6481008670427616
SlogP_VSA5,-1.8102525428056893,-0.0229579715099401,1.082292868234194,0.19647649869997083,-0.3547752807535172,-0.386815641232373,-0.27241195300317234,-0.34582051334847846,0.3805162953633361,-0.0673575916348483,1.3626588692863228,-0.12248367872295064,0.06254704845198099,-0.020064184472689123,-0.13376616244917,0.030133732737910417,-0.0031178364943291108,-0.32141039746978317,-0.27347957067801143,-0.28917644909563245,0.2811210820146611,-2.046589467636157,-0.12734404470129726,-0.4119058646930173,0.19058853276428342,0.2473860955462767,3.0890654985225185,0.0035171188213160834,0.07313702367729824,-0.33343241118307254,0.07617145909485667,0.9806087711833202,-0.045121675577548356,-0.2043072334021688,-0.02547181370739298,0.4808838692622364,-0.11740018150716602,-0.6459752711385106,0.5653527275578761,0.12845882535536746,-0.5579858369553043,0.1626386324477064,0.24367903091242676,1.6759326364644274,-0.16154970621545275,-0.6670494636887935,-2.1332109213709476,-0.35511771873659365,1.085786723093544,1.828742060757166
SlogP_VSA6,-0.9332318544494189,-0.02858237168409072,1.0890224896309162,-0.17473340317663583,-0.2047256243842831,0.14940813038367917,0.20918210905567355,0.146830702703143,-0.7055465464981598,-0.45161419597983066,0.33650461277050703,0.11167809759163141,0.2791551929978455,-0.10811867411396377,0.10248546327687798,-0.13417708220929334,-0.0783462280556082,-0.18535374649294128,-0.15224845654785069,0.5856821342100724,-0.38246542678499656,-1.1308121553021755,0.033259358758303624,0.14474367365406632,-0.09843566037481653,0.9648498284061242,3.325628558609046,0.014053629239345514,-0.017433278613929837,0.1235441471051627,-0.18801569042182115,0.553473072785006,-0.11569006586520948,0.017301904926337888,-0.31992021300832774,-0.1312685307823505,0.43881249929925886,1.0372342798462513,0.7673638797560413,-0.002325749444599277,0.1472546436395117,0.27044183262679233,0.11808986076909271,1.5418544247902874,-0.24950418814332895,-0.2514512906895715,-1.6944249917992136,-0.09851990018148679,1.1028714015126828,1.5803075978901133
SlogP_VSA7,-0.5936473349213911,-0.019967759569168138,-0.13156024951483963,-0.3011884505814961,-0.21204398045154518,-0.2525874981871797,-0.1583247963807177,-0.25935766232179125,-0.38495726301540406,-0.18863327734061586,0.20179677367683635,0.1479853881713473,-0.2531584425974741,-0.19545169259069992,-0.023733056279474123,-0.16362322225665651,-0.1249445652991906,-0.30955718871142457,0.038920471383027934,0.2125185717642786,-0.2648471941965797,-0.4148191709556855,-0.15677252949591483,-0.24398530965002027,-0.05493931280181812,-0.043521325709160334,0.47489753047161104,0.008020350419186776,0.058911931587176294,-0.07637859607718836,-0.10808504271818664,-0.1829059150641546,-0.15439516267688322,-0.2069611953229471,-0.20442934815746844,-0.18667815982996233,-0.21485961360342093,-0.04360450600141122,-0.05617099661219438,-0.053498228809446345,-0.12354649791789708,-0.10526212871981093,-0.09231143002882253,0.118382863912383,-0.21910347085237586,-0.13840517853287534,-0.26724333312339954,-0.05184241039936384,-0.21835826347058365,0.1290967595512466
SlogP_VSA8,-0.1758804447950035,-0.0016451062215692232,0.6198664435660506,-0.13191301333677763,0.07697977723650269,-0.03939589992850668,0.2463465079195572,0.3926903678021058,0.4907869970805321,-0.03519815969097163,0.49377855419803435,0.25032483266359745,0.025943361936702065,-0.058430180516976654,-0.20771650301665043,-0.17638674526632692,-0.18286701501445873,0.03441798617856563,-0.2433562267014124,0.3337960967333415,-0.18468767040606954,-0.3105197215978124,-0.17261266109707632,-0.18724482446342888,0.17390370421181414,0.05357997253496484,1.173173813979961,0.006745074529839243,0.10160938313837117,-0.22511897672747322,-0.1205634422265401,0.35740776107145655,-0.24571530722524887,-0.25120620061946336,-0.220788093154884,0.06230114667788468,0.33028882110684,0.14500762062853373,0.4923149863346133,-0.13490306407885289,-0.2133780172348314,0.19835708206995212,0.3588579057738381,0.8349391798398438,-0.20891098776994585,-0.2669194014206704,-0.531921374755426,-0.22291240287998845,-0.06752213074976379,0.22441662180746036
TPSA,1.1243132285476949,0.0271018324684532,4.20800078969399,1.8742653590026297,2.275900626170562,7.151733378020945,2.5322370682647746,2.367853089737408,5.265343900416664,0.8248326894537268,-0.47453450306553513,-0.3981265998434706,1.547803971235863,0.4524705991785049,-0.28753559105997756,0.1982179109492774,0.20914762769865072,2.361058136312564,0.2862576154488093,-0.7221748810381786,0.43851479134979693,4.23476113666478,0.3308345365745184,0.9767975706435365,-0.08779449591369103,6.892651634211301,8.538318198437084,-0.004624359821659733,-0.17069859245113814,0.39338232508434806,0.3061613327064759,7.580950373102144,0.25608608703261015,0.6825395357816413,0.19248299304768351,2.243051911583358,4.635014601788306,2.554689268339167,5.748906768792181,0.570711016155842,0.6006982556814688,2.6763363373885487,4.346108679891202,4.257757367449523,0.65882616315293,1.7931226575842687,2.560009905851877,1.3409537954417379,4.365710546626071,3.107600259289418
EState_VSA1,-1.4970992395862046,-0.0045317536033363205,0.5026586334425172,-0.3327439716939001,-0.4605499752333341,-0.6477411619443554,-0.16196258827273008,-0.11954213664197873,0.4466322371862514,-0.33918629954442575,0.7878787828115663,0.09391682208146522,-0.26039887144271384,-0.26997935436090253,0.2646741358921436,0.022593405540706202,0.1322805516818691,-0.3977710731905465,-0.1551495984434532,0.13937204056092006,-0.006039762383160245,-1.966407518976175,-0.30957082415592513,0.0641243995915307,0.022101474113757597,0.28086623970000196,1.8685812807731255,-0.0010993523925107724,0.07847715633776585,-0.035176219940595124,-0.09179847660054159,0.2768107049723199,-0.15040556512947773,-0.06841909006885911,0.05433970730629865,0.25966366097022286,-0.3601524321937342,-0.21770391696018276,0.8241959950733166,0.3533723776458745,0.2752564679974529,-1.1374857198385198,-0.30795596834929395,0.8269844829031177,-0.24009717187422527,-0.4606616524702802,-1.7160200587438295,-0.5603037543433729,1.1958132453846515,1.6304794762223405
EState_VSA10,0.6164681066665546,0.019462095243814752,0.79968382448441,0.2753498142074541,-0.19310405153959348,0.10533284123897911,0.010599634795859245,0.871704264789974,0.08262442070744636,0.09113397593968035,0.179187571610996,0.18888183799621078,0.6397720197033445,0.15810398597430914,-0.12456492777079406,0.038290588304197036,0.019868298994005763,0.47861406128101963,0.4253258088563613,0.14119485482196942,0.00974324723245672,0.726261771776744,0.30419280230839607,0.5675473909887214,-0.19758592071294687,0.3120050617667864,1.873909996295683,0.0002312871311050986,-0.05574522468691787,0.1762835107149113,0.1567945757720431,0.7645674897561525,-0.09971553532407187,0.09850805806225368,0.16424252407890835,0.6119372273239347,1.0121835998527062,0.3065055342308229,0.6003517556993484,-0.089826022450996,0.17786808150069153,0.7331855409257187,0.25423262281368586,1.744808979646388,0.11645332268080025,0.5058969814325354,0.4269359931762086,0.5262773033187719,1.367081332642202,1.4118202341997939
EState_VSA11,0.18897460025737645,0.02778606202290312,0.10210318079785173,0.1668311025730949,0.07156048199380899,0.3401223503682802,0.2828711108310614,0.09130250145326806,0.10424959977475932,0.07483148657597177,-0.0027145271134726996,-0.3457209357827995,0.05434238657775813,0.0904491862280207,-0.012398495810091134,0.19893254720273193,0.2030579670664552,0.12331711411205086,0.14150650403596599,-0.18713780447960496,0.12328285571219309,0.0840800934855162,0.0944574049847679,0.579966734746315,-0.12098555485372314,0.08397143939463342,0.23684776741795474,-0.0013796230019145152,-0.16122730191510112,0.07440884696484523,0.14035582622924564,0.07441347048829709,0.06944238036202938,0.06801244381554554,0.015828243585897718,0.1163121654713688,0.42678530129214076,0.16146579424035953,0.10305156857643817,0.16939383506261307,0.12380192301636443,0.09276913440404608,0.04030163017439013,0.22657295672804545,0.22978396136652268,0.028612128369743164,0.03527126357857949,-0.04357230225928235,0.01744302000615198,0.0330556880761728
EState_VSA2,-0.6683897411786988,0.017366282858269723,0.724078155714187,0.043483138907234646,-0.06928888572995466,-0.045548279571749006,0.24309101644881043,0.3744515314261434,0.6993885955577501,0.05120644982834451,0.40184380002134135,-0.07421256605149132,-0.08916120287904757,0.2412164837235294,-0.19409488518990778,0.007605822742698541,0.08141219221052513,-0.10682787539943506,0.2452997817801885,-0.0015160692571841291,-0.07550824565232202,-1.2210412004897546,0.11028848249127449,0.24342153458113838,-0.20590322720046766,0.4674016331364639,2.11057248275291,-0.002181468886823426,-0.32237586183067174,0.06575294836808991,0.14468161892764192,0.4652024715580034,0.1835261997166413,0.10012298405509844,0.06127922513573494,0.2588332719271266,0.15635549299188517,0.050856049737334354,0.5350985842934985,0.21410018620527219,0.062373433469059714,-0.24105766375125443,0.2275431791171851,0.9112437509361726,-0.030616457527069783,-0.18298615321306755,-1.2102276923002153,-0.04142528215446488,0.8817990452834332,1.3740241619514735
EState_VSA3,-0.4674473845875259,0.027707798102233335,0.5745783379822029,0.07486811239170052,0.018778912108861193,0.01693840224209067,0.18383423760168413,0.24215297555353482,0.5783629445839665,0.08156058716069313,0.2975501633396056,0.031048347328163854,-0.005972634054124101,0.09655782484397663,-0.24177868840079955,0.09015652885869782,0.013566418477407702,-0.09090842554511162,0.08017280532597398,-0.1301839443427967,0.16021118447716845,-0.6364740362086734,0.01905586348682208,-0.04978374115379078,0.01616678430203923,0.30654916051470993,1.5350888811897274,0.0046926004228066975,0.0014457025613646773,-0.04100599197790854,0.03519436441516276,0.468194616604183,0.11734528582841536,0.14318420735896714,-0.04222297014428899,0.1504388545937342,-0.02542404492335791,0.02633897420075345,0.43732167337591316,0.1472999369433569,0.1427245988269281,-0.025559845649607858,0.19129579952365156,0.797605015450106,0.022275512327756184,0.04933603000452914,-0.6652049569064384,0.06220653786584729,0.8153151713583616,1.0085433798622983
EState_VSA4,-0.25859208489615365,0.00829127653871613,0.8361455863845526,0.02693419728425832,0.11616609749847225,0.06021113868444759,0.23727313281233625,0.31995601598263546,0.6737966479063204,0.010021127773352055,0.25656258428542356,-0.07557290758572424,-0.14730242347432018,0.10116677028686967,-0.13015235599347952,-0.036802485407211205,-0.03716041020034073,-0.12305635068887358,-0.006198579811031476,-0.05554432393874403,-0.008705444686005266,-0.7471897458203757,0.0870812738552455,0.16417105190931722,-0.03141154984023769,0.39549291465712144,1.9238694028165841,-0.0020530010525178517,0.045761213407734265,0.050211303173985304,-0.011843443209802138,0.5381353576299887,-0.002738151658508046,0.014739337448185605,-0.15597528470263053,0.24973325691674103,0.294916936553208,-0.03715864940055556,0.4267699304581914,0.06555829284508286,0.08863767427706865,0.04692356359923129,0.337738832525301,1.0158787065984205,0.06881012389203332,-0.05441344357530716,-0.812711872360182,0.07394468053234092,0.9082932483371854,1.2317891830702028
EState_VSA5,-0.5124538823123207,-0.04276730058006875,0.894033611360939,-0.18769116935523933,-0.026799600144957088,0.015759155878427245,0.2982445322302267,0.18813243454514694,0.7141964622054623,0.04947744539742923,0.39127525374248273,-0.052846607142354673,-0.16897038437317335,0.01562247722874438,-0.16886560985066787,-0.018643939954348484,0.02901463545946469,0.03271452898619986,-0.14902226617839182,0.04585878098867957,-0.06881256392136297,-0.9927133774374584,-0.006185476865258414,-0.016245671199868784,0.10685612082977712,0.2480274831002998,2.4139503127659485,0.00862364398258091,0.11200920250512593,-0.07525685923471945,0.0018335775013275943,0.8804746885744097,-0.0568713756283399,-0.034937575931946845,-0.12365470731485512,0.24686920753139763,0.22992569898848358,-0.03548073898599442,0.5475317677676924,-0.005372383332241212,-0.11250605566315827,0.30480571634638887,0.48343668928160566,1.3030244068316374,0.19599962757555434,-0.07967437510957846,-0.9494667737801696,0.1104662563390373,1.0018340125611793,1.3871007477052701
EState_VSA6,-0.3344960597318726,-0.01758416776476497,0.6170198302261104,0.04410744873562826,0.13489576340708961,0.1450577889143757,0.1926689689392991,0.10112623110688614,0.4495662853324985,0.1753907080112938,0.22162213752920412,-0.1880490758981418,0.08078190140855636,0.016018937974368538,-0.044171969055170304,0.002857668570150154,-0.008647285712287593,-0.03794453789094079,-0.15351723740665352,-0.20380716564787976,0.11979854895856845,-0.656611923587922,0.06936509656080385,-0.04007083192570201,0.0723375143245052,0.1801986944243153,1.4739388707915784,0.009264547377804806,0.05837655172977069,0.11754829310368121,0.007603772839701031,0.3473446975324185,0.011876905847722066,0.11304800170180246,-0.0770013154339937,0.11038325088069544,0.12448285047481436,-0.09476149905648126,0.2912651585528338,0.09678793983368811,0.08024536070156237,0.2978795084883923,0.3587174108877959,0.8538772513836506,0.03561417878237316,-0.04452502536042622,-0.732947007281291,0.12301287034718728,0.9366310625873041,0.9196569537409491
EState_VSA7,-0.6281292210711573,-0.008543161226474461,0.700226615102422,0.05164472998131743,0.0791216853019381,0.24474538184562603,0.41875383793121446,0.1436132558832526,0.6043010327496795,0.14742783227787765,0.41087024358612734,-0.11141125486611322,0.06994216001520466,-0.0728496788249752,-0.17527219737465985,0.04352056086754222,0.020807328729390038,0.12044617757983464,0.08612135885269626,-0.24505596311979932,0.2851985241720391,-0.873039403329401,0.15079160060416902,-0.021965025983289255,0.07534771891501398,0.15202142529141058,2.0426154377938923,0.00827634530493854,-0.0722959566136968,0.14826730811672964,0.0037502940441353585,0.5698843882986404,0.12322545122962986,0.20798640564005147,0.06499331896128592,0.3053700612550716,0.343210771646232,0.08978884481726979,0.46904026375312524,0.041579602961748056,-0.0012450322501989701,0.5186816059604327,0.4616125039597211,1.3225984768885433,0.07598822072061089,-0.14922892907626836,-0.9934021838937419,0.016716374195768092,1.3132873136803278,1.1942113089363737
EState_VSA8,-0.618898182084462,-0.02394801459415465,0.8018148942771098,0.037058051567368105,0.07526177940808368,0.04087139360096837,0.3969645409286199,0.1783632567636386,0.5704815824436773,0.04945867977000989,0.46624751921198604,0.0030612775523008785,0.03446814408210504,-0.11642875872575509,-0.16587313681845098,-0.016784079777790346,-0.1191727575625077,0.04130512817679527,-0.13979918574917694,-0.13763559104567105,0.12863098053794716,-1.2139705679537414,-0.018679173511047305,-0.157091640434656,0.03915318744364531,0.0766332176618851,1.9609726737000577,0.0012464472908487294,0.0581016529309954,0.02851697227384627,0.02202611042625806,0.4980724231315075,-0.021865158041299848,0.12786670606103898,-0.1504219075655694,0.3150700561335517,0.19876074920911677,-0.02289635057111457,0.42160179438991546,-0.11362433871848078,-0.038977775834566894,0.6572890743066816,0.5368393241099344,1.2816321151436376,0.08210143627468901,-0.22258199364440318,-1.274294506869942,-0.0178585521685907,1.3795592644309276,1.30701333334658
EState_VSA9,-0.16995269867503948,-0.04634247662319024,0.7057944229901688,-0.36218610263575174,-0.33228336594595637,-0.1805874751090945,-0.2198961251570504,0.23120433873075,-0.1136087646495758,-0.2057894352559031,0.38397263038976526,0.20190669333536615,-0.03420007730483805,-0.15983419311453695,0.39196690619672064,-0.13362514709697684,-0.20145772663591843,-0.2908135889512496,-0.15513667394020766,0.030496878805591217,0.09906300814562427,-0.2617347553427387,0.007544276426240382,-0.3362901702952961,-0.12034613297535715,-0.22726476913560575,1.5783462424564383,0.00485056854204672,0.1368047406170325,-0.13192960885532343,-0.30233146568214975,0.266794226675805,-0.15948475106386317,-0.11625380065456108,0.14743039354945187,0.5149275927311371,-0.17266349077835155,-0.4591458125406717,0.043125485734203876,-0.3039095100639482,-0.19899421084945476,0.056138970474979816,-0.1731313752626915,1.2207139229683392,-0.1832105291894377,-0.10714885815888252,-0.5281559600214706,-0.05425976601076114,0.9925334137581019,0.9039293553548396
VSA_EState1,-4.417554836378375,0.009243627045180652,-4.679729270940369,-3.8812022779556625,-5.827787375976266,-8.219946293123833,-5.31176818043001,-2.988021238630907,-10.6675028047916,0.21999080429747456,1.9909128737359205,-0.3616568962407925,-0.08030586197531552,0.5386018876880875,-0.6807406575585608,-0.03145054266007046,0.013055192154104433,-0.86117103776839,0.23795461624337189,-0.12604349623082867,0.30304371554351256,-7.409628606255056,0.5731556659003677,-0.08970896961091696,-0.1270055426073408,-8.28016895718406,-11.26115719276989,0.0028439573466325554,-0.1647286677811229,0.4129727663459557,0.23503688175623882,-9.554436945150373,0.19470461640071046,0.4494388178783345,-0.10040927870688662,-6.998146497402813,-10.049740825397546,-2.7621864312335545,-6.663206796248825,0.3318376941769138,0.06326867397601008,-5.004052483243396,-9.51657917682337,-6.498079519919307,-0.07492245401591584,-1.690091386350752,-4.6874150578544205,-1.2587098594056956,-10.062506191042218,-2.0490678374013385
VSA_EState10,-0.8913640696995766,-0.057822796403750605,-1.2044307785277615,-0.9412909921968453,-1.6285186115702723,-2.381661750939328,-1.362974759999546,-0.498732747229037,-2.660864286471938,0.10807498734890893,0.6672400186763123,0.12742056370774454,-0.3010003864030704,0.14165215633456046,-0.2642999474858849,-0.10284909014605058,-0.16917935950883717,-0.4265037562493495,-0.46830420677702767,0.6052078382293993,-0.318798078645266,-2.826676937608461,-0.2957131833984322,-0.18723279145115215,-0.08463377175884809,-2.209681321670885,-3.757312144473671,0.007192232438195644,0.16926503736650353,-0.50062322248635,0.07442362264987892,-3.0522494697709166,0.016417077103620264,-0.179773668696635,-0.5894418874253763,-2.9874828437995853,-2.399167972931288,-0.26282131902402317,-1.76575613605874,-0.127637032165493,-0.014644616467967272,-1.0706131460125305,-2.387146237583489,-2.4085562015838806,-0.14674809761565544,-1.011044385481271,-2.1634084216989518,-0.9036281393135353,-3.8410345899700977,-0.7103173860748212
VSA_EState2,-3.973265044012068,0.053080726439520595,-3.7953173622475327,-2.4293681365660578,-4.880436845964802,-4.694797390056513,-3.794123146321558,-2.7298784341814555,-7.530770794402303,0.18428741789317976,2.5093185780716434,0.019016890693446916,0.3882855643244859,0.12968130764438263,-0.7031340316868484,0.18858996181771992,0.2765316440042505,-0.539326213738376,0.07129265792399753,-0.15602387855918784,0.0002155045055027201,-6.1754953857734955,0.17300934818290117,0.3350657404165724,-0.03777693564005384,-5.754054179789054,-8.286536328307879,-0.0032834423625746406,-0.21972483488558597,0.08493340181491714,0.21788918729173642,-7.311281147200258,0.12375028554991084,-0.19121351397853723,0.12439973467364307,-4.592451837376619,-5.184570002583826,-1.4115878934827841,-4.794184585565687,0.2865102487353265,0.47636979500124427,-3.384535876816092,-6.462188009869628,-5.1858968370125496,0.22393470467584714,-1.5232050086644493,-3.576632652984196,-1.0924808543407825,-6.307674207627924,-2.2800425404071993
VSA_EState3,-5.307177040774142,-0.012320892751775956,-4.305030069656514,-3.9326173816341763,-6.147369910692046,-6.485383691544835,-4.466280114038042,-3.8094903192282974,-8.51348441572639,-0.6490296016510662,2.95787466437748,0.25592965881567564,-1.7813904174939172,-0.3439374206747767,0.5065035994518851,-0.13811713153842575,-0.1312198733779624,-2.249759908753393,-0.5856593607633568,0.6622865421657839,-0.2147661910309107,-6.793905656154218,-0.7603791004195063,-0.2623745961638966,-0.008971722468594156,-6.31713462960989,-9.254571733451598,-0.001021609461242447,0.21521155246343773,-0.26143035901909367,-0.27931988933166446,-8.177237832252686,-0.19938036479928598,-0.3271300816096895,-0.18506970582021223,-5.54997739305729,-6.170754218940365,-2.76086223197324,-5.222113202894693,-0.47417150556498994,-0.042148175930977846,-5.024415511094963,-8.355719578526086,-5.517488261638684,-0.5246415912923463,-1.9502860933277564,-3.9820158123048577,-1.738046388750771,-8.752875635508946,-3.4812597112306207
VSA_EState4,-0.906661212257567,4.650731236911781e-05,-1.2734474390616601,-1.157024701160832,-1.2472765530919496,-1.8916208884820118,-1.3035295768003758,-0.7177169917565854,-2.3573224309587113,-0.1177016763559715,0.3287161755889852,-0.11385920620483456,-0.3884460031502456,0.0961317368778995,0.26983762372802966,-0.10980971229855997,-0.09289476325069636,-0.4288288534236228,-0.025247415762792363,0.27683735825723066,-0.29097396020685173,-1.626451467480098,-0.11362478883621557,0.2834016022267441,-0.031413095450307314,-1.6767436413574952,-2.3182657389175683,-0.003423049784575977,-0.0506215431968222,-0.08155742039402368,0.011567739971572935,-2.2342553514806083,-0.07353807917561561,-0.16902680499124384,0.019331156227357416,-1.539724924084542,-1.9027827588960184,-0.7778876817797742,-1.0472677801722716,0.03146624777941121,0.10035805720244831,-1.2595764942798364,-2.034320214080933,-1.8048079947320592,-0.3471410836052424,-0.4391327368585954,-1.0141584423186052,-0.3927589180289904,-2.7079164634632313,-1.0160567503562403
VSA_EState5,-0.9621031606467728,-0.017902788388072906,-1.5093945825373312,-1.2004916150756975,-1.5902630685999246,-1.8928025666549324,-1.24974095155413,-1.2239065283224975,-2.361694927891558,-0.26714823809571386,1.0734315809152764,0.32710107126795235,-0.2829335559108785,-0.2292292145605806,0.12184134751698271,-0.15891514692814412,0.03999543966677154,-0.37260642881755424,-0.3765085546128084,0.22815628899159202,-0.10084936550785943,-1.7674307689547173,-0.5322083465174771,-0.16213074895068624,0.07145574297144788,-1.401729170546277,-2.454034800136642,0.004405592511338974,0.1460253702312493,-0.09632204594880477,-0.2140165570230691,-2.0798647538473807,-0.1897750012845744,-0.291361346631501,-0.1497988539073615,-1.5678608541271868,-2.1962385748032816,-0.8843869648784125,-1.2432027426504557,-0.3782472784738636,-0.31503535083212564,-1.491222779567697,-2.1467474918332994,-1.489666134186137,-0.2518272019419325,-0.780822699861975,-1.1307618563536264,-0.5658166248140907,-2.4581294958500544,-1.1343221087488664
